-0.27804656646480957
0.15181906909133039
-0.5377874289737663
1.3371515039042237
-0.94977794556437434
-0.84494663188698549
0.70797195123105217
-1.6972865265652035
0.64449488068197447
-0.20997693148084884
2.7675837625946067
-0.42172901165955839
-0.35149839479810341
-0.85637328684422498
0.55976131615653779
-1.5800572821397831
1.9329958105042373
0.4082549362713957
0.35151576161529319
0.7407288193935605
0.67589789074989226
-0.96049025370651775
-1.4559752100622398
0.24002248856643577
1.4596815775211596
-1.0861115964608459
-1.6787203782430753
0.72152006838272298
0.86159282742876842
0.29666782729351676
-0.30844188808585798
-0.30069544429822337
0.010043896323095769
0.19371334314154778
1.8382488470549745
0.21590179775550106
-0.77357133639723863
0.2178794272267876
1.3119134687774217
-0.11612583288619818
-0.44380232143250115
0.5696616622903955
-0.40809966923236346
-1.1190942604528329
1.7901325748011658
-1.6238807633355203
-0.69118366700319467
-0.75708699297341253
1.0681765040566296
-1.9807719480713062
-1.0359565125940799
1.7115610929076417
0.80504994909786098
0.43114012858520695
0.20156168241337999
-0.51627513255309487
0.97112286627814404
0.078006868500329313
-0.079167035128313357
-0.30832273308138752
1.0183747507253875
-0.16039704094168045
0.89450322820904782
0.10299515195834827
0.69307495119667772
-1.5439009130712522
-0.69633548857008376
-0.39846012873039011
-0.90263652459743671
-0.37640118189288652
-0.79418584440150497
0.3898793831852212
1.1674296521398402
-0.12080853120982635
0.90191188404233569
0.8165463554071799
0.42655632357693163
0.60942654893522141
0.24979402289420005
1.7065286844215708
-2.0812250655980384
1.1765542119601853
-0.17540338303128486
1.3724354227492581
-0.19413384181109455
1.1957079423151851
0.99848582673105546
-0.26582413179020892
0.7044492804063317
-2.277082225305159
1.8553490721327892
1.3624405986308246
0.97608884143846542
-0.29081488747866985
-0.1520666818905699
0.40352141425793076
0.46361750235043231
-0.24007704260948537
-0.50923977480033644
-1.5988094837641151
-0.63966901939784404
-0.9889417331892405
-0.44228101914941809
-0.012668043650802659
-2.3454114150520415
-1.0063754150539868
0.022388017043530481
-0.96001699973329058
0.94377185379861583
-0.7464920842319358
-0.33754088556779233
-0.64720037419755327
