-2.5269503583369688
-0.035819427889344384
1.0205480737731238
0.21652310225804069
2.1104225829070704
-1.2505212482788972
-0.11927096643694225
-0.084085360959091623
-0.81887649727024625
1.4741378671778724
0.82060504540771184
-0.82329111718971182
-1.1479153060255243
-1.4190211797083085
-0.18557956083920046
2.2167308189553547
-1.3710768827387454
0.15211048140083913
-0.46985216357481374
1.252214605901532
-1.9724754745061459
1.0973020697713125
0.2867074718871922
-0.82955599989628526
0.080303821985602014
-1.7630314749587701
-0.56249573002502429
-1.5466186384576712
0.042079192472069343
0.80625499764212949
0.74556526920396915
0.72449332080997619
-0.25946908607603997
-0.23863833738354362
-0.74189470556980597
-0.67769539277213431
0.0003825297448168505
1.1033877463727657
0.21518696583118288
0.17356053569489199
-0.55954529096796046
0.65420690224464584
-1.2076975716332223
-0.1949142158681561
0.028356407397769519
0.14135362740517704
-0.51006295691635806
0.89658497668747916
0.34637872572602035
0.51992383326268421
1.6663209702760098
-1.6406639330191604
-1.845584640664591
-0.0070827392799832044
1.3795198703386777
-0.68309208069445104
-0.94522851016667664
0.74806401812838064
-0.34057176440927928
0.25094499053861241
-0.20320811284118051
-0.2367153614291154
-1.3148489752803048
-0.72244588426149225
0.53887696541631702
0.29787218713844876
0.63905488233936059
-0.069029023531359424
0.17298881202426797
-0.19052709536017717
0.37380857649157423
-1.0216672987484661
-0.39039671446214858
1.3012529553394034
-0.387630892491655
0.62263876903227744
-0.98341550088621699
-1.0492778177877005
0.69051115363577531
-2.1343699360058714
-0.16177086567814142
-0.077320860553220336
-1.0479916288434517
0.080546710467272936
1.6092969011373457
-1.0238065399604599
0.99994238508081512
-0.30436318524017703
0.36989865027846047
-0.14311234708232939
-1.2866754867032149
-0.17458089392018108
0.0086102529233640958
-1.1512691648071012
0.52776440311731998
0.36805512315880151
0.12131437682628692
-1.3743169122605783
1.1706729866760566
-1.6010657983330603
-2.6203476226137878
0.56385059814883653
-0.2280759186094794
0.54613324685574038
-0.57764199891222379
1.3769658130407674
-0.071133055971058734
1.045546558188492
0.44604160313533286
1.1157698852389693
-0.55308382731941919
0.045980956431654965
-1.2793405923171774
0.14081041783884293
0.076864131580898998
1.5176958140461672
0.028616206796192159
-0.56680455306394995
-0.34956099144341035
0.57202516881690513
0.246416197776851
0.34774195434306843
-0.77939109735020407
-0.042822599983676206
-1.6483417126364535
1.7611410820353877
1.6979430028720586
0.0055523940329794902
-1.48277634406265
0.91003340161112733
0.66190126552422546
-0.6441476271822224
-0.91828587096470282
0.32540241031538025
-0.075023376706050096
-0.016355554963087177
0.15484676926025354
1.2771496918582415
1.44460980558541
0.023286296078917103
0.1593320143491172
1.2219703866341578
0.19168591657682582
-0.38830706876515114
-1.1814805474020702
0.17810619623233587
-0.090594346786662172
-0.48173831564746894
-2.1826401354371252
-0.25184905458788526
-1.1302153994735831
1.7368032430595641
0.25924534895743206
-0.17054303859400491
0.91278978798004995
-0.54829097720876818
0.090182484920614717
0.95730510008828962
0.20970457975731371
-0.71634171482892917
-0.38125930880428288
0.50970189586431047
-1.2420815178085189
0.83432651665410473
-0.17598054817523531
0.0059626268586040658
0.19623917802304822
-1.0388418780715143
0.29722984229458677
1.3135584840981374
-1.4719284073132506
0.74020810872458764
-0.10121632551771406
-1.668501569187872
1.0478535249567456
-0.11750729388248013
-1.5220042407516103
0.42634809570207399
-1.3422751704607154
0.50022547618762381
1.6712182755540463
-0.74843426441177441
-1.3112802045269316
1.0892818507009017
-1.2058288137544311
0.26060847498411954
0.27910820000836911
-0.1880416255037807
-0.068513422050486411
0.69550527475844537
-0.47336513435963556
-0.40248189042789406
-0.65078953520588101
0.27661369976934735
-1.6313885479590893
-0.068690026277401006
-0.38388776365990923
-0.74992969197417769
0.20161335206774861
0.4338662034025918
-0.10520619091469641
-0.93256773902982548
-0.47508733495044037
-0.41200876090146482
1.4848704125514984
0.38072289067944831
-0.2957147759640204
0.0042199995489576574
0.43878313402294328
-0.331793327436821
1.8179335638698582
-0.97750487143853004
1.8661538294241355
-0.23781279730909829
0.23455100909198029
1.3624159710571158
0.7224269511646233
-0.57136671724191812
-0.6184798630322671
-0.5869550451445581
2.9511708626962276
0.83296630856885101
-0.50861304182030853
0.63879140130060008
