-0.27804656644342052
0.15181906909133039
-0.5377874289725284
1.3371515040305519
-0.94977775930291897
-0.84494663205505838
0.70797195924412881
-1.6972865771276742
0.64449488068422334
-0.20997693146292659
2.7675837625946067
-0.42172901165955839
-0.35150026023590031
-0.85637335041877971
0.55976131615653779
-1.5800572948166232
1.9329958105042373
0.4082549359394817
0.35151576180152527
0.7407288193935605
0.67589789074989226
-0.96049023718506277
-1.4559752100622398
0.24002248856649969
1.4596815775211596
-1.086105143206038
-1.6787204821377764
0.72152006838272298
0.86159286664791046
0.29666782717490581
-0.30844188808585798
-0.30069544429822337
0.0100431953127498
0.19371332354123919
1.8382489045866364
0.21590179698360193
-0.77357133639934172
0.2178794272267876
1.3119134668987047
-0.11612492874471456
-0.44380232141789155
0.5696616622903955
-0.40809966923236346
-1.1190941097367015
1.7901401284857674
-1.6238846027985603
-0.69118366708154089
-0.75708699297341253
1.0681765040566296
-1.9808009992750402
-1.0359565125940799
1.7116014391642653
0.80504994909786098
0.43114012858520695
0.19893820941806087
-0.51627513255309487
0.97112286565927497
0.078006868500329313
-0.079165999607180224
-0.30832273308138752
1.0183747507251386
-0.16039704094168045
0.89450322781479097
0.10299515195834827
0.69307495119667772
-1.5439009130712522
-0.6963354036173256
-0.39846012916829898
-0.90216625244169102
-0.37641202753203051
-0.79418584440150497
0.38987938417750956
1.1674296521398402
-0.12080853230848423
0.90191188445169224
0.81653916859375475
0.4265558768105816
0.60966169176263463
0.24979402289420005
1.7065286829766058
-2.0812250655980384
1.1765566675884884
-0.17540338303128486
1.3724354227492581
-0.19411710520794179
1.1956508242801966
0.99848582673105546
-0.26582413179020892
0.70444928040438559
-2.277082225305159
1.8553490959087073
1.3624579742513738
0.97608884143846542
-0.29081488747866985
-0.1520666818905699
0.40352141425793076
0.46361843113761819
-0.24007704032430829
-0.50923977480033644
-1.5988094837641151
-0.62261675789977511
-0.97443085005878982
-0.43095149999492194
-0.0005941108359082825
-2.3349676904462151
-0.99314772601336387
0.037507032139126747
-0.94999653793156147
0.95949088982140662
-0.73503014038085135
-0.32564101900538117
-0.63488606938553804
