-1.529611694104823,-0.14022311308536628,-2.0622381332531265,0.72928898861071734,-0.3514480264631677,-0.5382393959224433,0.76810672915877987,0.92728319103296275,1.9430563085065715,1.8238511823379493,-0.0098111098680338047,-0.0070945899777062494,-1.392420091770578,0.18666781876380212,0.30392662416797567,-0.45768134449090458,1.3987988475164503,-0.48641069603721004,0.090204961650758655,1.172136562417025,-0.70293589997208017,0.93169877981734406,-0.40314985886865856,-0.27233633790676992,1.0136514769050733,0.74104342839115078,1.9400232532633701,0.34460099555594548,-0.20321766837076338,-1.4544118990497892,1.3153955277673779,0.37103081678474775,0.60443238638582408,1.2996961597196757,-0.53325180793820315,-0.74863406341503413,0.71815690758372586,-0.62230404115141313,-1.5535955878717949,-1.2363795105790256,-0.31181299128343049,-0.67853020479073767,0.2279664586424166,1.7945367557675294,-0.78497626180131419,0.58489785119617999,1.5919597740815781,-0.36436605688709017,0.1462248186628235,0.94846076291195613,-0.096527158544778099,-1.9043152081061099,0.26235202047502448,-0.34737072814172787,0.98401781532249066,-0.47245862129401633,-0.061047505382187194,-0.84899049291324369,0.56451831313472989,-0.43154528350378157,-0.6794516446729042,0.15925358978785323,0.057815393068731201,-0.84765878881132051,0.68135996480503613,-0.21873890695370493,-0.073776571477995267,0.42572489312478157,-0.79619279174533664,1.9350075997919498,-1.2391616096727887,-0.48433353225115205,-0.47923507907998086,0.87584886911992343,-1.0479541670345265,0.46959705381108441,1.5600295499846699,1.9606234687549644,0.17186534941636009,-0.73509020818072446,-0.32421689299261885,-1.7282038516571516,-0.6550523791103896,0.063933021657814212,-0.27600895607255155,-1.9885521048172703,-1.0915521290908354,2.5152894834150241,-0.16038993190142722,-1.1049681588556772,0.39768609083006584,-0.37400712945303283,1.4500896659601563,0.01583465816916451,-0.9337306702837852,-0.87351803991169841,-0.53348112410243065,-0.022184067281681052,-1.1722660449399813,0.35447819991052615,-0.23363089100464687,0.95944931999847316,-0.37136397090264428,0.24290922731969569,0.89139999471460063,0.14188695687609829,0.51795659322110188,-0.096461501411056277,-0.054428063730890111,-0.73964119228611525,0.56050859391863339,0.70712495364999028,0.450839800140725,-0.93156307582074227,0.75230326947845072,-0.59754219517620377,1.1225167947354384,0.7805609258011702,-0.69386517206910048,-0.25933081667238223,-1.3194692285044882,0.41136796688197064,1.8548518245292429,-1.0006268707901553,1.2670622799699192,1.8412005272472292,-0.53690877378395774,-0.29408717054400602,1.6196435293939759,-0.13325209747499359,1.0719351495333131,-0.22714180092721181,0.00051030288396706374,-0.89728923588282938,0.50618126149540399,-0.15354702856050134,0.69566721959422073,0.65535585554746389,-0.063406307580737939,-2.5212793614039763,-2.3789204709303098,-2.6812088427087915,-2.2970246608902598,1.1532640403729906,0.28640899973477507,-0.84188307041230959,0.27461708560228776,-0.30151931295681433,0.38334345056844377,-1.3967060773876323,1.0561109835597562,0.12749861526550371,-1.0262891342882994,-0.75761037322261471,1.6428098750618998,-1.3759563489281748,-0.47997177406296321,0.31945146709875211,-0.88325096788846891,0.041222210295259756,1.1874920937789264,0.8197582237492762,0.40797545922383377,0.30087434956737774,-0.0015033971463328136,-0.011336176046352,0.57964273713838066,-2.0135873643624214,0.19113379924243235,0.35573146571316594,-0.88077802150941831,-0.12153295313368892,-1.7077021206100433,-1.0717297756955417,0.94147503315529357,0.53728011247184237,-2.1224487043454872,-1.5178344144981164,-1.0190729155053704,1.3138267451110768,-0.33374071917862891,-0.83115648274905785,-0.22475882429984703,-0.43422671061547918,3.7638887697387235,-0.28552652303351994,-0.80475941704302512,-1.4605016824865418,-1.1179581142924557,-1.0445540213840949,0.84762267693065774,0.57244683228241389,-0.72535090099577304,-2.0031068274153414,0.47013777155655717,-0.26017080179341512,1.1253276467897253,-0.49219257880890072,2.6959928328975953,-0.61581162937619105,-0.29100449471421236,-0.12198108434551216,0.54952743066012932,0.078566941911833665,0.030895875316386896,0.86168652371037402,-2.3682403875453906,-0.77517767709533592,0.03250346833020832,-0.77557643202292947,0.75649778930590339,-0.0055371297237813283,0.60715233536640534,-0.06558057862746651,-1.0311120629546329,0.77945104877193028,-1.0259111844756064,-1.6210035513866323,2.3257984187650025,-0.12283621985334969,0.33660693201684211,-0.079708351804875871,-0.332740671562539,-0.011910411134910901,-0.0034428725980985377,0.28371530716423804,-0.2242685248750596,1.0976324139141214,-0.7706901263636905,0.77819576195976503,1.7082207603040238,-0.78674709274032495,-0.32392146778867414,0.011863504899742326,-1.0063104476749414,0.26892388399624351,0.037372695286599429,-1.5058683836655704,-0.68835656692901448,-0.67425537797420076,2.4269919541130691,0.1119893186414169,0.62873145485070303,-1.2486913330604938,-0.91382277935376033,0.83906478387353589,0.96288154440441065,0.70851820330170134,0.31861046910019936,-0.64460311068605269,1.0565667621903188,-0.58231092622765956,-0.71395891946801016,0.40967000211303922,-0.050960172602075922,0.4086844154592128,1.8525305485160199,-0.67593181700718374,-0.97782435105196619,-0.88903835630361416,-1.9108621043330991,-1.0558622709796626,-1.3741992295468837,1.1892009804242749,0.70674799216703699,-0.072099838358734417,0.8182860971717526,1.3613277476917882,-0.77107891764975134,0.46320121787690938,-0.028515688507514431,1.9971094474160138,2.182984840956915,0.09659987272031377,-0.14748905958496375,2.3298127491088421,0.67804143828300656,-0.47603291947021081,1.3283768047106321,-1.0683058082280268,1.8141207162963984,-0.31489286449250437,0.43795133066277542,0.77576035826134671,-0.86565208936161309,-0.75717901067026916,1.8665776633787394,-0.58439956634497847,1.5106229819134378,-0.030925547905910844,0.61096003500470697,1.640793697945683,0.85226721151802609,-0.80197819467514675,-0.205008223536117,-0.67121781994652097,0.25749609167190435,-0.26962574920090743,-1.4704233170053096,-1.2645181871757452,-1.3580020890244839,-1.3792054394904636,0.18219965607561098,-0.23873182474553589,0.51588994923293807,1.9073143446335821,-0.26211260093892663,1.9022653967614087,0.69049725412568097,-1.6639820150591096,-0.19451290910921934,-0.17535059851486356,-0.18630073506887726,1.2024017399950302,-1.1418715601930223,1.462793067357671,0.28363477503522255,0.52080911134761754,-0.91488136919207985,1.3678338156809742,-0.24459945873286851,0.30036198542180931,0.13834499530697547,3.1088951615856768,-1.1604325612828206,-0.91661350876969083,-0.66379313297378661,0.079381065220927027,-0.85395939490390038,-0.94929653346984288,-1.2441238767661642,0.43753277767747339,-0.97696836790005892,-0.65305692952227257,1.2001752191377206,0.16092324671193015,0.097313543864737298,-0.027814139238619549,2.2876826376528476,-0.068400925601822524,-0.60248650503336287,-0.37091151209546896,-0.6250049882585853,2.0173502789082165,1.5338299546164387,-0.17490626986089458,1.4023456399803653,-0.42649532099743737,0.05653357126187028,1.6479472528353483,1.4059647337559582,1.3634082182199854,-0.95247849376241223,0.17759108519420297,0.60162745149761576,0.72722358113415009,2.2375528129961642,-0.52425146099955022,-0.59648328528354588,-1.17230168392558,0.53683332766254621,0.37254280976823267,0.32656545361306027,-1.7917640776114665,-0.011329211493694195,0.34288485665488871
-0.88171986352976928,0.63259087229281763,0.32436858624383924,-1.6247953174306782,0.09892687895757378,0.34178893806632749,0.082818854247138696,1.41168403520085,-0.50060141148644588,-1.1049443350940478,0.24040810493229603,0.16339018208215944,0.096028901166000491,-0.0096226817711544052,-0.4852211124688805,1.2104572389002848,-0.61769284290575666,-0.35848279555135582,-0.37728062627647124,0.52780024382867274,-1.6699088031198206,-0.01282049284826647,1.9663563173590657,-0.30499466945593051,1.7551660604620367,1.4688277615572558,0.003808074936102543,0.14930745069101714,1.9248283504907628,0.44947631160758139,-0.95589370888579905,0.13491112366735394,-0.91234246820816189,0.85466547945481064,0.69770951078441024,0.70289640921763308,1.7351325100895842,0.50227756295663151,-1.9298572038445627,0.56042470478963391,0.13643356409531079,-0.050717050986128102,1.4230290870874387,0.78056612211325116,-0.20953223812606178,-1.0238677795521207,-0.023865466063110866,-0.43035389754350289,0.76866375302925194,1.8742551652347643,-2.221141006207878,-1.8399027037858915,-0.16682461744026275,1.0079941992946611,-1.6783178688616232,0.28609408911190104,-0.57068852822497751,0.5131777489064413,0.20325955404022064,-0.87239206173936801,-0.26160219492991438,2.104437086698435,1.8919475685322293,-0.25405048912135236,-0.62730234534834051,-0.82146358226688199,0.6468862342315943,0.98594791137678695,-0.3938189606233346,0.57240548634198818,-0.12950643613020774,-0.9461558295048047,-0.35280856323207249,-1.3570984533578847,-0.83423006696230884,-0.33707774244089689,1.8152469465237944,0.7352757147065494,-0.90938824212170688,-1.5911698462603243,-0.86784429502081795,1.3489836625202927,1.084775472978317,1.2814674500068877,-0.36199942947602864,-1.0122046465910424,-1.34070072140999,-0.7949416811999217,0.095208723977222492,0.042177098348832591,-0.0022789227548494183,0.11317149937343518,0.8562604600375594,1.5841635540494465,0.92432039972069879,2.057156296535624,1.7783463705328724,-1.6039413019668378,-1.7991720931349335,0.61486515897471061,0.26299463609410872,0.12204332992506907,-0.83631164235382571,0.72558923021424537,-1.120794205720101,0.035202570590746517,-0.455588133378447,-2.0589485714404829,-1.3283930539663753,-0.40842796458115321,-1.3172826038072811,0.20202739986896198,0.69000082775113036,1.3195605101836643,0.61335063132423639,2.68843083619337,-0.45769617864819889,-1.8743111206157572,-0.35516128640441574,0.75506059458241082,-0.64727312463946562,-0.77899512979867191,0.55696241404522895,0.55054131861467248,0.4007367169095894,1.1703853110455802,1.3888045739401778,-0.61175269844640501,1.2464177745101637,-1.0700987539083087,-2.1934700344510527,-1.0934534041375132,-0.24652691687329806,0.63621012512561648,-0.053768536239304582,1.5170693299495612,0.068371031497672624,-2.1914783669953644,-0.093756054841573247,-0.081096291238128643,-0.35401241583890281,0.32261338227132036,0.71597255934475268,0.10619233247437593,0.059855222078510108,0.74766253823463036,-0.65811569767946032,-0.72136314208565566,1.252419666987046,0.27586337069893346,-1.1459797984072566,0.40939240941151034,1.2194670028679451,1.2789883359283791,-1.2420544961169704,-0.11479869369926572,-0.25828867851776799,1.3469347728636831,-0.28068957197620603,-0.84995621845157954,0.5759650410966547,0.28035005530979884,-1.2579397203260112,0.19516897083218185,0.46590771243852019,-1.1879419491634295,-2.0411606475792587,-0.8355979741310976,0.45783227934718246,0.65802587402296986,1.0294076470360809,-1.0502378233449567,0.6579969597183889,-0.8506278043766764,1.2262225433785192,0.46171741001314837,-0.14721291649530643,-0.49568311458090769,-0.076222832228242915,-0.061510121929988948,1.7200321027086167,0.00065350710015008528,-0.081802799908090293,1.170494026736502,1.1477401330074628,0.60282313458041581,-0.42180576174855006,0.6182942034599378,-0.15872091305185645,-0.60858770394897421,-0.074865232916684871,-1.9209233542570103,0.9955564454007988,0.30479842570122506,0.30736910366332509,-0.37955624399335486,-1.3021288689974178,0.57365065246664138,1.9709266338307818,0.8045248359590158,-0.01576903654276865,0.81881671161881997,0.93953317896182187,-0.33234254396803969,-0.31283600596659611,-1.4977847582711201,-0.68715540995804902,1.9446321443059604,1.3734687645091268,1.5664332640724139,0.093492902587455615,0.71702458446599926,0.61618428778431455,0.6725874581110346,1.3133097476525806,-1.0655305497347565,-0.084632849851416489,-0.37530111203096128,-1.0130187637243,0.89111944565340817,-0.17735152832275375,-0.98508499154156748,-1.1209275832698786,-1.2332892683077596,0.61174774431581902,-0.48153765885199817,1.1908572384872582,0.94801531596748601,0.035047494431059791,1.4302849496830632,-0.76599353467839393,0.031444520805070125,1.6015322453394465,0.044137747276732253,-0.72295661053818594,-1.3659668528510724,-0.14661100638426866,0.018373903929956553,0.36886433082227943,0.013447293842397668,-0.3887355156325783,-0.40378550186833978,1.6035367483596459,-0.60620764455490173,0.62183238069118707,-1.1564577125837623,-0.55401496272544581,0.28410217345377203,-1.4228971487508122,1.2837337277259981,-0.43340412895684982,0.65823129456808449,0.97931245853081095,0.94109342013103858,0.68868992696867537,1.6633276081449522,0.28427444625593884,-1.0714297584613524,-0.68447510921372556,0.36656687454399201,-2.4409463643681817,0.4744300094292726,0.68641877456967015,0.23250634409164761,1.3565948326295167,-1.1956639937283069,-0.38259670886381658,-0.2719661325630468,1.3435950332295874,0.91730141943730481,-0.085557798453465742,-1.285492408280184,1.8823179186125825,-2.7334102362963004,-0.49582562831209293,-0.30163361122259891,1.6138305269683431,-0.64010691859800484,-0.41212420716455828,0.047898532200530683,-1.6677348294360268,1.3358769772852017,0.11704282491658088,1.5603099930821425,1.1066897861326821,0.70304735361630066,0.58691574629013243,0.21945306681985388,0.87572152223816879,0.69391508120152146,0.60471290125605148,0.40344356432416018,0.53151149306876566,0.76215111507094424,-0.077494736099740405,-0.92344206790767291,0.68540526382703837,-0.55206115444711024,1.4964943395683219,0.089010672987447539,1.2690075821072213,0.15161435324756528,-1.1738645111997348,0.67841595888443518,2.2011088985167166,0.6413948381560135,-0.087156824635404972,0.64521359527416311,1.3873177386679865,0.9807848650693739,-0.66234205265705903,-1.070402298462543,-0.61365617513094461,-0.02666971172858771,-1.684817930308057,0.55241886673057683,-0.77767037754242008,-0.29036219013044334,0.24447214845692788,0.94696018245671798,-1.2228878012385305,0.86189755998593731,-0.64345789927820118,-1.3531589593881528,-0.98210374418699364,0.14973492381409592,-0.70781957445488486,2.2229364266008198,-2.1084128085264067,-0.8670663426853088,0.32258864349644967,-0.096793092272211376,-0.22004875100980612,-1.0196904546916306,0.40843116094331333,-0.43447405933747341,0.73295760127900289,-1.7896750192443438,1.6162318620448823,4.9211479958168377e-05,-0.46425279250797735,-0.3667370613226224,0.53605840696795259,0.46308150451857338,0.30144622223050732,-1.4851480029503705,-1.0683340492597204,1.0464672073571684,-2.4693406311545556,-1.4350909901112114,-0.43010193552765458,-1.0619250994869529,0.48079965212876996,0.63936711825204928,-0.69414951107328604,0.929004585896547,1.3347021792550131,0.96360027757907207,-0.99880029727543296,-0.81360939771117291,0.10615136027601442,0.84803407555483612,1.0894518369442894,-1.900306832467326,0.80883707765795199,-0.53973008788222721
-0.74095992093213248,-0.85911375574134718,0.80331161704000187,0.81341058179688419,-0.21145604150438554,1.7178866318515569,0.86660653742295302,1.1205763897831349,0.65565170541125606,0.5072359585306685,1.6078500790614099,-1.2883506715780109,0.33475382935446302,0.35459962539950046,1.1860759642473389,-0.71687725419501191,-1.1977079288386805,0.95633957356663046,-0.71449310955776635,-1.7022378944141638,-0.28856207416534196,-0.66821759830920413,1.8507588316163974,0.33150411826941378,0.47504829951787036,0.99985440188469765,1.9012813443310925,0.7669801463467486,-0.61819003815409834,-0.1815384031340804,1.0036073579347513,-0.87674633615911512,0.81226991708998708,1.3323562671866971,-1.8986536364464732,-0.8987951319428118,0.33889885172265094,-0.46488625520882493,0.10487596585424526,0.24924710860133545,-0.32165527212438794,0.60552985017149263,0.16227916479958754,0.85169970869829004,2.5786893458081157,-0.27112923570759911,-0.42660477648319545,1.598665553591438,-0.71513650563156372,-1.3890170554324994,-0.3358357380157147,0.81189209557215081,-0.86076756268963894,-1.8736109070891898,0.42085715233915016,-1.7827830076511046,-2.4891638258358335,0.058315891414515306,0.23805968412625286,-0.85847255052262783,1.1906446625526135,0.9696217619854699,3.2466596567966333,0.24695418844057432,0.42693292951783673,0.59752233041887537,-0.79537155519855274,0.70248209083574253,2.3753336069258539,-0.25511215234707468,-0.48144647584027078,0.30005501220294795,0.50030245914227556,-0.8464809424841836,1.330543253411675,0.35808066222650736,0.99921916267909461,-0.98734900879728149,-1.1169777371765575,-1.8361074302568623,-0.074149864661176235,-3.7660180759016373,-0.63504120476024484,-0.46478723434256802,1.3591058710084378,0.58804470722503821,-0.46955723000114052,1.2916703060686312,-1.195174200819147,-0.19999733805335534,2.6308742896806372,0.49648600056718212,0.54029681346649205,-0.0079970092985281929,1.2171829453518774,0.37604255387076529,0.34164492491363241,-1.0673707906278849,-0.74062383483998884,0.95312372490794839,0.57224884716922153,-0.73778442079209228,1.3151565081511825,0.76594983272542416,-0.32062335133179298,1.9245208410516172,0.49125958036030304,0.26257168136876596,-0.91976274999945073,0.94542467556655685,0.34346103066352324,0.31617927865216722,0.51268872597184589,1.4511496187194777,-0.24067898947788094,0.56845775534806575,-0.75437571019545924,0.10918381063768082,0.34685482333459811,-0.9536062121425759,0.073734963499146933,-0.99124299553883333,0.7641810678779829,0.98380311272925947,1.7009003179885076,0.025541063790203437,-0.9217955289617028,-0.5411599320122461,0.85290330586255125,-1.4081567764688412,0.16108406912819931,-1.5972265553677443,1.3554835503784062,0.74685184835005258,-0.43796151491179963,-0.16637102508437693,-0.84657317048995195,-0.46095377812232496,0.73866258136413954,-0.021238720648821367,-0.55472631854164978,2.5664832383327729,-0.35300551396870994,-0.61240390301378689,-1.3230448081169608,-0.74786351111070215,1.1834023494525787,2.0711567376363371,-0.17994590339900857,-0.097316123774867619,0.44881640008514539,0.73800126329530624,0.45167555811453497,-2.2132222331222797,-0.83421537047874417,-0.11951468709194973,-0.85335216964901628,-1.4281351918947347,-0.3333492450643693,-0.023524494461967395,-0.43195879859017583,0.33762900495113979,-0.60636053532180123,0.51464799891561741,1.3414592205675036,-1.0368020753757257,-1.214412038454864,-0.34818263435338159,-0.068392681586649171,-2.0867402793013072,-0.092862984204170301,0.51156649180452585,0.45379746212110078,-1.1806515459308586,0.16678399279714812,0.94308834784529494,1.7685954316872452,-0.51373572352736718,-0.78224492913684329,-0.57824145293231299,0.79156703263901473,-1.7470782653415082,0.9627662752664059,1.0915710662343925,1.0372870240777909,0.90085433192505904,-1.0092778140043677,0.53896143855307899,-0.17310249308480657,-0.86046821844568455,0.9804654934074124,-1.5761582060610033,-0.69795153974599022,-1.5820655833496582,-1.6911056218169831,-0.58005411466072898,-1.9902054325911875,1.3969258969743032,1.898677788329846,0.69017822725580102,0.52762022474986714,-1.2218182567507361,0.098159876776067884,0.79611244901213551,0.85785421885280977,0.90018649379600357,-1.4905283908359781,0.31526274913152436,1.4618520218055573,0.42916202131133169,0.026165099650650954,-2.6704909208991467,-1.0041328867651578,-0.62062668767624252,-1.5689450703040948,-1.8153129610252658,-0.1226732910432245,-0.7104486251561134,-1.680524745723889,0.023587774005454181,-0.5732003915142696,1.0665423310187341,-0.041715013815950858,-0.80888805642724382,1.6204924179261253,-0.56574542948447037,-0.97242550048267073,0.15594333630875079,-0.52012403197060852,-1.7293223854570676,-1.0752622892724051,-0.16531999768364769,-0.16214686991826538,1.7139327225758179,1.1907389029436271,0.24975908033197772,0.6848955022051042,-1.3862707969236376,-0.35783399044586661,1.0991589112118185,0.2708399013579329,0.97551301544004942,-0.58285540400370572,-0.78076161124744659,1.3741892631376931,0.70804079887490001,-0.03919936954158016,0.29087637171137143,1.1694329932966858,1.9259420535645289,-1.5253191929976679,0.35325280816037014,2.805773287957587,-2.3321331416347557,0.86513988762273242,-0.47108160868422527,0.17962695817037977,0.67778993042927904,-0.056230693118299653,0.25255722482129572,-0.48314967751410626,-1.1593156569831307,0.95867793360660125,-0.86261687391600417,1.130352392691141,1.1395069012679835,-0.91844163871446871,1.273089601780407,-0.83570295366077296,1.0280383172179559,1.0234457807283921,-1.5286152502420529,1.5030245431696263,-1.5086522364697117,0.29398807860113962,0.49976893063841532,1.2231029132946052,1.1589168208533136,-3.2337480432705692,-0.65718946604337181,-0.02108430132204062,-0.059125099312284941,1.1232195205548068,-2.6893659436600763,0.31740064865834894,0.67721865211881505,-0.80499491690277636,0.72126518827032327,0.25324678110432369,-1.4960501626262859,-0.64994093669472208,-0.69877012753853684,-0.50578827985350994,-0.64944945040734414,0.83710087649673903,1.4039988771652114,-0.1698560128185555,-0.13248195158427223,-0.22823593836584621,1.8958587472774053,0.24293904883910888,0.50067401047064619,-0.9318669144168793,1.1092108848653792,-1.5988251842487218,1.3539505175531259,1.3431534979002571,1.3564065415017503,-0.76304085997550652,0.8245149484997204,1.2291294990675801,-1.6520513831538302,-0.3363947105684198,0.19822244508867379,0.83039924112396335,-1.155371112101119,-1.5672538209158859,1.5080793531626553,1.8546842850342271,0.29091554919569751,-1.770855263046154,0.34984901763240173,-0.9732999881595259,-1.518167201742453,-0.73592323211165378,-0.8772777775527878,-1.2036451935599559,-0.12706721086747799,-0.25090637417479561,0.12522772932198484,0.37960205600032909,0.34229161821427073,-0.73564126620640591,0.022261660715007358,0.64201791859336066,-1.7548697566992382,-0.6186712468852561,-0.73409014611154388,0.74437302274744899,0.72807837661542252,0.56427692140780328,-0.54569799098059857,0.12636754540428322,0.61969710818487633,0.91633740661502905,0.9203773777283496,-0.50082393433629269,-0.081222235084326341,0.29429762051690084,0.26114800324176801,-0.67057042545463519,-0.034146518739365125,-0.90660655185979033,-0.54460121064495104,-1.7084882482432198,0.6414273364869908,0.74089101734030882,-0.5945106504472546,-0.5809711198378894,1.582254198696623,2.0617623271353738,1.0017957026516731,0.12405912456646787,-0.80949239578462873,-0.36067753626124449,-1.1474216906937962
0.67042672628450939,0.69801226670487726,-0.67442714984392238,0.28650233426592669,-3.0615741417378026,0.066017991710896812,-2.11181801410756,-0.95067343055536901,1.0597084127093075,1.7298817846629218,0.52295446848334848,-0.85898630895982953,0.20997507391551434,0.71097719686638972,-1.2115003279465126,0.61937544922836385,-1.7118298859496883,2.2575605782690911,3.0003869732054076,-0.65347568862842975,-0.69279404004442857,0.92045433436481994,-0.17278373306337658,-1.2835388540314641,0.30902038002280724,1.5388294826835018,-0.3741528759726423,0.014212280065775454,1.1412962911096629,0.98611242656242204,-0.54477371550506193,-0.12755259322639551,-1.812072129718554,-1.1375944885932638,0.33223612836545902,0.88382281493665471,1.2312699870124868,-0.22764735852539722,-0.68745135940985447,0.89962224844791183,-1.2975052643105209,-1.5258456159372691,-0.54125291484544769,0.54116970361294836,-0.30873278773186602,1.052648767933948,-1.3771537777573271,-0.5474290356683994,-0.43820487528136504,-0.095958911967080826,0.3191397556261481,1.6140062921585709,0.19971116761443178,0.23252316009173774,-2.3843590939519754,-0.61657308152782708,0.84192587030684896,0.65124297884467852,-0.097064708035672728,-1.570543106244348,1.0029537691494863,-0.44721626425028571,1.0702614079044446,0.29780725040684147,0.31675564882312895,0.74636626600510469,0.52773766613715789,1.1241196739252894,-0.69466088134155646,-0.15354227623938657,-1.5710632598838403,-0.25017398608168911,1.8076696330145006,-0.23623069711582298,0.15397350612629571,-1.0478403656263457,-0.97457533414198849,0.58276037272018211,-0.81302318907517568,-0.30853951074024599,1.0620787996787415,-0.19451891511512404,0.21532078201847443,-1.0266247549023864,-0.88180261980004271,-1.1134704211824225,-2.1315151858150716,0.045997778803230263,-0.098349401120053817,-1.1188070492568583,-0.5746173504320139,1.3261250268086642,0.29703451826971405,-0.26534501404652366,1.2518549704601443,0.53530067911393031,0.6734220859607174,-0.49270941721815392,0.89352248098851683,0.98008617058192116,-0.31772663351412384,0.4079711040346613,0.097660077556702252,1.3195830750510542,0.0010305482342407044,-1.2015035836304355,0.54951771910134783,-0.95506400943252712,0.50285781888152992,0.83419967745459167,-0.42055423557289451,-0.19734553154464635,-1.5646582542952163,0.12472785984940314,-0.12157641700888261,0.37858641954142408,-0.63774307690486709,0.95140113952628103,-0.7603451190694821,-2.4318796876944604,-0.59411574564911018,0.90981111020314354,-0.85817561733958903,1.6227043758964923,0.4979102408447339,0.93648190441737433,-0.21695969412499849,0.055325674573409957,0.27521377373772021,-0.67801273915646088,0.3950692493721869,0.62265523859081384,1.0578897421083664,1.2085477558930597,-0.0042126770088731632,0.0090016489682530967,-0.16202216348266407,0.84273319237018351,-0.75105637754725174,0.72421028297252343,-0.50322344252237672,-0.10159993031093029,-0.027048370931424436,0.26776636246307323,0.63471403432871831,1.0910253312518361,-0.060633966618450032,1.2364855825207179,-0.40985797916931116,-0.3214056139489474,0.35717158113622349,1.8298247592900334,-1.7008245417371857,-0.71517990008867482,-0.26481080902828408,-0.47911998987048277,2.1703420175900225,-0.032417091774914496,-0.46684923424281205,0.16502382923890685,-0.98418930178856745,0.79821656765096172,-0.80242647749731444,0.45605974053326076,1.5112161222253544,-0.20788812415602717,-1.4477285919631644,-0.10753027129021805,-0.038265558532979402,1.1200912160912881,1.2667860504573942,0.77686850407806951,1.0672435352472824,-0.30284317929698285,-0.22429230293255492,-0.28436045601443394,1.1538199536317948,0.91000381186971702,0.22925361262269919,0.7666073570905817,1.849917684662022,-0.17222328012663571,-0.28810719910985366,-0.0017969885305446221,0.16953125851159323,1.6203671353654165,0.58877489951848472,0.05408381089327189,-0.68090243077455004,0.67722293915845966,-0.40213682562161568,-0.0049018696101763995,0.4386989319277898,1.4581066821006012,1.7030824728322427,-1.151136473881768,-1.0585682711138933,-1.0504086112060302,-0.42979644386538884,1.4998897628147176,-0.033372939039870146,-0.49244041063947336,-0.23785365175182049,-0.76139027594106257,-0.95722700251991755,-0.36110941899423854,-1.1132714079414012,0.98757942373067376,0.52880220184744853,0.63386771462845803,0.066913951361577378,-1.5935722034808155,-0.16214831781223366,2.1912369449585429,-2.6417903003264498,1.794052090221482,0.46427183702579999,1.2804861372775975,-1.3529020055069363,0.3676592471263524,-0.99145983538562144,1.9059076476632262,-1.0648351286436772,-0.46413818124491663,2.5785277877403958,0.71047089157186871,0.5541674986551649,-0.82505105866714523,0.38873267157528474,0.61345579058714172,1.1090934820232903,-0.89670834016681589,-1.8340581341135502,2.4488168076590102,-1.0326114095976573,-0.018810781673149847,1.6790065836898969,0.15913453476303616,-0.27426186507595612,-0.22166943605730094,-0.41170952579090231,1.1657387642247146,0.97417912150501795,-1.2778040529600321,1.4123091531516185,0.26523842865671321,-0.014592621622589019,-0.067713189662216081,-0.15498485337676265,-1.2818244369905827,0.47867283228739127,-0.8598222733500378,1.0535289787208715,-0.95801703745956679,-0.14282396920575144,0.43927137024896701,-0.57978411971591859,-0.72672628020309338,-0.98466190157007549,-0.26864448107427602,0.65225227030970356,-0.23295538177475195,1.2112613164610984,0.35812695772731823,-0.034817088699217215,0.090893884939467859,1.6465884666287249,0.61430788742515807,-1.2439730165116347,2.2154286617140784,-0.80870571513801903,-0.13102071302935681,1.7904247261322734,1.6599375697601628,0.49786234291208109,1.2979492850893417,0.72093738437967814,1.6503929835020488,-1.2695386506640218,0.97328271917982556,1.739256271039435,0.11127390888193681,-0.52546523495801301,-1.6915539624816816,-0.78879635766229006,0.74418126974590426,-0.51417944593140419,-0.82072702643401818,0.34503756365589267,-0.33214349203538601,-0.43875553062374567,-0.2759851318575744,-0.71999761801427675,0.56051763918698128,0.53329725912319459,-0.90093092833350663,-1.3282106620834173,1.404018441661776,-0.77508366569854892,0.17337784834522324,1.7293653534559117,0.54121420745350612,-0.045226859676939804,-2.1847259966234343,-0.88371244262446524,-0.73533808550596225,-0.063264526503376092,-0.48069226648438512,1.3300592403552296,0.68237086106030453,-0.1614165170262464,1.2020800525592934,-0.32322601620551772,-1.4020432759822319,-0.53179162590825113,-0.15529360719642718,-0.76747761151536287,-1.4931785241860558,-0.25276531075131442,1.4249807839733479,-0.080742455258681622,-0.071495399634585483,-0.45021828798652813,-0.28267049184691706,-0.36045757280742624,-0.85808697374231169,-0.13240617200173496,0.032503315456089671,-0.26676064359113261,-1.6198003932979288,0.053482959136474363,0.93600716199078049,-0.71971436761553076,-0.85815749580961398,0.22474522377067246,0.56340097654196386,0.63736204740338298,-1.5568820963666803,0.42579095335112505,-1.6705347299019158,-1.0623861310654881,0.58992358209860407,1.2834353193710923,-0.39116466691483365,0.58021526312610938,-0.30528430915282306,0.91269285147891033,-0.22190522361945086,-1.0466730336401942,-2.5141292944304743,1.2104168589818922,-0.476030324432548,-0.39974030699161034,0.79063425438722168,2.01088155586657,-0.1014065653344591,0.22054497316612412,-1.4255154499411784,-1.5209150532931914,1.2014727694450424,-0.51795508762243703,-1.0813181289633851,-1.0506759569049688,0.52478983647453648,-0.7961972862642599,0.1502153269760553
-2.0789780915432532,-0.39154005914032941,-0.17091953045496264,-0.10282208406032894,1.0969182423769934,-1.4163492339830137,-0.5636527944535793,-0.78959680151195644,0.68468349740668755,-0.11685667417924801,0.40629460376549847,1.7837857149368128,-1.6108673995522642,0.06224613748434845,-0.28524508594217501,1.9933736330805674,0.92973699839070245,-0.7896514976597715,0.53388678467953143,-0.42037013489912184,-0.035839589891868355,0.37299431710327013,2.5106006856101977,0.77505397748562321,0.92413081556447785,0.58743356723876716,-0.12850792157828303,-1.0677537603979772,1.8020260837880544,1.6689626960707455,1.3721813329242183,0.99325391038043853,0.26358919152742338,-0.0093872098439386729,1.2168207691513286,1.4625741733136324,-0.25791575345243395,1.6255861368395761,-0.6416659311185019,-1.159110459749215,-1.7035644486482828,-0.55297829396929843,1.1983254127749912,-0.43584361175070985,3.0921868700910893,-1.3978411966776847,1.0600675993966175,-0.39998380858047911,-0.53119365575632016,0.50709887600429093,0.25612681049724673,-0.6236525828533549,-0.055332534114278895,-1.2686246133869117,-0.17408588638398173,0.70188484166912601,0.7915585517866861,0.50809036864390345,0.63459571418897232,-0.4882554687641425,0.59602521156395394,-0.64079086649992711,0.62168694736358154,1.1040075887388003,0.49818288670925587,-1.1020718832635512,-0.83974963060991192,-0.063854715378045573,1.0213675815277112,1.2821145891230075,-1.0493145140433673,-1.9443738355855456,0.49410764770619231,1.1796261649369266,1.6380797928905413,-0.95959430415045976,1.1699860279806886,-2.0036746799986922,2.7734064181803526,0.94140458734416832,-1.4045858971296596,-0.46463353569673033,0.82317587093886702,-0.19832566750032302,-1.1533380620986855,1.3302632197739526,-0.022655903442986531,-0.20153843279452346,1.8403446063831133,-0.58387269804776032,1.0149556632423096,0.00088669140951568406,-1.2496140502516893,-0.062023522495265403,0.82330269352210128,-1.0710949052172944,0.37885325557798366,0.15140680131468773,-0.33285708666530139,0.99921617182308353,0.30401807433735145,-0.37149543224182241,-1.7352778260097634,1.3069115210139606,-0.12874034541789631,-2.3289678453963099,-0.41170190410315011,0.51363818805287664,0.06721511204565353,-1.4069023929769104,0.28423474142774585,1.2220013547344599,-0.4110418762168524,-0.63017251345896386,0.1541896494390064,1.4462467410387572,-0.34775589402791934,1.2873130167652134,-0.60939237956535808,1.5918726552448141,1.1739624290227855,-0.27898896640057336,0.74474706875787122,0.14877235412931283,-1.2766352048637901,0.16867945778313942,-0.68654171727531954,0.084598984257378815,-1.408165066356206,-0.27461998114571046,0.53707940709255497,0.20520429890260339,0.13128793871086658,-1.6654220122673729,0.98375507753799518,2.1492682666369114,-0.22307489293718694,-0.51545856498110365,-0.063151697383996008,0.72415286465006268,-0.26454779379581528,-1.1118336621288378,0.88572929404473155,1.0933671266902496,1.5814279882669384,2.514420594473803,0.3096074683400144,0.31280299993791605,-0.78289887700671523,0.86887878951664277,0.49728317052859866,0.2470484995240802,-0.53909543215090061,0.79730191901828529,-1.3755892510810308,0.84421248004862615,0.67660932239693083,-0.053947072488842424,-0.87913088259612415,2.0606613033778283,-1.3936025899984326,-0.54095693489091223,1.286163317898892,-0.50930119474183266,-0.05572587917152217,-0.75630613249867529,0.82353303865829242,-0.2934996578844406,-0.64673083279022359,0.8829629202230741,1.0147751220327197,0.1953250026624069,-0.14670141997206934,2.547543898062683,-0.32106066534190025,-0.62544208556400105,-1.3705593886507064,-0.63288124385096312,0.0059781163208619146,1.5279741344733346,0.23594587768520917,-2.1844515890704783,-2.5231322575440651,0.73448084456794471,0.1641326322051756,0.67710584789941075,-0.36649936594625587,-0.29818089049437718,1.1823467679339392,0.99219999350006038,-0.33298528359407203,-1.4145362394483987,0.55558123375099355,-0.26923797505321528,-0.1257181638386744,2.1014238162757666,1.9203652642786542,0.68932946521018312,-0.40266837274086753,1.1153970895800758,-1.8002558135893947,-0.9206312452937474,-0.67210622669013709,0.70678187953454008,1.2849008960316213,-0.32065666865775905,-0.19922597600473588,1.0522283736090701,-2.151997058241621,0.68198307001059433,0.79250582270513981,0.25493957900338404,-0.8560835782930496,-0.039692415748384204,0.37454531676011704,0.017926147401871151,-1.3504854001623159,-0.68599343991691186,-0.96416750157426978,0.31284114889630238,-0.61186191537097123,1.3988103139440875,-2.4414145382874644,-0.083866626657247645,0.1633850116480472,-0.5176615342279014,-0.46392821286913705,-1.285436160045387,-1.0121019745558468,0.88463297258417684,0.31821255861852338,0.82746512526643312,-0.33712381200829999,-0.68585158435662263,0.030238761248209053,0.069960180087010271,0.54302932324189979,-1.5791324777070344,-1.8757778396468234,1.1275078812680803,-0.77454249362559358,0.66745135020334867,-0.020727713521973022,-0.2629032277321427,0.33381338879114297,-0.98710760682985754,0.48235168298329928,0.75005012467438303,-1.7895973636750258,0.56984956983903723,1.6828720195739602,-0.35098176442836632,-1.2048257545781265,-0.13237206201707855,-1.427373244152504,-2.4626420586328499,1.0889220732122977,0.7271028544345195,1.756834845898116,1.1111458005767818,-0.25173155893584581,0.73599770673183995,-0.20153553949365549,0.44767568588553125,0.69934813076518243,0.34891009180837435,0.64426352239699958,1.7090203282410994,0.060876798773881642,-0.41950960134608606,-0.39037525183268151,-1.0483354667508811,-0.56031311168370279,-0.13482179935943681,-0.31524093066376435,0.23060396322720225,0.14269470539860149,0.69890424523426298,-0.5340105871977453,-0.52241178895446783,-0.010802405194581567,-0.42344065962197452,-0.041450274017218451,0.0094619540065027773,0.97269056396998499,-0.56881785603023716,-0.93894094749283763,-0.62001286328754324,0.85300204186428108,0.11951090051901896,0.082354735071523869,0.84301974817388081,0.27223042807227071,-1.2717940039577726,-0.62402545567833878,-1.2904308214658065,-1.6645556763343423,0.44686852223001555,0.47308269822549476,-0.41660748498791705,1.0010274073356382,1.7130355633172913,-0.29182884585541929,-0.074424464720883321,0.77869276503962748,1.1130445538752354,0.20137863143404169,1.838497096380679,-0.72073048112275173,-0.25695010513178573,-0.47368947994818045,-0.13820002724582231,0.60939707539478838,-0.44399027678103653,0.46120205174712192,-0.81031592358071047,0.12552070253100436,0.13712304855759866,-0.95828108556830383,-1.874923549640497,-0.4785215811119124,-1.2348340271612237,0.41714247877954325,-0.90837085022859865,1.6491996251233858,-1.8179266347091672,-0.70786164611296154,-0.23273007933969506,0.17824087709865952,-2.1532152296085401,-0.81670560663702452,-1.0289688370008416,-1.4053386907223639,-0.94521768289234553,-0.026300076953309524,-0.11965413182569549,1.0232001877394055,-0.33892060246789268,1.4680965863757092,1.4044445940743777,0.95486434471051884,-1.2348894213532837,0.32301396834526491,0.60213178063807093,-1.195405223274179,-0.39077584911471352,-0.12756042587850358,1.5375963226395111,-0.82301203946387635,0.58154294603596313,-0.52508168771023844,-0.3564998613347321,0.31118119542991907,0.36259567104446772,0.72898630566295652,0.11094741963333282,-0.4675627677526436,0.6672263294886267,-0.48734804576055046,0.79052661060456886,0.14411710896653052,-0.03485803847165668,1.0293412815336305,0.56298151696890131,0.033045804990437265,1.096262469968142
-0.59918329576937224,-1.5444746921553656,1.2015202800842479,0.90138859619692646,-0.28264108116454356,-0.68852935742017174,-1.1568168721211169,0.32452913153435126,0.27942170679126072,-1.0089145777883501,0.19460752542061555,-0.51323154376434832,1.0494511902557131,0.21073985396232658,1.5766121422535524,-0.034578469851158741,0.36647301698465967,-0.94978160343577134,0.0088605245936267899,-0.71746624274712834,-0.65554461869599523,0.30313372898084984,0.15188801773832233,-0.75212723536087489,0.79775507465005091,0.15609989485916395,0.60635796511822526,0.4049296589847311,0.70869326017044398,1.1505832934756559,0.40112762472136948,-0.30734972502445818,-2.9046388148015763,0.24072908541407509,0.9693493873454373,1.3868018259888537,0.78406963251259532,0.68955291521243156,-1.6730768631802027,-0.065842709833459911,0.0869525927771541,-0.098828686686696171,0.6691165002921734,1.3313912089508284,0.25933222046646853,-0.77929971985461866,-0.086011698919162508,-0.77255040979372303,1.1704725890782437,2.4576076856677074,0.58280227876448676,0.4670494507746098,-0.81429021691166192,1.7830767466224628,0.049168996531875613,-0.26994075369021137,1.1162434059152293,0.10474694094849035,0.73440103854563665,-1.1885425220109873,-0.17263520194500617,-1.1975220574406538,-1.879737534266982,-1.9616440694240962,-1.1962754564443194,-0.43909863423121448,0.34807748378118647,-0.19672690375918869,0.33785743443412225,0.91258293940178326,-1.1211900997253268,-0.31609061072792682,0.37932099223678856,-1.1386061922621933,-0.60827558464771436,-0.27860505730196955,-1.4214656861171526,0.81441259836182422,-0.045956230016172321,0.61766696760972084,-0.54915114703313783,-1.0406393814004444,-0.78579101634962945,0.52471106100551601,0.97683498561609017,-0.99200142726886797,-1.0503224553259796,-0.30956006650640971,-0.97292634973450554,-0.49854489322905449,0.11459628026910175,-1.1744705288415542,-0.1345711242990888,-0.56032467573171385,-0.80813520255564553,-1.3471879221987253,0.72757708340537852,-0.86861633306382446,1.817247093250054,0.48827648442235949,-0.15898401290380332,1.4215503227131916,-0.8349920503510373,0.55790721455771075,0.17651848472526743,-0.13030830485322231,0.95458199545572775,0.1504314387955327,-1.6212882252173302,-0.71492039612339042,-0.0086391499763996404,-0.3053861273200002,-1.7995786928203577,0.45289169578175142,-0.82655959312379335,-0.50009928144252058,-0.443243010821674,1.5232074035063421,0.42000630555322044,0.2005771221596109,-0.094602389531153921,-1.372797196213031,-0.67063559084990121,-1.4971810850971445,0.12953087267290289,0.11641870798723344,-0.8274453743782253,-0.62162563607196797,-1.1322900026150833,0.22678791099916956,-1.5039249677266724,-0.12042302564075635,0.1158004317098978,-0.22485975432638569,-0.85482074018358811,0.66738177443254587,-1.3711053980616361,-0.58274104757967859,0.8354535217436676,-0.2327446185766254,-2.3971443677527891,1.7699150179933749,-0.24830800700852262,-1.1061372171914763,0.27951172029063437,-0.59939556794642257,1.966999176121518,-1.1091548798565796,-0.65671930057631678,1.1492518270774725,-1.1256862425322873,-0.067527210510318403,-0.52402717807381127,-0.72207146078251916,-0.72749630185221481,-0.17759146002459192,1.4323588322804384,0.97803281546549714,-0.31492142052209571,-0.31104357529747589,1.1147581163485178,1.0532982122572099,-0.3465257024933997,-0.5914824779069261,-0.24645957147980541,0.15436768596937342,-0.043240434130414562,-0.53808729931017396,0.3547718127590046,-0.65171059895463057,2.0698058048764132,2.2249177201301737,-0.65452455234694695,0.77874524404172552,1.98128327461742,0.061167143453831271,0.4875317837496092,-0.48444196239672482,-0.48952509215965462,-0.18650520043294178,0.37894758862242939,1.2600744900632381,-0.20358479114661626,1.2974489487720502,1.5564542460805937,-0.14124629814397047,-0.46822143604713995,-0.99672698731496778,-0.075568692376063049,-0.62725212271365283,0.650340054381084,0.61039540409164661,0.069308901005514581,0.14121894505105467,-0.37314208934929877,-0.064982493986160073,1.5829560707090005,1.0111687735698962,0.092437840129367829,0.60817976077321345,-0.42941471220835553,-1.7473066848921663,0.99108176414273608,-0.45483381223157571,1.1890547617960059,-0.92020426790800081,-1.4325922395483053,-0.18255057268486646,-0.30659359193627744,1.2408460909879295,0.81501005095402757,-0.79741904554234777,-0.8483792251119322,0.16120968286122914,-0.82695701122719811,-0.66582943802477224,-0.076860878412420799,-1.4890572749617448,-1.941280885914856,0.093642772590049633,-0.24188607393334882,-0.15597280633021871,-0.53575103289261061,-0.18374693693027008,-0.70808721891867032,0.091710103095329565,-0.60989614810430193,-0.15434855762573965,-0.55700120483091131,0.97379565808401869,0.53034363432792453,0.64222743653846093,-1.0940503233706154,-0.8053190327243841,-0.19260507675973668,1.6812391472662735,1.1257597064353391,0.61621711874584717,-1.7209975742671877,1.1438612014133263,-0.89159629338053004,0.13866229057174345,0.44840983760069092,-1.7385627596669824,-0.76263023112350004,-0.20362853620476407,0.084910937762846805,0.18760624181605731,-0.3291378303784821,-1.2547277830956662,1.4080074429854208,-0.36921817472826718,0.0311021401617677,1.0342999111639728,0.13097304998490139,0.28213715167772918,-0.00057132138901215795,1.2329984060374404,-0.90473026396210809,-0.57164857150162907,0.64808039490331038,0.53034546891344692,0.34612292012719387,0.83999787188698882,-0.020751940335961533,-2.1830969270561758,-0.73972621682963147,1.7362977433313869,0.82593971622698059,-1.5399520037412029,0.13942485569681523,0.39930377591852395,1.0182711241617999,0.77560324836486638,-1.233682904084958,1.8813445295895863,0.93399687712156521,0.56716206161629845,0.80293200537906462,-0.40381741436647928,-0.40098803259377369,1.8017933411797029,0.35089833257143638,1.0237616017566455,0.52984181041517464,0.037034032108186198,0.65014778823118646,0.69474259730627297,-0.15500029840068469,1.1609986627186322,0.11686122453174942,0.61333585676383096,-1.2987037464284037,1.3567741587995119,-0.4195465185527234,-0.76130269677132922,0.17402113683683607,-0.11494746840624273,0.86907063710574006,-0.32040469729049065,-0.41092013225672891,-0.075422709068508342,-0.22442540586422075,1.1059695117889221,-0.026736837529397098,-1.640000197334917,-0.40207978891089724,0.85164564284406219,-1.6114132181424021,0.30371727081343652,0.095599417137690129,-1.2226288206044407,-0.94608867638347294,-0.043137279009298694,0.61633110925192236,0.069559418623936359,-0.33178155520172958,-0.22626649826734085,-0.24778158455346752,1.0266894212979472,-2.1976279046238747,-0.33112830747247307,-0.57078940012808688,0.57447992597339159,0.56640048842135804,0.56086807821459006,-0.013669037874413231,-0.064660564579249458,0.89396062581930269,-0.47785044360299145,-0.18615484283667405,0.74657537276841779,-0.45949139471825645,1.5678309906893508,-2.2880429942157035,-0.43241989057591623,0.46230449193774259,0.43080562068000033,0.18187607238635939,2.3054400265447055,0.48185635477390715,-0.33303017402724316,0.30322139180405444,-1.2618546848738958,0.54886079856424475,1.120083795338803,0.42179939051894072,-0.40934840827340019,0.55600436509257656,-0.62355111183268952,-2.0284568624675701,-0.3317559283401712,-0.37649638634788402,0.91382052952748416,-0.0024689601950535147,-0.21634012630890281,0.19324298807338697,0.03550514047611087,0.013527957011522641,0.45100987628308287,-1.1403249006377247,-1.6869165048446746,-0.46688592637619947,-0.4974707772947381,0.95157073599253883,0.33458689614656606
-1.1722997349532001,0.45835015591941686,2.6441930558421696,0.75008325156832645,-0.43780298789183375,0.080975941096547946,-0.067374741113366679,0.55847040306109708,2.291917934322016,0.51855632529126616,0.38072400848918847,0.66332550951853086,0.53661857448791284,-1.4504868737257863,1.4534522523661293,-1.9695112196435789,-1.0268789175029407,1.7316420892500333,-0.89992294013274265,-2.0971386512298356,1.0227001829320213,-0.40698248611709492,0.57238333979611911,1.5326647789588901,0.72230505899752384,-1.1704105383189807,0.63784181265665174,0.070506040964276803,0.64479327733988179,-0.10873145289603453,-1.1812257524875966,-1.6041134956845486,1.3904498245591197,2.4074805511616062,-0.35202964321944674,1.2889806405174236,1.491003813904181,-0.85414403407348227,0.085643181793788908,-0.29865910985425798,1.7863834697889744,-0.9294466985783093,-1.0079748674281044,-0.14602967724234839,-0.057751021933344998,-0.1950815496707137,-1.158438151851573,0.14671653650613986,1.3697849916591136,0.0026513068176157182,1.1930925777716461,2.4861294994595742,1.456742156416938,-0.186120827987212,-0.6448520990011648,-0.48393282741886784,-0.2701917906783875,0.77928967875622079,-0.96098704935420298,0.018423877723993849,1.0098895923328062,-0.27576850645257123,0.032186104274810889,0.75121527736147786,-1.4122648310439696,-1.0256830265138892,-0.62733186593488566,1.5836497378197447,0.71399210840764082,0.35770153230883889,0.36029743003368081,-0.87568666461374645,0.79042033070797701,-0.39653752003911913,-2.468599317968811,0.4377005760377225,2.2470688052468959,-0.14374993614972142,-0.4435047892694397,0.37710053521544923,-1.1288430171399146,1.9480818269282645,0.082695613187901154,-0.19961719638702402,-0.023970891940916929,-0.48927522980852017,0.75910188083624919,0.91954808819663736,-0.91247615969109441,-1.530689752605594,-1.0074366159933321,-0.67682797804579975,-0.9804982583157722,-0.71166788702875639,0.73965914386624176,1.2915257998661223,-0.23596295512511706,0.43611103169448384,-0.95000903082581656,0.16577444480560125,-0.87377038151330866,0.20805149973508616,-0.88823737349403253,0.83062101520009679,0.67236072406727754,-0.7193363687905544,0.33098230711089027,-0.70944994572965669,0.86321198073108141,0.33907110511610566,1.2190312953090268,-0.015000403812666858,0.82210981560977403,0.57185514542824922,2.4796842441051816,1.4530170249052721,0.20306257653799034,-0.79508934833499845,0.57464853617767853,0.2010803436431555,0.49323098414113392,-1.1008355358823516,-1.1149865244401245,-0.38814560618403321,-0.64496371665265462,-0.66944362270846558,0.29125255356945168,-0.75210097570329615,-0.90597761063048732,0.52380446132082048,-1.1663091133752366,-0.39788487605680539,-0.36990600618394254,0.11522225736894172,-1.7312333981180452,0.19385064482084735,-0.34951939562125228,-0.20972795252050394,0.33286247545145187,0.65770235897215112,0.60281605201335275,-0.90410499342072226,-1.3607026592188918,-0.33149570292389335,0.016285217299830446,1.2995941674505813,-0.63401383282812196,0.56903794779754957,1.1554638505708388,-0.44532707704778762,-1.9848132697989447,-0.46244329991515526,-0.18793840004819132,1.1729257441880028,1.428399124014345,-0.87439447502172085,-1.1587245675165403,-2.0529792976543688,-0.096832414731975791,0.99880523348794736,-0.93465268111522903,0.094453269130586673,0.23545865038868863,2.1947666306056481,-0.056960204573826119,0.24862948525526957,1.2265933781124094,-0.17978668592353783,-0.56008474846469902,-0.047276365975095928,-1.1313626001613319,-0.56698283056926801,0.033087960277035706,-1.036831053055977,-0.76777209667297164,0.77827194242517572,1.4705714330118411,-1.1431754180596609,1.8447907395599534,-0.32546298763069215,-1.4914450661077023,-1.1396046512194613,-0.64636829081286185,1.6216295379342067,-0.14126126211604134,0.15470810868845011,-1.7635056188129687,-0.7438937021633224,-0.88760847545363331,-0.98315638301268249,-0.73875876897165105,-1.2665062922038632,-0.73469890926117276,-0.17686414646623058,0.90846316859944798,0.31053896805239628,2.5994758992782119,-3.0829140240095181,0.35658955172375645,-0.76319640949240675,1.0248038399808059,0.57653803516672952,-0.25073825976454889,-1.8321882921385779,1.0659045199011778,0.13862500208113371,0.6325331357169186,-0.12387195817154083,0.41868113467966789,-1.5690501453633154,-1.9046953884108899,-0.53155926380793017,-1.9549823774471886,1.2234658215908716,-0.50635918088136622,0.26264639399201006,-0.0096374401932638812,-0.18054760525286082,0.44322398747481367,-1.5878394147298571,-0.17458292636111994,1.3233589042395999,-0.75657877211297042,0.56411896224001767,2.0160365995802736,0.08231271704378014,-0.6256251620619856,-0.26939027960832407,0.55764171014402864,0.10203098548936568,0.94171912967504512,-1.8150450321747367,0.45513144221031782,-0.18211274777624786,-0.4206780619742605,-0.017884437973122849,-0.2087095894950948,0.19434946536810629,-0.91202373473138554,-1.6818421625063871,0.69713706882199045,1.2406631617823662,0.40201780603905274,0.85600710932298851,-0.60791062707871701,1.9309280651858245,0.33210069338987958,0.27240435981318439,0.13568841805702497,0.24280610853828208,-0.066437195210627464,-0.5982217782557453,-0.49537841208870004,0.094123046490100976,1.8583315466717985,1.9231931256040948,0.67521706519959623,0.057263279649385893,0.11527825136505215,-1.7507187416354808,-1.9316653093717755,0.53582170738571466,-0.67156100140505648,-0.52547622626900636,1.8204108906213781,-0.91477707100553696,-0.52819243956608497,-0.63703878592301444,-0.3330895115431976,-0.85249661897309004,-0.42235390730866174,-1.190315659979108,0.30538819273764978,0.56010339156225863,0.56499293565478526,0.82176968571347708,1.199110290947627,0.65094423848356087,-0.050744136718288251,0.25452605963811459,0.24788744168381477,0.39977551959841884,0.089542692227461806,-0.67992994162139508,0.48774992010775725,1.7761971434486818,-0.30204328793217139,0.42113744676612991,1.3860373415419784,0.70156566895786288,-0.71968110613242375,1.9442712428612814,-0.7989549145793855,-1.2943360273821889,0.6204058113430746,-0.78404537634269567,-1.6547269456167912,0.92054065608838054,1.0461749370730822,-1.7042436097038371,-2.4830309492081084,-1.2577241689438301,0.038078644709571903,0.041756718893274883,-1.9548694713706369,0.0647649411281363,-0.32623302862446324,0.86478180555224793,-0.35490601977947883,-0.90471873451521467,1.1250421038071046,0.26327478260633358,0.40263203681626775,-0.6419746468163513,-0.71946209718165099,0.65756743220410718,0.34978022472472542,2.6939810878157049,1.7260251615905517,0.022268068942393363,0.043238595160063426,0.4203744286638072,0.69782367111508048,-0.7482329112625653,-0.69883731460736653,0.50297233595088242,-0.11849205255247568,-0.32317076093988228,0.0061751323527828176,-0.13122010369033763,0.32367175354883498,1.5351665197307007,0.90631303830042764,-1.3570749458963243,1.1155234523922597,0.30139006885191577,-0.70578194930884652,1.4279165463301831,0.3448975755699486,-1.881558992112359,-0.034732146180496588,0.28587423735721817,1.5649497570073574,-0.31699436057974556,-0.49744459242844563,0.21990890767191626,1.5481161457684667,0.54020870980718483,-1.6345080623825541,-0.36255006310267923,0.090375428455909734,0.75367145406326763,-2.9801997277677281,-1.1359988973934636,-1.79149922184566,2.1769870633441899,-1.9789761921232434,-2.1197871839457805,-2.4142536973949591,0.62971992187677694,-0.18283745368468035,-0.41351381888017119,1.2985218297939813,0.072244086659226561,-0.46691376842228371,0.65778683146089478
-0.64891115085320539,-0.5827602561170423,0.76857867911700029,0.55893777864673999,2.3824819636043801,1.6589714814226795,1.2859613120349092,2.0260202674142862,-1.7270901716244205,-0.74403024470778956,-0.27290096321543944,-0.34309514563992261,1.2265143473470392,-0.53583921435081594,-0.55812528896893809,0.25799254942742561,2.6467958486300431,-1.1222290582215144,-0.32700474201564378,0.72587929585501365,1.0078611633483134,0.8887243870592938,1.3849537702408929,0.36557134398275037,1.3472881143864961,1.0879417005548315,3.5935881729508945,-0.18336533421497539,-0.49248214021095632,-0.35476718542503244,1.1468504684783096,0.82348605155963017,-0.9409568420898734,-0.2619147183377909,-1.4008690504500128,-1.444924271610216,0.61154398138379418,-1.1579655806066378,0.10429497329989187,-0.40114956437937338,-0.57615152629635669,-2.7930711878743075,-0.42964100970052094,1.7633264602712313,-2.3473051420043052,-2.1194385951658044,0.52948009780460803,-0.65000020178574602,0.77038956075682041,-0.27926421642322297,0.15264925351971695,-0.44726236281960141,0.18959682311062709,-0.55434945173951045,-0.76452216936771666,0.40972920155561487,-0.52506909907626464,0.2394267141144287,0.50529313931550079,-0.67304698560241194,1.1107451608140031,1.0635249036407257,0.15031862848730354,-0.56851785168370594,-0.19190971741590923,-0.89496003876814301,-0.3566865345930178,0.38902486533926933,-0.79995405805462094,-0.21908621908176534,-0.60276678044034249,-0.11293655039147713,0.11108528269614711,-0.21217577926422601,0.32274980486041144,-1.7926316717029551,-0.39992098037907231,0.85907349152129142,0.09251899198126827,2.2545121335158771,1.0379121711581227,-0.53012816589980183,0.12242662017962318,-0.41150427751887264,0.38692633018619105,-0.46478657622894276,0.90678976420444091,-0.46506595542605506,-0.7668739407754176,0.27924063033880608,0.41019795214411231,-1.0338506132059448,-0.22479776676830099,-1.3186650466188417,0.14822983592093397,0.059558066413066796,0.062722984558098147,0.25100476170065783,1.7578230176534617,0.8070611789859311,-0.5203583414106252,1.0175456383025887,1.4299356541055686,1.339868506593656,0.25633117282669349,0.80764518120657902,0.35962779146751145,-1.4256875569725584,-0.80256488268752613,-0.20043933241866202,0.30481995419566676,1.1832585363543906,-0.35899224038803923,0.064187433967559354,-0.32206588328592151,0.49239329650470048,1.6201670432525068,1.744921853022581,-0.27120649343831033,0.99374875191214984,-0.18951772924283383,-1.722111563194255,-0.58904109304409602,0.11913569220266998,-0.19246645766971268,-0.31393869681116848,-0.20880374202877683,-0.088148248100231433,0.11971518427242191,0.034004152106660357,-0.34844538451641444,0.44276951114234986,0.51710583372096486,-0.37718529743423584,-1.3712492254229882,-0.39608045135427988,0.20740822114652152,1.4637692182157436,-0.67010061113457342,-1.04769148992033,-0.84787214083945506,-1.139720083889,-0.77003006927615592,0.081962456511267504,-0.15555768017837751,0.68827448139620795,0.7271081344490874,0.78289584272473578,-0.07094097676709181,-0.70793245316597453,0.94514926538698363,0.99409132050289872,-0.22143455469424,-1.3368162561631931,-1.3400636797898402,-0.75148971995423175,-0.11174198345980189,-0.86201045556376643,1.0163320300343412,2.1032885622758171,-0.0082667691759109423,1.4046837037806421,-0.67732487943993525,0.69151756520476615,0.59882095227749288,0.4314097114574903,0.66592428217247468,-1.1692033296783571,-1.0812514466264407,0.21718526219961304,-0.21640255484057333,0.33776805716408753,-0.5548975805933094,0.34635346627483737,0.77464014419774807,-1.4800645958702239,-1.4583867191593989,1.3541555625528918,1.3409380298756417,-0.80750071142460367,2.2540519347734058,0.10933989350044158,-1.1593420891924071,-0.19792852379500647,-0.85503586260485687,0.098914181203772406,-0.25680767812076788,-1.4899640850038685,-0.094544446159847348,-1.4611454780152602,0.14246167007859614,1.4499569443658089,1.3603317163632147,1.2813344347863675,1.4046227320982236,1.6781332097893586,0.50870188920092685,-0.74899291274008439,-0.021990925877180042,1.0972239737661647,-0.36821552459745133,-0.81836829373452369,-0.8130270720553805,0.76833677263213362,-0.60111436599630474,0.18258181568731965,-0.18577600540015834,-0.46103308798538989,0.18997011117372786,-1.033672375974706,-0.078779219840246412,0.82342281652352922,-0.15794023961077147,-0.66366799643913055,2.3265985711642077,-1.5042001669514018,1.6302747269262714,-1.3341696321219256,0.37596378276558839,0.057243402918424009,0.57489048612936833,0.99868344198356118,-1.5454345088154164,0.68741503248764269,0.35823928118319714,0.22808412189744592,1.0329042617328799,0.31144670258790164,0.50792714700390418,-0.29728735122893368,0.79058378783671923,0.19224253418424977,0.62847205727680433,-0.89697203059392494,1.2410815162470028,1.5690344504696867,-0.29364660251470326,0.901354716935581,-0.10166803589640884,-0.00068249729600672457,-0.32210705671474521,-0.055177633522933776,0.33103652967485248,0.21711110497382605,0.99556965010116782,0.2461922732076198,0.77592374144288356,-0.80398354054563448,-0.23635994300701019,1.1261333304692263,0.33038411186835726,-2.0179338400391993,-0.84189442336630338,-0.37546528586922118,0.30096843295650461,0.05392628633478784,-1.5507905663564883,-0.68774482899827938,2.5311335409013065,-1.1264470568886156,0.81441016354909279,1.2197506040127755,-0.21143255712903586,0.87103602075208841,-0.08240464689406457,-0.7538274946665755,0.57999389614286467,-0.40675266266000332,-1.6957555821634962,1.475476461171098,-0.0065397422842391568,-0.44393160905704826,1.5575595432724412,1.0388994446065227,0.10621234467978767,-0.29247470049598373,0.37546315206891279,0.31644515298460452,0.12242969052308361,-0.30762060884866249,-0.54962685304839476,1.0293472545739171,-0.36202766960896976,-0.64846091860085908,-1.1899266345677442,-0.34053139889304346,-1.4927732266146285,2.4689687920912258,-1.979535641011245,0.79845601398267607,0.63577688846676406,-2.117524704273424,-0.3650749448535891,-0.75907042658331869,0.3174255585647382,-1.7922218231680478,-1.2068024813136897,0.36747228659235237,-0.42106792343176686,1.4456524994252011,1.2424415965107478,-0.56132236790171885,1.3559463074974454,1.1956786829284261,0.81817581015134122,0.44069874827806299,-0.3540028076028604,-0.084323183510873589,-0.6055366879031433,-0.66693358915005152,-0.70273334002770771,-1.2892405514483132,-1.7743159746950641,2.2754394898944175,0.84372939598038466,-1.2910048031006389,0.39413410236237245,-0.18156732995821759,0.08878580465421633,-0.44707688274694196,-1.1077104723332898,-0.65877844599429025,0.55513296534932133,2.4512033415038399,-1.7210581797336804,-0.30832013782278722,0.12354522457319668,-0.9354985821034062,-1.5574103677591145,1.9770114835215136,0.050749640103716721,1.408603229245746,-1.2662743361724844,0.90275237482374715,-1.0031628189754518,-0.87843375162725856,-1.3612760983439967,0.36374812475745782,-1.324346412327438,-1.0507153498391411,-1.5710172062436412,0.72626564834995522,-0.004298435553105202,-1.3868244211629286,0.64913191538424053,-0.81237943191157769,1.014050867369082,-0.15645858025112264,-0.52037061865844225,1.0411207747305804,-0.37550788901032556,-0.83887618720044688,-1.1938463005867419,-0.45519094057400517,0.12910231164983124,-1.2908084518314851,-0.99277203967556993,-0.87736728466690206,0.89797212554910921,0.18884218407365796,-0.2070901424341981,1.1119743128080013,-0.11321118603992052,0.38369077217897057,0.16045044189928176,1.1549309960284635
0.51450639153627387,0.66318190068497462,1.5612882785219022,0.87017303060355566,0.1176248486720413,0.41724125914908256,-0.5909037905669583,-0.51276968517453581,0.64526600133264811,0.18091846810051571,-0.18206701158648941,-0.10108724401856016,0.47107046691504639,-2.6430756126060184,-0.86013130848043873,-0.94600004808202942,0.34567691604208334,-0.162313888243316,-0.50849960081886014,1.4012411692681164,0.55242212238348254,-0.051033655087216759,2.1935781636577039,-0.35660808311302311,-0.29056019835804303,2.0787728682074573,-0.06546398813431277,0.053572359087015325,-2.3559629496580126,1.446572337103476,-0.77076028077300007,0.93436351938227258,1.1548322731938274,-0.77406644786417733,-1.9887767817326658,-0.7260940728501355,-1.2141600728615984,0.42585595069793608,-0.77405516942615782,0.068449505652386541,0.73199692298805907,-0.14031959419852333,-0.090115024210895178,0.17678144586226988,0.76986907860878451,-1.2768794666137631,0.87641790375408901,2.1385026128763371,1.6211788614447855,-0.32300929765764252,0.010824409815813797,2.0535684144094155,0.48499860804561939,-0.2548622832636574,0.17658209271711126,0.50088436677283887,0.61425675458060935,-0.59655531019248054,-0.76080503851307135,-0.34918959761399987,-0.47686468376103464,0.43711845914331904,0.39580417484651592,-1.0742014742415424,0.35982571951052889,1.8391199932428819,-1.1820765311006671,-2.5926690498767848,0.91166262773619156,-1.0490457098943817,0.14779269369276568,1.4842102578394518,0.075399445430887155,-1.2230892567881539,0.036133606737428083,-1.2825515730538386,0.33805281794089104,-0.85400314341761707,1.2639089488584847,1.6955824055304887,0.093432853807875443,-0.56876221193819387,-0.64697580739714022,0.080598470987979731,0.61112840592270878,1.5584094560822348,-0.50195517381542054,0.53653856541242917,0.70938807847397223,-1.5321598913636147,-1.677900511678116,-0.47326001148574154,-0.064895874339912812,1.445303735610141,-1.8147645653634115,0.92365806092340741,-0.17635176716295489,0.3999632131647356,-0.2272202326380679,-0.47508738651417343,-0.83075023624244881,0.64765612218641788,1.117845442951777,-0.40380550313215291,-0.11012356504812765,-0.10423984883754855,-0.64953716629546765,1.6961886699521374,0.049661972717771022,-0.33818142149771024,1.4949462950361128,-0.1352674293701486,-0.98631693049078772,0.24012889123804759,0.51863579474107702,-1.5682146932196674,1.2239652337239761,-2.4456004624880983,0.31372289667402581,-0.29374916830459746,0.10002590364911851,-0.38546830081922506,0.97945517570087925,0.70896768917989428,-1.456659525562698,0.26049111782575418,0.73048718437509519,0.87602496541937913,-1.4277661830326369,-0.474037184234539,0.09424745606735678,-1.5067252596125364,0.18894680662617452,0.032998948513016879,0.0051161128989491876,0.97462912738455798,0.20191607833941888,0.046236837462867435,1.8716695262162271,0.06023146637165764,-0.7130321881970717,0.26255864624886477,1.3409152037855925,1.0296541803039518,0.25763855975907085,-1.3602265602641141,1.2033626919234723,-0.47765869809604106,0.16492340163011301,-0.37367569225618597,-0.68090319655470921,-0.47005306848621953,-0.48119264215215724,1.3499488802390212,-0.61658600364300875,-1.8989122474019853,-0.27291866294403694,1.1664445672940325,-0.050662443031299208,-0.30744162740318876,-1.613812115248239,-1.6699168338407859,-0.28384611253378045,2.3911488604595359,-1.736339007439657,0.87258258640061459,-1.1178790844093414,-0.18694535127031803,0.59326035065203331,0.3614450507418655,-1.012926482306572,0.26102989922433839,0.94831557549330414,0.53594592056748647,-1.152640085213898,0.21483013034718074,-0.86742519615220859,0.20405190326945877,-0.094991969228713863,-0.49124635096286579,-0.82883842197776869,0.14063908216718979,-0.38605141991734454,0.61200078170732575,-0.87032952305478095,0.28290035591576146,0.37459042631324102,0.33941319740845532,-0.045028079576182781,-0.24349075770082101,-0.10210229300079769,0.25974516127533587,1.0530935310021166,-1.8924300068549005,-0.088269639444616368,0.85730472419797399,0.10762395002295508,-0.22227347171067968,-0.8929834051673845,0.54131369686067465,-0.70916777027107747,-1.6058888730129035,-1.7977163460368577,-0.9814722974591279,-0.55243874501490009,-1.7325499982734798,-0.49086102491992217,0.56736233487642007,-0.48181733104102281,-0.16835725608934654,-0.98083686967727868,1.631297130084103,-0.61114539246478816,0.39389501268493821,0.7963665053386072,2.5144776323505522,0.12651442517059303,0.039522153802144168,0.44455733744048254,-1.2166820935367098,2.5248455813316384,1.1440687755139136,0.40406148271390097,0.29415772513634553,-0.33818119952998055,0.87940479055677268,0.17271615014203653,2.0514322876873479,-0.4694490924719274,2.3590870439192293,1.0494026699888217,1.635586008462147,-0.71781221364850878,-0.46647697986972225,1.8104362464616857,-1.1828390710727441,-1.244688833378486,-1.3140162777001232,-0.5789994840200825,1.1298584274044088,-1.9800118870660617,1.0237958493434143,0.54323701693448845,1.2048419954814218,-0.3659844532265083,-0.071138176302303291,-0.65949842738839093,-0.99394647456479945,-0.63884368522916046,0.86939201220761642,-1.1544941389890706,0.20536183394191446,0.43829193658755256,0.61854312188788685,-0.25409801343603405,-1.0038651728191086,-0.63159978821076446,-0.2878420567678695,-0.87419217060630372,-0.26065689604445302,-1.1061065259597587,0.64490312564852925,-0.20845174743455477,-1.1859892152951503,-0.7223808719315068,0.84888394339488382,-0.44951986302039393,-0.79261597191332478,-0.87512528990050875,-0.57507345276296606,-1.3849422799621467,-0.14695017214118697,-0.6735369103474329,0.14734505389550676,-1.3224548008175629,-1.1276034696122283,0.32597032444948393,1.0498147373240736,-0.28080203992958502,0.24380695113574027,2.0685391523093273,-0.33157453768857148,0.57185958912390522,-0.62791175056714621,0.076327631778799948,-0.39931606052278867,0.2551312741456534,0.54447248968950013,0.58736932076175996,-0.14288214621140685,1.2578221553289082,-0.037217769874985922,1.8939708477724102,0.96883989059770836,0.62443741368186578,0.72468906869815974,0.98194071997991428,-0.89803579760632446,0.012395279042924907,-0.84632091336759185,-0.085462836283943119,-0.98659261536118437,0.90672383051700078,1.7240857961183365,-0.34939820747101064,-0.20749916698507595,-0.063811358799500756,-0.66025971984964793,-1.0317848642710929,1.3598773177477277,0.61989992718217923,1.4780668208685084,-0.98622607097922799,0.6806352024992457,-0.23572359769615281,-0.23828872878198515,-1.6516989360312326,0.060963506751215306,0.36607266794890725,-0.98921342633811948,1.2134161624956024,-0.49280130860165033,-0.12116660753740936,-1.4938595789539246,-1.1737122946817156,-0.65105490698739743,-0.024662413315076164,0.40408111338612701,-1.330611506806302,-1.0177158796987722,-0.11617836923680944,0.2759120228000973,0.92686705913515577,1.4336187400196818,-0.98067075122291403,-0.95685644717172236,0.34474002563044442,-0.0096853342437915428,-0.51869826850578993,1.0485258351105251,-2.0996006378161596,1.2885152506811413,0.47964728214966257,-1.7374414088640113,2.6247448182881921,1.3493605968318212,0.70763868463119284,-0.21733589164981709,-0.47412216010824287,1.1036026874972495,0.62750371197799837,0.27642266898503903,0.17987444458742197,-0.0025964039051789719,-0.54588098848083511,-0.094587241581440343,-2.1764929583501225,-0.02472776289578375,0.030035851390160288,0.67365225526523698,0.78512534857566629,0.12961259059049102,-0.18384907157759664,-0.52443417970577666,0.87590193664463223,2.7158206900956716
-0.46866967364087686,-0.1563442764694869,-0.41366289003988049,-0.69427556245899669,-0.36470604995806527,-0.21588615430453975,-1.9708227808202134,0.88905475335432549,0.62433339476300642,0.70741287869223413,0.56427034366553674,-1.1229584020967058,-0.98525811849220757,-1.5514428298895142,-0.81011593917774494,1.8626684622501606,-2.0177706162012328,-0.71352710928062324,0.065876930221565627,-0.45125434402415004,-0.9735997159862122,-1.7564216993791311,1.6538713379728014,-0.18445987438797634,0.82899438603475284,-0.046139804486194258,0.4081406603937216,0.96956427406088053,-0.28160385155673268,-1.0652150793777559,1.1919018086511157,1.3929690420575433,-0.38327982659309584,-0.62942514222891988,2.1114787935843324,0.05793075256127244,-2.4571457524558218,2.8803503014074745,-0.60514991753084379,-1.0247674709867109,0.11895915588972183,0.27904109341421895,-0.49109346446571661,-1.1808228700777448,-0.51969847759299226,-0.81054253664035592,0.2475607338754082,1.4984796004630749,0.22815539599217177,-0.97741029812865476,0.37195021806410206,-0.63681126176955272,0.42361084072810318,-0.84991247295130912,0.8403139099739686,0.017047468549929685,-0.40806231733626386,-2.2737571178614275,-0.95779563493498499,-0.29078104402689525,1.0152851805899894,-0.28599863927358254,0.89653107604967219,1.2419537996682068,-0.77624525836497793,1.6104559343063323,-0.54258610003080976,-0.76258474830098577,1.0896185668054335,1.8495699132288039,-0.078093448456990497,-0.13202220312022453,-0.11186108119981336,0.41404051844585993,-1.0987772404235152,1.0015324411132889,-0.33202747331158611,-0.043960883005602025,-1.8984268446126615,1.2183240480582023,-2.3997817429180142,-0.54525966944482429,1.6966578810057924,1.5614495957848955,1.4583784322517532,-0.20558526641995886,0.27383614893775482,1.3642546443614998,-0.86607186133140746,-0.28320386107939505,0.9844713855633892,-0.2391390790160744,-1.5023812973625013,-0.37177970708452052,-0.29421199373655982,-1.8453415036410934,0.57367188489391618,-0.25186718201760427,0.34239422564198585,-0.96482423546436669,-0.10815469045560554,2.226305260771126,-0.2285236324546441,1.1179843553855437,-0.27853266768487622,0.56087164781054655,0.34698743331322263,2.3175128444699071,-1.21917512529364,-0.089017806062244909,1.3828634560263029,-0.79986642907084138,0.6598732720905891,0.24993882948251231,-0.069467351734386618,1.7529359140059433,-0.35484562422547072,-0.68559759020204214,1.160011777193803,-0.61444615620527376,-0.47754141280253226,-0.67144743347100933,0.21207547747609198,-0.0054031397944634902,-0.45692348734466964,-1.3247184598772461,0.76054321212675735,-0.026975760829352977,-0.52325405358705546,1.0414756413115009,-1.057461980890096,0.46233654447390643,-0.48926628740480754,-0.35852471877492886,-1.3499068234551865,1.2516405922419485,0.77029298650365885,-0.46453706947728984,-0.82761047803327537,0.22238345330369727,0.34013673296008429,1.9578498416632117,-0.41162752569231581,-0.42085106539364425,0.71199626474054856,0.1386116177760616,0.049784845520640851,0.57590162428770064,0.89279593019288417,0.45192664070563437,-1.8639286366632533,-0.93790788351236065,0.57200093289082565,0.97407320344336912,-1.3986038086492347,0.51809987699334903,-0.51262386115687442,0.39645872628353002,1.5552682954459633,0.015359193426361358,1.5407059290801761,-0.83479233322878699,-0.14832972382354909,1.9921389065886357,0.13271193670655851,-0.092374860494088426,-0.44078387805183278,0.12310685686150383,1.7865715047169668,-0.75530399699689088,0.36158808714053514,0.73486553516603303,-0.63770422813068195,-0.15300280270159622,0.68207965466800191,-0.85018487510027108,-0.12476135224854215,0.45415924330559621,-3.1081668151521065,-1.3760974393150651,0.68418874384150874,0.73642097573829746,-0.32685054436989719,-1.1447345011530987,-0.018154060730778718,-0.42859985475212015,0.46926941567158847,2.1066783458968508,-0.86393613284620896,-0.60163730724923292,-0.94021888961387601,-0.91746206691380705,0.77943488237221215,-0.70580785266558399,2.0521254778306104,0.17340696221717064,0.43340871764700351,0.54766404634324062,0.46069695336580369,-0.38686717246861707,0.17048114066465034,1.0578379380035605,-1.0230445177262713,0.53660232411865016,-1.1885163481708747,-0.2837514384668684,0.8173890860880102,-1.6510905581140822,-0.88648679748190318,-0.49481720585695305,-1.0544111141336858,-0.18637155572202538,0.093726500701947588,-0.61176571106079747,-1.2588291196154338,2.4475047177942253,-0.063034286671918516,-2.3513889370635757,0.083991663024431076,-2.0114457180756364,-0.28317978635623337,-0.52920509707219388,-1.9164257653562937,-0.012387380700506706,0.80151315650623212,1.3833658901711778,-1.4707729295125249,-1.1997383523205822,0.44584013866234179,-1.2084149468315788,1.6048363666104011,0.12664216594171776,-0.48921988063454253,1.1109727448503919,-0.40184872744806538,-1.2470936952246878,1.9572693132930372,0.66925034803759642,-0.010763613069241115,0.52775012519772579,0.89995114941792886,-0.32487144090697434,0.032786872554312702,0.80078798325628908,-2.1704170309799369,0.70444861933545699,1.6348527845838947,1.4078385229354056,-1.29789401029201,-1.103587793017005,1.6054010970370181,-0.10097371141134028,-1.2585314869709412,-0.14252877953371096,0.60950192288254523,-1.6211272425863104,-0.34021014011613443,-0.43022799126514294,-2.3580992404386127,0.29685886072362427,0.11873027848188369,-1.1794290671813958,-0.66347118016731221,-0.27193919444754694,-0.47733883012523048,-0.94592136899662738,-0.52944912266182032,-0.054981066285924189,-2.2778068749871951,-1.6984493780741106,0.34571504455833058,0.1436522197965614,1.7679435336940879,0.0029574896684300858,-0.94040537444149208,-1.2944386827869423,0.30219691504273177,1.0649186850825398,0.089966347523588217,-0.6449031240482902,-0.8187742664704758,0.10169849858625431,-1.1610133939500984,-0.81117063955909741,-0.48468406641299649,0.43835874913766498,0.58871017710822848,0.24999845262075274,1.0304603034169644,0.61087057395524536,-0.3656799175629607,-0.87213056569076652,0.27729332746344743,0.065836608558695858,0.86399424021303728,-0.87271195128011414,-0.17453616829513638,-0.39909895797302664,0.16051741276825443,-1.2832791200002114,-0.3749170596970578,0.46631150800756999,-0.20903396251653156,-2.7736326747812181,-0.64650982381691613,1.0908614526535709,-1.9833632203619849,-1.0595039704951128,-1.1207683935606008,-0.8282806591382732,0.2629142036960373,-1.4195644832047947,0.72903645355157676,-0.68894934677700126,2.0640268134587392,0.29636790051462947,-1.6859793149652076,0.95412668685632374,-0.2835160736658211,0.076002930318363235,-0.82089778028776206,-0.054316335346218124,0.23328023094874423,-0.027708857734570172,0.10403972531090545,-0.81133834626496149,-0.14728126393748761,-1.4631925384248026,-0.69325166269814786,-0.50337571500149891,-0.22185948322456731,1.3493963331447814,-0.23033362804451668,0.34134565015474938,0.79771359212906423,-1.3370636481055438,0.41183231297510009,0.92878235875061221,0.1421636911858799,1.9485212037469943,0.32422060417254617,0.14101773462675285,0.1995390878042409,0.8228116465179417,-0.23466108845557956,1.8566965026612201,1.3798013414960806,-0.7860954509371133,0.312001916817159,-2.4853584786893292,-1.7537306773598129,-0.64855385769651386,0.007813118441732738,-0.45163585775173226,1.3167416756290793,-0.10022624585204137,0.073782209195900686,1.0881423511455817,0.99949357788489934,-1.3575631420613516,0.4292404500409841,0.033185017415660878,-0.034646813200568387,0.97651238209843838,-0.57934931062655726,-0.26242854625668283
0.68222999908784354,0.21780629518491709,0.54729211604914207,0.27781083564572223,-0.87291037220093071,-0.27473841720105002,-0.30532700412980035,-0.46157000867166431,0.34283643767274147,-0.7858182170738125,-2.2378689759254544,1.5277353088362167,-0.7653321182569659,-1.5964563530766316,-0.33265371920452691,-0.74193829400716826,-1.3380288779497735,-1.6105146512020601,-0.92331023380537092,-0.6443515750579123,-0.48622010907653634,-1.1521710080931644,-0.57086368336159832,1.4275806686269512,0.42030902208528598,0.79956607575734873,0.38628911911400127,0.89525070687815422,2.0712040686908084,-1.0381349461033358,1.0075121190040013,0.43187503573918878,-0.1802268301355763,3.4692456279200194,-0.048152075665911419,-1.7798433124240594,-0.75304850575564652,-0.08558920530658469,-1.8516533776169355,-0.55391730554147034,1.5480227942974367,-1.0318063154681016,-0.27705231452075285,-0.85060533079783163,-0.08682177422540005,1.0028410557064875,1.3018805006212315,0.91518769600427397,1.3390899394358056,0.88501517029290877,1.3714990994489069,-0.20266520310142863,-0.36543486499922678,-0.32377577759397608,-0.29413922812157878,-0.075990160252263114,0.7449115780244282,-1.2812392036895073,1.2112099478140192,0.283437293471062,1.8668582735775736,-0.64089807094238005,0.4577171428434495,0.44170181259271091,-0.42943257187937589,0.28681414553916657,0.1979786220869707,-1.0392862179389564,0.31317117317056298,-1.7699084542018741,0.079358233769416198,-0.62830775854405241,1.1043279897116614,-1.1150148662867287,-1.2643736339781599,-1.2688494715949135,0.41788168106897933,0.34809871134044451,-0.21338422903433443,0.066894063098532491,0.36657669399401865,-0.27701268678234975,-0.42575437042350717,1.6973484360324917,0.29174807311241707,-1.2898652444157368,-0.78107642537647692,-0.88148533695296449,-0.68211777725787182,-0.57981404648375112,1.0059234620001496,-1.9434116770601229,1.8319312706097737,1.4861861851053246,2.0139720021954273,0.90405659960170126,0.9198901258877642,-0.20184440915619689,-0.59704337278095521,-0.65953485613617202,-0.86194180581093283,0.96231722250141483,-1.5345981975563563,-0.95214440790042498,-0.36807469501065448,-0.78858136043845783,0.36008801184182154,-1.1371811385845938,-1.0231521233960887,-0.24939001023248206,2.1243637330557261,-1.7349636727906101,-1.3827315180811086,0.53642430275658404,-0.82962863659444386,1.1089877246529427,0.86258962285729568,1.0124839788834128,0.78599706300683447,0.25646557649267526,-0.23820367287918387,0.26401056088557628,1.1592933303550803,0.47032848759704404,2.0644994186862982,-1.3868878603280375,0.1618578153631367,-1.1215135919320025,0.44034345123134072,0.91002967702190163,0.085290674041034353,-1.0561846522159937,-0.59416911908746783,0.054968932975771996,-0.91768407441996513,1.5177388703903516,-1.1325033558004665,-1.0517057407009853,0.20051828819463866,0.14132980316073149,2.0192373135087318,2.1219685658039502,-1.0874177953715241,1.0557640657380374,1.1223891667495607,-0.72277541596785666,1.346658186391702,0.24981099355770445,0.30879009632061771,-0.8349098165149198,-0.91087214738053013,0.090471574899589832,0.60159058811262356,-0.017908410117773773,-0.92348275156165538,1.0276003574739165,-0.74584692250581763,-0.17445897026805401,-0.48071845460580259,0.86712966908818478,0.96769685717936049,1.4790145765197062,0.43848177835270341,1.0814352049527893,1.0501834249849444,-0.37869014967767006,0.19001415796518373,-2.5390703316680976,-0.66477145628372436,0.18886217822707782,1.3468137368904778,-0.60379932498366418,-0.055324862820125005,0.48168890423428384,-0.44735089622549018,-0.28890288379064633,0.25185031196758884,-0.88087763420304455,-1.3366670227705426,0.33358603332173403,-0.55904123435100372,-1.9824991425690786,-2.3613754739865906,-0.91531244407712531,-0.88890235455747391,0.017275874188512279,-1.2539225604445783,0.24819028748066566,1.0757276504666942,0.52378363031393249,0.42616064546807336,0.95906744885857254,0.042216105568681481,0.58307688797896162,0.34386822620102109,-0.95733320303625469,1.2115905156932247,-0.78664986199529763,0.16419957924589459,-0.38447612431164851,-0.61511990393068205,-0.25885079131486316,-1.983017838766405,1.6110788035872861,-1.5436120378910143,1.3529257392716161,-0.74941580020242748,0.11639668665045472,-1.9005780246126207,1.4676277970256131,-0.9471192345777113,1.1717971411696742,1.7774360934574518,0.024936236839462923,-1.2252103567933283,-0.73309996616881845,2.4818705391768456,0.11468814035426186,-0.62318235401706668,1.1064665848986532,1.0243154072900158,-0.17636679350352505,-0.043871155108306803,0.53884537677065336,1.2115937280218803,0.61155865829971445,-0.29714569385186079,-0.22809007439750148,-0.9458708336538868,-0.043242144592881629,-0.41396274505037273,-0.54665934462316956,-1.0220659856102587,-0.33449168998570145,-0.61686543516921422,0.38652115089273725,0.082067328838763359,-1.4045651290500123,-1.4356582790093717,0.795193624592894,-1.2646818834657501,0.61496468967396145,1.4715511503520782,0.10433103980373737,-0.57350804503876573,1.6341199647924574,0.16308705295234177,0.3269105291964714,-0.93631288376366739,0.87297919122966383,-0.97216605378004373,0.82245730230045677,0.21865344039849074,-1.3006141680914687,0.095223282249415356,-0.20339303015271351,-0.50443034681899679,-0.13927592794879917,1.0174263083617308,-0.62045471090831494,-0.4616380422949018,0.15201376348786264,-0.82564621622541112,-1.7485284751982739,-0.27346304565455504,0.80455357379882442,0.88625352923885714,0.077395418097021454,-1.1674472439957084,1.613817185099538,0.1558648801977893,-0.98435757698710746,0.21507233457206379,-1.3081612058191683,0.79535569315885868,0.9048571108048119,0.11642049560096766,-2.0201434376249381,-0.043773081726565903,-0.047323398660100109,-0.77885149833373757,1.7274145444161886,-1.4492079696733715,1.7186281542691304,-0.68482116200085397,-0.022403685184901479,-0.15080770476588068,-0.2858497246224011,-0.77163856994806568,-1.1433010420068754,-0.2122063310685208,0.63080521166965242,0.55736076888786223,-0.26989850615815331,-0.044230066291993622,1.1920281430152988,-0.32626492079849506,-0.73274904854602885,-0.66402909994803661,0.21471302826224842,0.092676175044500944,-0.25528560694862173,0.54924272678236363,-0.30525447207548712,-0.97812564173010341,0.39887656124693449,-0.27891781213187489,-0.027008966730602876,2.3582449050434118,1.9779636942192722,0.035827768965333032,0.58402564501774046,-1.5548872361095114,0.44767315469626023,-1.6518864437247476,0.42098171497280062,-1.1392558119939253,0.27630685643433345,1.1489435376033119,0.56993488716269425,0.47630923465041308,-0.045022052301502476,-1.3416456648725363,-1.0419523831125805,-1.5725899775972745,-0.36590486514039006,-1.0425908143900495,-0.44724756150036749,-0.19012498346422171,-0.16445430874306555,0.39688097310550408,1.5416870054573768,0.34350752504795112,0.82848610690271585,-0.543491602977351,0.57883546319296353,-0.22672651153557399,0.093868061411842021,-1.4853060143050272,-1.5589766384002635,0.039358066232080532,1.3378783751076315,-1.6956112099193588,-0.54081118139602924,0.61050211244235708,0.076148435264340439,0.14415172947469318,-2.4941569403850559,-0.74949594198038649,-1.9133546523849037,0.34134235584356742,-1.0364212226771767,-2.290169402166673,-0.55157054180218856,0.070050659484937383,-0.53054953478854461,1.5648519840015018,1.0496421030120278,1.4936410959624913,0.54063390077448203,-1.299073817657808,1.2188469483476418,-1.2350071412660371,0.015035878315194238,-2.0830586848980439,0.74712453789665978
1.4641988328670519,-1.6503556300229534,-0.17596134951478576,0.41467220045877445,-1.6017674107036342,0.68058525787237656,0.18416577353953983,-0.991284219442785,-0.2005814001734576,-0.12257882876137566,0.48895831823299085,0.83326106110670062,-0.12865461486979823,1.1087871433468797,-0.17719388968476368,-0.0025120349522759671,0.014716776648978762,-1.237952266431728,-0.20063173365840803,-1.5264160585027473,0.34695532196093654,0.36783599770594744,-0.074163632559717557,0.29118541089604416,0.50340314328118507,-0.38862662173442375,0.84189654544032733,0.72555218556402212,-1.6113570289930323,1.5897928624636553,-0.73669422333818013,-0.39642777815451075,-0.10494471444103548,-0.67140194414556931,-2.5486318160905403,-1.11054281144863,-0.19924449242239403,0.51690620198692561,1.2003462638487199,1.3717193154018001,1.5747149315717439,0.21135341552139111,-1.9272487998845063,-1.2753008091993843,1.4353158205171366,0.09548699459237682,0.45730348787636582,-0.68038043439863261,0.76418602885653697,-0.91704973264816447,-0.63350048913525525,0.081089244187811618,-0.47902636383599395,0.0020640086257004489,1.89386127429815,1.4173814085960137,-0.73294093081049105,-0.52128788864299347,-0.79998880975135211,0.28485719295806011,0.040364748852129671,0.2371571445562688,0.72843491320572262,-0.89220056863019481,-0.66562093929817212,0.14120313698098297,0.2814594686192769,1.0490925107273037,-0.37753512076313439,1.9445790656354756,0.60940908402547567,0.57854739242705988,0.27821283358658172,-1.0930623278455285,-0.79111597636724473,-0.93085800870962998,-0.10525196029130948,0.093792966553119819,-0.92526238332722233,0.84752503115013467,-0.039535555877925246,0.52802937063598687,-1.1695325981378784,0.30432683695311036,1.6708837244572541,-0.60604041651228679,0.045812181685494391,-0.0093913258621323315,0.3313813623667069,-0.8569618275199482,0.33935193268906344,0.64552501663437034,-0.33826723386515123,-1.6122547605744288,0.96996345616193369,-1.1507369639309417,0.73660022338009334,-2.845239702996639,-1.1323437718710976,1.3978545364387513,-1.7907396806154019,1.6433251629065799,0.33160427687835042,0.27939109356659991,1.29322682106808,-0.74003482898478201,-2.6834740850754892,-2.0107386440766213,0.44205276112137848,0.91250571122961222,-0.41788071029132084,-0.42846554849764718,-0.79010736821938921,-0.44832570191182414,-0.49366238604054719,-0.15272851634336743,-0.6888591275079059,-0.79802040443684219,-0.58657721554312792,0.26706778007482601,0.6761077927910476,0.84907410916340864,1.2414670053843793,-0.40382511787130687,0.65653558742218288,-0.19946683739418983,-0.96984060850715959,-0.26200616893961987,0.50351953062923105,0.91772468768227156,-1.4383943576614677,-0.90479215291444259,0.98282799557245293,-1.1984184647364471,0.53090402638287781,0.96515118287407231,1.118070160638682,0.51929044458882523,-0.73093707562006938,-0.84266570376652528,-0.051751448110742559,-1.2282034217083664,-1.1478746728698017,-0.42177881614256546,1.0966463331749381,-0.78063756265510209,-1.3905236859684242,0.13519281195783989,1.0136553328354059,0.26880850667284711,-1.0239058796302276,0.43154501442270649,0.21606322841683753,-0.21442441187932409,-2.0520630284086616,1.63010459785437,-0.70568212739447833,1.5177618527372354,1.0490271309226984,-2.9589156171901516,1.3692775038544185,-1.3833596266748416,-1.171659704789634,0.50764984955417036,-0.14458201986756383,0.49737272713012581,-0.80983768328543759,1.386168498372222,-0.21893315926605925,0.7594100266946977,0.08340696173456999,-0.016573943177061765,0.038492950024600861,-0.22966515298957185,1.5133548553509295,0.76135821895430167,2.2980153398218333,-0.70604175181538376,-1.727014061583573,-1.0877296334255426,0.11632181165791401,-0.28010179857994189,-0.76073339398808404,-0.89657821541524085,-1.1281906162297985,-0.57471734026623755,-0.0026385873064484087,-1.4666293068881329,-0.87938269948606362,0.61896758778615546,1.5573137826775674,1.0037941639735311,0.039101349072105371,-0.15300975739726719,0.14084170495910456,1.1505807809019799,1.0492808500338913,0.63298157956238632,1.279311921372575,0.90264606580002915,-0.10064976469331907,0.80601746963412202,0.99556527082391644,-1.5323296700228768,1.8472498147994525,1.7834572939793643,0.23121591025216387,-1.3868774851605687,0.036780739798053401,0.37458524537413257,-0.10736413144275177,-0.21226134338911401,1.283149640524891,-2.2331290355757121,-1.140487482919545,0.56466814783592711,-0.01346102339199802,-0.39784123695270979,-0.51769645041173529,0.62255318590001774,0.69887894930194316,0.73155287018936377,-0.80646147171917359,0.27702286908670787,0.40302375481854658,-1.076102871291813,-0.77216869711503944,1.1389749359145678,-0.5641448751755257,0.88384190776256344,1.6405632341611212,0.41036091355020676,-0.95665317151813289,-0.381185684948532,-0.58757419842689096,-0.093475649561928095,-0.55830428847408298,-1.0051527250501688,1.6647224958176845,-1.2749551735913716,-1.714557531334044,-0.83726114987801747,-0.27636716762365277,-0.16360520264320408,1.3974069315121365,0.39145060233065448,0.36858125975730532,0.79629845134985755,-0.027778728339450297,-1.3345606807558033,0.78357950917716968,-0.15010056794959292,0.7427736332985031,0.98153478835941033,0.69430390202041703,0.92972482296698578,1.3394222544300651,0.24876286696758329,0.46870588164097898,0.14230052643137991,0.69388037589082363,0.46302735261874173,0.31488201344689948,-0.63736996049667738,0.2793249572612102,0.99375376648245539,0.80983618430429305,0.92404630619970618,-1.0196797729842617,-0.5112984781570441,1.1257521194354485,-0.40511161868183138,0.18458306346836204,-0.551201364891163,-0.56144612571453256,-0.62572905749311103,-0.43806392452208776,0.28723065889663296,-1.332770966348291,1.2065871121878911,0.39699519234237435,0.50863159391733181,1.2563037843525795,-0.42610464583305968,0.12134415750334687,-0.85281224967353175,0.41654675893549525,0.46606370642720579,-0.51638633149460089,0.1243850835041843,-0.35508089224359546,0.49955392204883942,-0.8542321784205501,0.9480890977143005,1.6098058585836372,0.6769905125884822,0.56421031128243337,0.43776973336425035,0.26438890849314423,0.48969015344215772,-0.018859799314100111,-1.7426298490314125,-0.5269736585702286,-0.4028919622378041,-0.043088664084988876,1.3879313066473558,0.78357199749522377,-0.3629702195426574,0.31884509137545147,-0.47474742089451044,0.8977862759742794,0.2202478541363031,-0.4923847264419281,0.4475459386546749,0.87360827500135063,1.3530583759500119,0.19125022313631068,0.90486654486461748,1.1721753679802303,-0.012838420517757746,0.54815468551206425,-0.1252696167634243,-1.2882138989873537,0.51536887182844138,-0.21541805389634877,-2.0225118405667866,1.9376663914549463,0.96959943170187468,2.1245002175624013,1.478351725836067,-0.37855188939178741,3.5524679989999202,0.071791496021651982,-0.68330017846787439,-0.80353288396299283,0.20020134812267101,-0.087480620040083917,-0.43890662451737866,-0.75638289378758927,-1.3455787684958871,0.47080000103422964,-2.7198255909348608,-0.88411502656973406,-0.35593904065365556,-1.2487145813380114,0.47644363947592139,-1.587517415022645,0.16606743531801416,0.065309296411476578,0.94964423333375581,-0.89277954926305325,0.37294897884245803,-0.94240576253547259,0.74760860760416181,0.34003052871890516,0.27538214058310539,1.4530464462553521,0.64435422112029561,-0.61520789248791452,1.6173998696666141,-0.39017423357660297,-0.5293601651114761,-0.09465586155850203,-0.68084757672651564,-0.17417732713928544,-2.837187526102233
1.0474709340318296,-0.13907365733304358,-1.2694587294620032,-0.87794541252762248,-0.094921706103624368,-0.74986453097023797,0.81619032329986352,0.94969081678732625,0.40464750261258703,-0.88650066998900456,-0.213333832281909,0.96926839598314207,0.99871056530541946,0.15379616348233396,0.43521098585838114,1.234184175639832,0.9376326172340852,-0.50337797717367472,0.15934054389948149,1.1625295810512752,-1.0391361274827338,0.46125016157497867,1.4238521773953294,-0.46268667427424137,1.1460035140350509,0.20887916596701658,0.31993704040137944,-0.58964491843969413,-0.76718996918728355,-0.12693565835907378,-1.8933641671304606,-0.95291538237624429,-1.1232492895419548,-1.4053663145985003,-1.0434918525436938,1.0339041198579566,1.9673292939359011,1.3725165477537506,0.95027224909185437,-0.80091811123016965,0.4854662879296226,-0.80229937225091419,-0.98464990730920798,1.653852267712778,-0.98849350604815733,-0.57074994187119799,0.29899083288059208,-1.2003284297007142,-0.13942816710976794,0.76496953229558973,0.38623068143050732,1.6260370787759666,0.83651928182720425,-1.4379855755146507,-0.61235389523294859,-1.8461505096843664,-0.9825071989681714,-0.84877610210368315,0.54597042507139659,-0.65376092211106318,0.32208970432995754,-0.63107231278284581,-1.1986013825429422,1.4433608450546238,0.6193733182481006,1.137965228845468,-0.37080878499863679,-0.15057343932447018,-1.0685309336252895,0.1568496714218173,-1.8581673404738261,0.73760739865754588,1.2352707990395746,-0.60435822127641903,1.1889112545678278,-0.32395074064907126,-0.20236773268065558,-0.79467116861873544,-0.018325523873144872,0.18964730482563238,-0.77706284530790792,0.22766286120877363,-0.35816408076609324,-0.87637949958642225,0.18418484434108315,0.50031358781645996,0.12574829872808149,2.006520042828464,0.033189523979097857,-0.51339124392888147,-0.80227594773732402,-1.0246679403482177,-0.59455013626018716,0.088646962172382451,-0.15096827491257317,-0.96393830428554217,0.017319172955702556,-0.77462986797309408,1.279621728226749,0.32307626651402582,0.14080834831715788,0.20942256075627824,-0.70485600781991431,-0.76220625473917536,-0.24389397939170018,0.15271865973602322,0.80355273413657968,-0.40110376362548045,-0.20572795705592717,1.2422311353283602,0.29822992082204891,-0.0079565522098645879,0.78346427213848002,-1.5122223460235489,1.7118011261085369,-2.4580280097446838,-1.482491364582164,0.54729634281091477,-0.26491568776376778,-1.2392938445091668,0.35659631621101645,-1.6403974421850476,0.57516033787721854,-0.32924988356649376,-0.30539233755554829,0.32722129284113211,-0.24335311369111659,0.77002019090724527,0.094141838605928119,-0.82719534960250207,1.5521796323203338,-0.30778086681471883,0.15609950263166686,-0.54651712637373107,1.1096129277467901,-3.3689997679428614,-0.05915503454483851,0.38246419640098689,-2.185810980143235,0.078640822912832239,0.72346211682517403,-0.25148870646192889,0.26168087612784058,0.64708360195306458,1.9871930923640211,0.26634403054392458,0.21141569991840387,-0.72486582135439448,0.89525735118508598,-0.53865242250358769,-0.65830322369018179,-0.87262700773321045,0.11667436104115651,0.79989685565561697,2.021468316064992,0.65037766967585575,-0.093221420735436711,-1.9248792022115455,-0.62196716313051392,-0.4575925015927117,-1.1916686637974327,0.69969235032933796,0.29074420978367715,1.9740850666454111,-1.1140315554459497,0.19736957416246598,-0.86532131766097686,-0.0093184627916943694,0.4342397532105054,2.002330946452926,1.6443875658218681,0.31074824258038453,-0.15932024702770581,-1.5038740045564689,-0.080126486607505751,0.013022833192002661,0.18603344885234505,0.771074005777029,-1.3594221804755589,-0.9225651727693166,0.59726344336060955,2.6026090378032558,0.54651648893734173,-0.41050027753592822,-0.00035350779409842935,0.37691489152816221,0.13498072849096554,0.24482700521505452,0.57610770433470504,0.49321453256929637,-0.013577003137150616,-1.8183608561899054,0.63750739551414626,0.40095568516979518,0.2164231576315753,-0.87431356300158813,1.0351726144543967,-0.16570720376631454,0.69610676909954039,-0.54663696414307117,0.0048743102148356915,0.34225063741880118,1.046676833333638,-0.3860300271660676,1.6684942595123526,0.030166477747174725,-0.70304309323978575,-0.6020883826394009,1.0434981100655105,-0.58432004962412709,0.29407548076504531,1.2385348525575364,0.72467132287925451,-0.55578464273114325,1.1019155342304106,1.2780573235781938,1.1367155335364716,0.31254897891889272,0.79700647370441713,-0.056571736812074405,-1.1028249244124657,2.0505094990248662,0.89575251184774918,-0.45524025936585105,0.3256341672003929,-0.43183988423098113,-0.21985607195356097,-2.6173141422101067,-0.64134406867517813,-1.7685084529182944,-0.58025261210009238,-1.3579840485953258,-0.30742778991293701,0.63543020998827549,-0.5670650127293716,1.2576884649739466,1.351229089866693,-1.7974410323912757,1.0146704576181813,0.71085291111836069,0.82827826270439187,-0.17979968909237828,-0.62766782331878623,-0.43922736050008948,-0.11229280532716925,1.1022934831717452,-0.12968653386144419,-0.3196927546191019,-0.65659192545605971,0.15794898050725828,0.238943195624472,2.203495481750215,-0.40885674113563714,-1.6122076966308627,0.010098872847365744,-1.1265105187010032,0.12970772001615621,1.2875721126331543,-0.52967682436101149,-0.8316528911783897,1.2939535729427301,1.1621853385355305,0.45116325018814174,-0.26546091953971807,-0.60165094983645107,-1.4191380629551449,-2.4072093643970085,-1.0802184079240831,-0.28515682094948303,-0.68016673825918583,-0.21105514716812498,1.121736253518959,-2.1444000140054689,-0.050589020559973108,-1.6798686690634714,0.39668951052688844,-0.44174750748811276,1.3779013503162789,-1.8451583052968394,-0.1487653792026645,-1.215591243444569,-1.3999901784552522,0.4943814901239133,-0.83060109467073262,-0.78395644042802382,0.077454745583163662,0.041527490807878147,0.11697378589554516,-2.0108343536562168,0.77918373534720298,0.017562048692162862,-0.2512080981303616,1.0422383345463768,-0.12407721258381854,-0.39988142292778195,0.059014906192515211,0.4164336824768658,-2.2295766334227238,0.63276966042183036,2.2069207664546964,0.73489264267778742,-0.030046965929022552,0.66048409327586322,0.87198647498350457,-0.7658632124004684,-1.3399649954262021,-0.74290293360327331,-0.26640124900022971,-0.50981116641545676,0.12463241795798873,0.85617241066683447,-1.1536943131315693,3.1734099855931808,-0.82888589075220809,-0.73146763882991772,0.18713708119654854,-0.5398747309717723,2.79828293254397,-0.50762143654690239,-1.0940710231732245,0.71465193076161482,0.02914720285208278,0.77074543547048413,0.0081164557878143015,-1.2955005533968906,-1.5678427131515811,-0.65522781320879941,1.5590036416602739,-0.68250720696012679,-0.27312943243662724,0.90908396628696198,0.28743801466845031,0.84194247799222932,0.14505399635967359,-0.76461720167651781,0.44093360217482813,1.6935530492636441,-0.2984621271252042,-0.13015265607984716,0.30793257017364195,-1.3538676106560714,0.43388576211498864,0.9953107910167508,-3.0644682084215504,-3.4755569456386479,1.4388305002152113,-1.4396609486195768,-1.7586445833742332,0.28349273925379098,-0.77561771450522232,-1.9083289944096335,-0.65292177393934026,1.6931508984194954,0.4138946332787532,1.096306069852532,-0.53285578159510949,-1.0113800677989018,-1.7151065493670525,1.9918352635425629,0.23833039570041273,1.0352944381873028,0.85640586918139805,-0.2055513416620787,1.6521285295593042,0.12399075065407891,-0.12812016905549695
