0.020885473559252698,0.18309131002810328,-1.8947999283570212,-0.37227332310320127,-0.93388019662140331,0.097435816363704589,0.094214632026822481,-3.5095512041078734,0.19910865581176576,1.4910496023958251,2.0168508143482744,-1.0403306291500589,1.9823483620781726,0.21932765872766705,-0.33343572626692147,1.3683072720172811,0.99656360637438168,-0.91284528741226323,-0.83942257084832994,-1.1633364719615711,1.4393298573810467,0.15680120386403967,1.0351974163626918,-0.3856118933631506,0.005143901919500842,-0.10742867063359075,-0.38525087817105613,-0.24544146768187303,0.30690783647813552,-0.69368268797483412,-0.087812440902352573,-0.46788559903786298,0.10365464487533722,0.65650561677216668,0.37403007112029274,0.84413118581328528,-1.4088061372593339,0.19377624497428753,0.53776554685525935,0.13555020215614214,-0.9894937314994513,1.000433516907925,0.27929330765808402,0.10229667540457386,0.43642476900403188,-0.47397016908714157,0.19728572109766873,-1.5391032283857056,0.38236348105704748,1.8634120129406764,-0.59340528874843901,0.47047828449660467,0.94798594407848358,1.2372751233568882,-0.72315566846638302,-0.11428968878089575,-0.0083747771931948975,0.30981943732527922,0.73863225241560626,-0.42821467350176362,-1.1484519478730579,0.28546309108813372,0.58535382134397951,-0.61977059811240875,-0.043325334719633041,0.38307802835928201,0.85198281247014296,0.0041524008588395556,1.7086056871117399,-1.8928579286633187,1.6089895234083267,-1.3070720396140063,0.06494601996717593,-0.42278385674676239,1.460579986810983,0.46414049952659869,0.63260360107814462,1.248149594896935,0.44063460290530498,0.43212693041967398,-1.8448669379622247,2.5229877092715913,0.74476906566968137,-0.69286037600692241,1.87619346498614,0.53266640880609728,0.1682729496211699,-0.18352959525094192,0.61292623954155701,-1.269164734727692,-0.87441694746379917,1.2942988684197867,-2.4071400420705649,1.1027151830059998,-0.61147008020322069,0.087362597627885244,0.1227278441154276,-1.3408818529832487,1.5338570741332642,-0.75111056324152514,0.35814247987878206,1.9258218324418401,-0.36097674832192894,-1.8911456527420625,-0.37257308090090985,0.38738070324534413,-1.3162166633778982,-0.63764057781299455,-1.2150646814863022,1.0744361589950329,-1.1603247237124874,0.52685570950106753,1.4985102780132797,0.57196138984731082,-0.93343060580312198,0.014920889416758384,-1.8393769863886573,-1.5312940115643061,0.05537055885740997,0.94718273781139861,-1.0762281673678342,-1.9484665545150723,0.087904483860859112,-0.44379830324164166,-0.97760380390640433,0.17350943458166654,-1.2355443690703154,-1.1722897693863563,-1.0966261614415598,2.0427906790269352,-0.0097896308241119962,0.94925983132840686,0.66075582744609196,0.33443911328958809,-0.31326653870924159,0.29256113486732394,-1.3983837891215656,-0.28367851126853472,-1.4300711862478266,-0.21623596658557698,0.62345508925873361,-0.1586561116506614,-0.50999729385127301,0.040433416973160462,0.81327171111105423,-0.50902329579961658,-0.16462145805192074,0.39771343900724515,-2.6462670339230576,1.675338602451236,-0.72448636359853036,-0.94889863417787645,0.48633960060627046,-0.77446093148370687,1.0464261847228926,-0.48267762181989848,0.54672618848202736,0.35189636344107955,-0.77980861137021551,1.2412640199457992,-0.68009781345887943,0.42587173737719836,-1.6425387249597498,0.17719244303800813,0.26130507542706077,0.58920887564682844,0.51002200431638067,0.084210413766147782,-1.2828417563153922,-1.3080831929097541,0.62372196088046394,-1.2403750452169608,0.14458908959117212,-0.85063175210438213,-0.048312270689474003,2.0718470571418957,-1.5630218474302922,0.46792781007071704,-0.25650765295377137,-1.0325723724705587,0.63534854771042171,0.75875540821244591,1.2583164007033913,-1.3462142135427762,-1.0395921364177034,0.76191720032946941,-0.67313269462005054,0.18243560780846679,0.025651853643516326,-0.9403935264705735,-1.070903632679896,0.072857905200890749,-1.7528001174524046,-0.37916245995571857,0.69324689424855956,0.18534489788453215,-0.40614745866043017,-0.68535371010032642,-0.25280849416712942,0.13207510680847234,0.088490298705502124,-0.41488521195277878,-0.64527940710832954,0.13853071458164815,-0.04517633964364761,0.041426848274007604,-0.29766031983646857,1.6168783123675226,-0.42213986167030754,-0.64746976510089582,-0.14314428289298964,-1.2631187908882024,0.35812645871007331,-0.93593857235911659,0.65121531215583217,-0.50880819893814044,-0.37140674130798329,0.46191253432463847,-0.025881322996029889,-0.98577410064279636,0.34701913116046157,0.5544707825688483,-1.7640818917722001,-0.73611262324299076,0.23706992779409791,-0.8977194258598763,-0.76535167632570922,0.30071074187518554,-1.7021977756577689,-0.83552136178487046,0.94370572867383329,-1.329119820443627,-1.2325480078632214,-0.63619870796278699,0.057145316199735563,0.5803628944640844,-0.17706316990025281,0.020046107031102177,-0.12042629868913834,1.0206838537850476,-0.87739884522231537,1.0354802175743505,0.49538039451584293,0.35143223859066486,-1.3860504888037477,-0.43620389102012802,-1.9501566427694326,0.7607746043863427,2.7032967174771869,0.53875769180426747,0.64659962365657597,0.56471710457447999,-0.62849130206605064,1.2988013647257746,0.11306071960263907,-0.77200626733789235,0.39270565720673684,0.71224729671022469,0.31932776106653293,2.1852453524073554,0.77173185470838013,-0.071578912478600445,0.54558091962465516,0.68070464435768951,0.84636596480132109,0.15353089506290227,0.60770183105955555,-1.2326156632515437,-1.7045352842010759,-1.4316623399350812,-0.3971831660479202,-1.0074194079477268,0.75896508750782576,-0.24233508046657321,0.068294952536264095,-0.6350698394276143,0.14797204475526882,0.47719445723916371,1.3093636871146017,0.17485151949395414,1.0474483245247994,0.13355244034746852,-0.062434543805975698,0.22993192191006154,0.32571223205642608,-0.48625284724478168,-0.42099911290919378,0.80590497429585872,0.30374366387133805,0.044092520437892517,-1.9890849453827626,-0.015080984420834047,-0.26954633066020994,-0.55671107988102342,-1.3980837017935197,-0.6793493310845673,-0.15249369097821522,-0.53319178501227649,0.97338869872905553,-0.88516266212252448,0.21828959604505713,-1.3449663660347226,-0.1919658180912292,1.9603132574611437,0.47680662985042094,0.79792337546367975,1.3465589730625165,0.48012939638115409,-0.87709175644699766,-0.049910219445112806,0.95046083578870433,0.067002669829701031,-0.7441641363808098,-0.81404818987868977,0.12465936161384415,0.74291561828496644,-0.42150996168537408,-0.65538758115400442,-0.23445645666225626,1.5053508580186905,-1.7939054683875906,0.76768605588438277,-1.0971611633491294,0.6046612047138834,-0.082360370554595136,0.86268821595300804,-1.4573921148470406,0.10276733113541098,-1.3711378605747249,-0.1440149561739964,2.04250209384697,-0.21996562494393049,1.8253367660292119,-1.4890723620733908,-0.63945501860168419,0.35369027149089677,-1.0105387286476331,0.66244780516867896,0.19518078638861319,0.51638644230993291,2.0968411323827478,-0.25415048655243622,-0.17973485657810376,0.64309439575461713,-0.1943304669722162,-0.23776618489661688,1.7033521478950122,0.30692989958722966,0.054286572271938976,1.2466067867231014,-0.70623218364022744,1.4349334197102941,-1.4421624224737031,0.43278002001091631,1.8237039043440981,-0.31614824407701902,-2.0101259541333998,-1.8128166411376265,0.55613295526172501,-0.25942788323846644,-0.30188676905894818,1.3561909049342824,-0.85749475516886164,0.33222667951808649,0.35626761044064431,0.35548178753335302
-1.0952242803048367,0.53769391494519325,0.89174483660697146,0.96392722387522733,0.21331275810219863,0.055278914093847095,0.3607287125525499,-2.2907713930376308,-2.1803251324678423,2.3450322370974717,-1.227080556384246,1.3984937422205701,-0.33420960832009217,-1.7910700156127171,-0.92514135968218647,1.4004422521400066,0.38254525349707108,1.4057212398475187,-0.88446098216363267,0.015400455846784624,-0.69929552669340955,-1.1010406970374813,-0.42273984864394853,-0.9833754930082772,-0.13556876869758297,-1.3213059340488096,1.5710529978829477,-1.157648457642974,-1.3597503125702028,0.95767967441613577,0.61785299356010948,-1.4361866286095821,-0.69280836911441834,-0.51940301878789286,0.094136637772123166,1.4838839940359703,1.3893917800808542,-1.1296927804822645,-0.16773427096099511,-0.32026309168234735,-2.1330051113178379,-1.3216388652419053,-1.7744270292908697,-0.98149287704346078,0.6709943239936238,-0.81042362961697867,-1.1396551650215025,-1.0128377712936774,-0.028187571964399607,1.5827130761166328,0.73449185796993988,0.34945193892725002,-0.32391464738247899,-2.0466881009823608,0.20104508024953208,-2.326024400145108,0.4972390887780605,1.2819774084665954,0.32578426795420823,0.29739041276366662,1.4303766772138762,0.34691357337131684,1.8911670164004344,0.11255810958364454,1.1082187611125385,-1.2250814023120833,-0.68623605165770529,1.7022829619218094,0.21389201546837217,0.10405157332716085,0.85043836935154027,0.43381228680206729,-0.95117082361590133,-0.43241405126073373,0.23015596734489407,-0.32260110104497536,-1.4567509857480352,1.2920570420423581,-0.80428819181804556,-0.85476839782840908,-0.025125043320905132,-0.20407230939329715,-0.13308601140400489,-0.5400242796153174,0.44113372130735129,1.7180949752347294,-0.33628651787990921,0.93752693510931118,-0.050045878068287468,-0.77477220959146753,-0.46055533547452326,-1.4181311650582997,1.1809744896603172,0.50155734669736574,-0.28518045734999514,1.2224229351258713,1.6430605271567218,0.18511941384270778,0.74263698008185897,2.2545901619381188,-0.99872633924917731,1.0341067502619743,0.29709566929915709,-0.62339628495516164,-1.2603855852171535,0.10354146651824217,-0.28650346293811252,-1.4583325086199563,0.42931253499276434,1.1125580510945072,0.62472346450654004,-0.9206015400563955,0.56005507386173659,0.24753259160575727,0.76147350479173503,2.2703582598101919,1.0000679984270227,0.095291414358721988,1.1259395348123127,1.0407318383989352,-0.89802026588160433,-1.3831124260182326,-0.36920577290743101,0.024624676628455584,1.4225749476469156,-0.55726463685915806,-0.78773351404479974,-0.92939259023086374,1.3602489032029306,0.7249603900030257,-0.40466436118491234,0.61636903892609329,-0.95590801313851959,-1.4594005684588245,0.090315776854334756,-0.41116246424051178,2.238403134577359,1.7602293088893932,3.0586924822188273,2.3128270630287902,-0.46786137080860701,-0.8604681310246125,-1.195232772887399,-0.54313972103850061,0.54330628979062112,-0.87665979210415601,-0.50436809782932124,0.11333400137867704,0.85348054479525126,-0.8135244884144156,0.053814919302431721,0.26988019308956163,1.3840341898758091,-0.25752823880698167,-0.27848783180065423,-1.4821369426788666,0.86137596694500906,-1.5373364996110068,1.0428194607200767,-2.0577547543258454,-0.062784475194034531,1.8460007407770973,0.26334090892706813,1.2066405057371581,-0.59003789007586882,-0.78074154674467044,1.6503068567310173,-0.010369741176327087,0.17378580629013129,-0.25285012869726209,-0.29027971996869029,1.3548731936389737,1.4014780166351448,1.0493022106880814,1.5232915655778854,-0.031716659390310251,-1.9139990806045297,-0.1614951174537527,-0.40292248322472846,0.41193751025267861,0.97143593537557049,-1.9859846668179197,1.1615754774397451,-0.40459235500028434,0.53341527216707985,0.22832820853495114,2.2944294921827768,-1.6740469842240209,-0.17194059966543898,0.8854450200765176,-0.55011966421249159,0.17943822826522227,-1.1360125713825171,2.3088234222114647,-0.48978440434542186,1.2580860931905284,-0.30263046994179044,0.53040186764948949,1.8739643051052599,0.356997287095912,0.11266067677021968,1.5353695680288935,0.25257577688809091,0.60741074046955645,-1.3016931516809847,-0.61263604898416446,-1.077251620666696,0.50943213013078403,0.63998783058228181,-1.2514902147634563,-0.40788698911993365,2.036924886879774,0.27077395386248132,-0.72163359366742641,-1.0361293485245511,-0.63669412121149904,0.49337305569044482,0.13247380590567898,0.2699367921798671,0.057635800009859149,0.31794866291880469,-2.0108099093479721,0.52506161962807618,0.49396748946365221,-0.52348563191152475,0.67920572378136501,-0.18124908241530949,0.68893631264248134,-2.4377919458628594,0.50095114490409831,-1.5844770915945343,-0.55853995842861426,0.049674326527768112,0.20309229140475285,-0.027299819701742362,-1.5784716672057075,1.3614847065931315,1.8622312414378048,-0.26496944036397341,1.6551181065031537,-0.34651519339242642,0.73562909034815915,-0.058170840471451352,2.007502856492648,-0.75451892309005419,0.4773411697001263,-1.081320686784661,0.98852915336787817,1.0701782273563851,0.79551186167821109,-0.68161850333119367,-0.78097620005903556,-0.23125822256612091,0.05837853481159299,0.085136824607422237,0.70503284268328426,-1.7628535733877244,-0.57737599749895741,2.129858312414608,-0.69567571260087802,-0.29940893385226341,-0.031718688167314907,0.34828810968509932,2.131901434079277,0.17735243955417776,-2.3089347189009435,-1.0742694129009445,1.1638389026729323,0.41316277694016268,0.31898190563304607,-0.12213146536613671,-0.41286653758528746,1.4530674178399836,-0.3747414663217094,-0.47332524227343248,0.92200257996338231,-1.4419463800728183,-0.47943318201444723,0.14002677598878177,-0.45458515123241883,0.27973521537197671,-0.18424072781900558,-0.054872747219468082,1.1785545939721402,0.46698857149591644,-0.63677763193772352,0.10112041466408855,-0.49914807676516315,1.1955840418823136,-0.21928110825729197,-0.60869108774750569,-0.54964137876515706,-0.73872095390197956,-1.0342525114967387,0.66162066708844391,-0.61092238173615421,1.5529114503478179,1.04357724638128,-0.61186847580825043,-0.15799736116701932,-1.0226877826367866,-0.79205969136036269,0.1484801404978737,-1.5603994547759457,0.18243336755797571,-1.1027011152900366,0.23470313310440979,0.054434546649425146,-0.97031219070296126,-0.7377887974392735,-0.28626591018206038,-0.58157611014943189,0.68325199250895541,0.39056257504620245,0.89187975667800157,-1.3166426095365609,0.23596319024646858,1.5135042095249822,-0.55459777446781788,-0.67256343911622685,-0.62486425917063337,-0.23939800332366926,-0.68389271594427059,-1.3065614271614376,-0.25951177809797815,0.3305775848939394,0.71551489659722534,0.42679626018216538,0.76948527286156487,-0.73244167335811894,0.86074560389835864,-0.10917553811184734,1.5534427381796394,1.8215351471760441,-2.6085910098069947e-05,1.1590299084581146,-0.77718408177555265,0.017627228715848191,1.7085350378332751,-1.3195215798199671,-0.42295346743077272,1.3626642481350038,1.1387925802134282,0.1945600478324217,0.3004765035936553,0.42351618231968186,2.1099923969547669,1.9050491186192888,0.82144382992078901,0.32208323890244606,0.1681083506814825,0.97944562108326627,-0.67037390048975176,-1.510900011970528,0.80961260126975587,-2.8126525070719439,-0.78175012231559016,0.32366458198432796,-2.4030539106799691,-1.1516980810053645,1.5378328400010115,1.4307232295027976,0.14945158393111063,1.4187588379054079,0.066091001996873677,-0.34380061755393976
0.81146799846439288,-0.55149443751338223,0.42475617207608901,0.22080501808724731,-0.1215826153723915,-0.49918654841607885,1.0622288472257722,1.1745186647967669,-0.24468457325804158,1.8127351212613216,-0.80729814711523551,-0.32735238181338117,2.2480158531622094,-0.42276990348765425,-1.0125944560318694,0.224832556636204,0.50314375896705144,-0.40414759372225662,0.38122338794790783,0.69967283805475156,-1.0916413614407499,-0.8816687809946302,0.30792443350518706,-0.98998050495767065,0.3045847423296083,-0.099151406533860592,-1.0534645456678424,0.31065479834169868,-1.0196454794720964,0.093873213750727477,-0.15696122314380856,-1.017996199805117,-1.9498207923262263,-0.21635711023056589,1.1984052193839632,0.072035036777305994,1.3395023295257926,0.68709303114992337,0.24305289491521606,-2.0669819827334304,0.77619625031389006,-0.90663474993288218,-2.0805697267558565,-1.1626692067462618,1.5174297913824488,-0.27871430046666007,0.47581034551838325,-1.35636819923284,-0.67106569910974745,-0.11359795234903745,1.2832446532933173,-0.21920974835754811,0.27717299963960007,0.27271030504411764,0.22399814799364168,0.37518011250808969,0.52395931900898707,-1.7886274315359365,-1.4500251651073399,0.97270642477062519,0.10862355192403046,1.0352645448672528,-0.63695476172156251,0.54467935481731689,0.99023482468568313,1.0790001713572697,-0.095312828483302317,0.21413442874747637,-0.66868216666763136,-0.62928202897031815,-0.61098436383371002,0.66683512027241898,0.53247802804728306,1.1498638776184094,0.11189546458230497,0.68746422626407733,0.090935554401803231,0.39898765145550497,-1.1130496006623785,-0.28502935496953224,-0.75581915455587378,-1.3358637461518319,-0.97989836023967725,-0.84763486773966468,-0.49134549372215913,-0.64295261468889298,0.42997587238162505,-0.029951264250544576,0.89442948199763805,1.1257068929517453,1.4733633864131377,-0.088469946349830852,-1.3183781150567568,-0.68419984562638403,0.32534801249837314,-0.53693722525863585,-0.57991072137013155,-1.4891458606238996,-0.9036330890940969,0.79549959695102912,0.050689642339711981,1.5709168750105931,0.088808028794523416,0.58997005482041343,-0.42568037773633588,1.088184462742722,-0.34033004416275053,-0.99851990187212003,1.7580097651943627,0.57500966564642353,0.75894418628088056,0.47829954108743983,-0.29395632217464013,1.3825437837624523,-0.35324473561758923,0.84930375667622737,-0.96308861120188727,0.21710331386351009,0.55227799985888237,-1.0906055999603077,-0.33666374263600407,-0.5012769546737561,-0.25127347050516524,-1.8087909368925255,-0.52507907483187355,-1.2729137438832159,0.48217352825367904,-2.3938818774561446,0.091538182022251613,1.5061674766651805,2.4785435459841634,-1.0421114282759292,-0.7385962845319648,-1.3308161937579728,-0.45031756887394037,0.95523728728176427,-0.21873258732485984,-1.8265455423171144,1.7205020657664718,0.35841554759034872,-0.84463445082615141,-0.23552419699567853,0.67869640792841279,-0.20198450383083269,-0.38054992298412205,-0.36989635873690924,-0.5223204715480364,-1.2506681119280134,0.77376998501446104,-1.4102884728807055,0.83374593055013291,-1.4959188934332976,0.88138257467084202,0.39726544332293817,-1.5841560701977475,-0.53291200077699163,0.14798873637231078,-0.95519682563644392,-1.7787133827232893,-0.032815452431591154,0.34554504339153291,0.98802474457840483,-1.5288737822935712,0.92337707232989186,0.41982533912888476,0.16433619624948692,0.45037127328774684,0.11625477049433842,-0.32378228534208364,0.4963033649477312,0.58500298206915535,-0.44064719435074617,-1.2008264049683495,2.1201306583624802,0.18553703001213348,0.3141334852772239,-1.6136827241719227,0.06070744207383718,-0.11888887029975924,-0.85551965225801518,-0.43596015961578033,1.9146506329262583,-0.074840707009383889,-1.4991922444619414,0.73516111417563079,1.1385548560999228,0.57348630685183422,0.062506021432753217,0.50402442241842005,-0.85398549033055482,-1.3354224134253441,-0.23103179361645443,-0.50769503558277485,2.0307707896307123,-1.8693973475178427,-0.056393950159079984,-1.0791679841036141,0.3035446401742421,-0.57962151763313285,-0.6273581478492567,0.6069908932307907,-3.9305049511641008,-0.20401103552626687,1.6774285173144861,1.9174453581102371,1.1333394483055772,0.66837420252605828,-1.2329058354467237,-0.62811511010383791,-0.46430555621928177,0.10980303847980352,1.0829771444437264,0.49341829790163139,-0.26120962947081977,0.30020102464492743,-0.78025444462745364,-1.2924666790096577,-0.01602556799765836,0.81989369204131968,0.23714459986841832,-1.1965937324103779,0.251936374397211,0.39637410952580071,-0.13780601860212119,-0.64435398497447183,1.0801741819018327,2.6295462538274879,-0.82537461139985224,-0.26843671015573611,-0.83183625115039794,0.84852968378895566,-0.33311243010266395,0.34048066176722042,1.3084374851983596,1.7593187243997399,-0.069845585426545231,-0.34140174352471092,0.55330279047500708,2.0532392586568919,-1.8395748444891828,-0.49379019686418951,0.10175471962398935,0.18305379002579072,-0.060042152394217146,-1.0132655155485248,-0.1171557446701717,1.8980842250873635,0.71607392314747009,-1.017139692818037,0.062638071856525215,-0.59219027452520767,-0.16673125212373446,-0.95497306792019543,-0.30629212354387858,1.1678135011372961,0.39058186342641354,0.46130103913782011,1.015675763186108,1.0093542352945499,1.1858498699879623,0.53266977130559579,-0.38487981277875016,-0.43667216668820141,0.44228702392574981,0.79243757647929891,0.20084376330870193,1.165849344629015,1.3128557606158193,-0.91209297694828828,1.387126345549847,-0.43592366610257055,1.7464433274452076,-0.33023123315935399,-0.33196145901169849,-1.0924022927167663,-0.18894151110433413,-1.0913285776151829,0.58946223455824298,1.3608973163026177,-0.082917798425097805,-0.19523632668725485,1.6143959182683445,1.178632902025704,1.4179688029936919,1.9090919809985596,0.020167588301828694,1.5283980505670363,-1.3798653328485653,0.35101642716433185,2.0769298879147886,-0.90088494972652111,0.66959179668129454,-0.1224396930502849,0.56509950213626037,-0.11004762214275375,-1.0482774937970474,-0.56005910019055938,2.3193671792703427,-1.1417765667102211,-0.9507521702121654,0.87264438525544263,-0.50513914428842832,1.3234471612323579,-0.82332607517882861,1.8002662919158452,-0.18327141549391879,1.1462226602515884,-0.53925628087983191,-1.1068582165551677,-0.84241207019468045,2.0439016254446067,-0.36886815699084902,0.57693518057712478,0.39517505623478777,0.21083601652130687,-0.36315511035211617,-0.44208306689486943,0.60075876730531352,-0.69187155201322237,0.33347670712409372,0.4387393714535664,-0.40177209468644659,-1.3321313169643654,0.49320122359046342,0.61275520125387239,1.1888706052889237,1.009729018096698,0.66911570021528477,0.78798929831440967,2.7774704177564589,0.11399122454410641,0.85261631740684363,0.073347010558813278,0.28820180008050594,-1.1343236604860407,-1.1641881422983094,0.31895102991182855,0.83376715042672256,-0.76693883512906913,1.2745396585876927,-0.1951923449565108,-0.34755355400112525,1.3698771099037745,1.5062599361452982,1.455856354878363,0.54708451133898794,-0.474161580646009,-0.90451480986434596,1.0372079963810197,1.1056647399392545,-0.73772786400612012,2.047271835768131,0.042696139228046305,-0.070687761612868688,-1.0041307944838656,0.65558907312025516,-0.36130191439172915,2.0948079805374609,0.6039613122255062,1.0479912135453817,-1.336664747432853,1.0203160316714019,0.86848303944770155,1.1106141909552132,-0.21682238609758445,-1.3159053616655347
-1.0303379665592709,0.34289426688769242,1.3062980793125811,1.2255561851670413,-0.98447998808044213,-0.59644117596368729,-0.088726819791383194,0.74392981929516178,-0.83327923489037958,0.21807965849530431,0.57460765449462148,-0.52447301448936712,-0.73325283500694682,-0.64844885051569912,-0.29668915452669736,-0.32901347795234726,-0.36105632960231138,1.1904682009524439,0.41134544841301363,-0.35394079162826569,0.98430839595706909,0.27835234220542926,0.79381118602950373,2.5041609583823132,0.12645359463398856,0.10669646171800516,1.3025602374302843,0.44329090866120563,1.3120435261454371,0.56895638212483557,-1.0619540502433564,1.0107078597963708,-0.40259206826439109,0.70218882964857077,0.85395473983494075,-0.77892955595729996,1.7137849057801371,-0.57826375393839513,-0.41133621138332838,0.45599537598796025,2.4063600112816084,0.47350101662369132,0.93473334445751544,1.1927897625664958,-1.1978597618255991,0.17403137491934143,-0.31628177818170555,0.93442267587124961,1.4670118052835999,0.35624886022857916,0.36773339060031163,0.568916839754667,0.005241138179694428,-2.1229252537351555,1.2560994186480527,-0.69520184686891962,0.4091825354360924,-0.68840335899379423,-0.17267645057791928,-1.1102219776388524,1.2466738175198835,0.71246776876623286,-0.45901687003434832,2.2684117578760579,0.75177802824817075,0.24991873167540127,1.0044340183626195,-1.6296324227871586,-3.7754026936174565,-0.49094669253503287,-0.53455007555465694,0.46950019317617703,-0.30451455405965167,-0.37316680651204326,0.13368062531429201,0.20292327703620705,0.048227322812927291,0.95363953192024609,0.63246402723863882,-1.5772469376600797,-1.9758833345901661,-0.1906749988812777,-0.59250753779152787,-0.65593893770210721,-0.6085636331693115,1.3004573181903121,0.615205941424386,1.5371256591630122,0.014576547702725073,-0.8927342739854871,1.3751043039700359,0.22296284065051972,0.71153350472039767,-0.11715051930177207,0.78344896012872778,0.12632577742467624,0.94786559049946106,-0.65108291302826737,-1.9846269822719294,-0.46987371596560851,1.1880157562482292,0.93810759319774151,-0.65230063350707101,-1.1805813378929126,0.99456366796241036,-1.0685198477810485,0.5689122792940563,0.75186879027412268,-0.90377758724897328,0.40472906763231808,0.41468501222620596,-0.019555911889816962,0.18189272642245066,1.6338379341502856,-1.0404475226551904,0.7742637505728549,-0.059122166314802369,1.7579210682163391,-0.67772672808075574,1.2397803309407289,-1.5428286119524648,2.0817434026002291,0.92331905100991307,-0.41045380673619225,0.58291131742000935,0.31443400313141512,-0.093013188348761336,0.32079068350224543,0.019299585599467997,0.058350612049142901,0.22740072438474201,-0.7188451263485891,1.3959106340507419,0.41372722506450549,-0.23242679853512063,1.112760194779514,-1.9038850918120109,0.5239925038111517,-1.6511941098052461,-0.83736438667860214,-0.53470997668778808,0.029136601785929885,2.3736407639617818,-1.8755919134113115,0.94432304083424501,-2.0059422094548731,0.91591419095489535,-1.7979182895489374,-0.36348187812892763,0.1633872851009423,2.6400543427985603,0.4998409235411323,-2.1592763069615435,1.7947901709039962,-0.18177141129839836,0.1830239728772976,2.0758882928716895,0.85666747547952182,-1.5119321528973555,-0.52595537720988239,1.0182956061421333,0.4467952722446028,-0.89816293354424515,0.42486394509369696,1.0614161664381065,0.29166803932027674,-1.6785115013980509,-0.51955608753264559,-1.5680526595126809,-1.9376155873972818,0.15471965060179776,0.7141307990741188,-0.35957038254744933,0.456583788253696,-1.0328723394884058,-0.2664025577841127,1.8854822244188361,-0.32766714478153597,-1.3558819109450944,-0.95844653315161166,1.8200164241273065,0.91603949247052374,-0.50018537449939027,-0.077090262600078382,1.3658716780437143,-0.64987405443791724,1.2784408411511432,-0.75752068481580837,-0.016642996521911355,1.1298133466752205,-0.18779618762758726,-0.055170761879932424,1.0757517001837527,2.0421581028219857,-1.8709726965093409,0.15670185462769717,-1.2496009600995643,-0.69065161449754786,1.2405191833206337,0.23163946817070855,0.87986540769429367,-0.59188717262562518,0.68102976678706129,-0.80304793264526342,-0.26352259845589354,0.8660511659133513,0.22922232981570356,0.42030837314830588,1.3192815965253992,-0.14960914611191131,2.7537251962791238,-0.1362610695258149,1.9060957800592859,-1.2098220621038558,0.47201347573517827,-0.48623696647805642,0.49443321823709058,-1.9810261033093051,-1.3652696831409323,0.5806623510416189,0.044010837324307016,1.0625974247051881,1.0983547070768036,1.4641074322242453,0.53086435448488278,-0.43788741648367047,0.42568670191010244,2.0032515465435972,-0.012918158162083063,-0.19679512985682554,-0.8915932794352478,-2.132491060936665,0.074246137807561424,-2.9351804496370901,-1.1190491153679121,2.0612448870976174,-0.097489186938331279,-1.3627575011583617,-1.1037348712550383,-0.83085146195662807,-0.53745344769417047,0.45422681523380604,0.95161669187665843,-0.41308127064308109,0.49159653822373861,0.28142131238761875,1.1054830101777535,0.57497281974737136,-0.4789146689604929,0.43527509151182014,0.70052514689567258,-2.0668050910623035,2.1737986096540132,-1.8009299942099191,-0.92206439308246302,-0.28964057009323019,-0.3392733237327728,-1.7685327721600546,-0.36344179760594314,0.35573208407249929,-1.2608850651122374,-0.37848188484131196,-2.3865952382826205,-0.42691326055441081,-0.32861805218695778,-1.024800592202151,0.16542242712830083,0.8736153316283739,-0.11393739638067785,-0.18718557213270576,0.58001348382066675,2.8180926963078594,-0.50048097837977679,-0.72346198897680114,-1.2707426870744176,1.2392925848088603,-1.3034637137519214,0.21898802012714727,0.65095478036362731,1.2109782756788683,0.21697589874528372,-0.76290964115155169,-0.15448957235780625,0.8818691702490461,-2.4381066155805011,-1.1082951687025795,0.5037617560683979,-0.64124998619394091,0.62306904359625503,0.76687072097420483,-1.5647420486296488,0.86933267505030709,-0.37244909589489567,-0.14969395599599755,-0.82908596300562531,2.2748951676355675,0.051351169418403328,0.38979314927966302,0.51886789769793995,0.5692026255886754,0.58805990652111806,0.67264306229041837,0.62889982117323273,-2.2848550266711629,0.093433518451361469,0.4950966722214124,-1.2384363982470639,1.2099918522926527,1.0706087408218223,0.78848159668552598,-0.59698831242690509,-0.92267695309912434,-0.32114784226160031,-0.42037824952510977,-0.10856924218632322,-1.4926203928959851,1.2066137747047012,-1.7596006513351883,0.67050869129306634,-0.60418434322998582,1.5992879890044869,-0.14504018996633888,-0.786240311142411,1.4300563878219021,-1.0724612876874506,-0.20512806859540711,0.85233845485624471,1.8847474107446225,1.1815602497611688,-0.35046227868021301,-2.3484410354279017,0.28478013708852568,0.10074130533301301,0.27536868964891825,-1.13554815124348,-0.16899437630678935,-0.29843072742128018,-0.10498817942919871,0.32800732586996911,-0.61597717039158995,0.42037768742442339,-1.5047058679786294,1.3560816371979152,1.1788302649280933,0.67974706163469056,0.040059764586711462,-2.3880564742429971,-1.0524103107237328,0.38204185903583088,-1.3621652473639025,0.61913262400439051,-0.22135504584131083,1.5716766535429025,0.076066809221249365,1.6723583309497825,0.29801939001265781,-0.50451778969383787,-0.17702602182601165,-0.33582944890273708,0.655751348344499,2.0409917498530676,0.88384595135278732,-0.37712101772250833,-0.046413573829531339,-1.239757968170351,-0.45139664629743825
0.32394158718354898,-0.55021589728386655,-1.3344374632170461,0.13573138453654476,-1.025323208062588,2.0667607698352146,0.033450106566796874,-2.184995664910419,-0.81601689167641389,-0.58529169685127747,0.56660991423919127,1.4897013458621298,0.55445619189907225,1.0189347166116836,-0.10591875515245652,-1.1208680181955151,0.19898041029357019,0.27391986025339354,-0.67440195921317747,-0.71949558395182822,-0.45668507402841052,1.051245172505193,0.66589563600276214,-0.78137324414899112,-0.099847280305236361,-0.13934501117986875,1.0364541862799783,0.50430123309928987,-0.57112299528900956,0.034151156915087778,0.0053208935801524106,-1.7024187405129014,0.31665475291228418,0.76043486725281872,0.22042340415116865,-0.13561230425629694,0.38927014857192621,0.35820180211840924,-0.82685514769244595,0.23300670536492146,0.16642293314247444,0.73359052530022684,0.4618673259088133,0.04604192173039643,0.1593131023507163,1.1961519446367497,-1.2648300133633645,-0.34653457374667246,-1.2296761484429739,-1.1651740758163751,0.89599840570927214,-0.19380481207855094,-0.56384109279893602,0.088302221770167888,-0.91010913744217536,1.4490244668658439,-0.73151366849684984,1.0785328787522941,0.10875526145988183,-0.96695193406876845,-0.1135676892251358,0.49316084759427853,-0.084148487496330693,-0.52583198599454473,0.37765715423310509,1.1030028400544014,1.4431323980251718,0.68238815547998621,0.15143148955996316,0.87009114269690202,-1.1669751807418942,0.33801472816478756,-0.95800382918533999,1.8798662591051918,-0.39659591845081238,2.1411963425904057,0.022451193853185936,0.96432282507540401,0.12060103130783062,0.039394009116602444,0.34352882534882501,1.5548771440478359,-0.24178181152843561,-1.418693086374998,-0.17521703431611377,-0.91302207490376297,-1.375786830872844,-0.77861728266593067,-1.1794555959856312,-1.4271304314914113,2.417887044380524,-0.45498401215959478,-0.80590958277468727,1.0625531109520054,1.4351501557901531,-2.281957017489308,-0.25394621288330005,-0.51145067033583569,0.69050193910956659,-1.8771962507552173,-1.3508937419102991,-0.8566528760830846,0.97306528786402102,0.036357960303138655,-1.7250050500852707,-0.55783294934384431,0.23971926064221066,-0.34097763023669431,-0.48433977824837504,-0.39896224377977485,-0.33995946542593741,0.32834942154117014,1.427083092608302,0.509427195586172,-1.2341876313728892,-0.45945305137646281,-1.4379257691615173,1.0069596724229908,0.13408773603136581,-0.13621929616885561,-1.0336119043209313,-0.82385956291076812,0.63793036522701074,-0.3543104742926545,0.6793756044310576,1.5682583830037333,0.3889750103050808,-2.1017282394542458,-0.37957904203324266,0.81317386379101742,1.0429834496603487,1.6006548585202738,1.2144833036505058,-0.67029743180952661,-0.19983217725685004,0.44794102433941402,-0.0060326054308649816,-0.21069906962723775,-0.44836765287090907,1.1859762039779507,-0.42632958850204017,-0.31200821106459625,0.034244110355938162,-0.83501081367042795,0.8933349220633553,-0.92651789066984946,1.1287198831615664,-2.5183352936504813,-0.093635050895987809,1.735226588601555,0.95264460129096762,-0.37736338541668107,-0.42970323476876682,-0.68339207274981251,-0.24228088353718172,-0.14602200797652148,-1.3232960839123937,0.51248305023791019,1.1674355981488989,1.2152080146654514,0.67708655332115619,1.2541050728348233,0.34213707176456254,-1.7008278095345757,-0.38929581526972284,-0.61769744519186887,0.34968030770829323,-0.19977679609673435,-0.24543333826890551,1.3981986190672941,-1.8151373866871332,-0.28518100664219137,-0.12689102805306032,-0.77652185047198208,0.04132401450340803,1.132865871868197,0.5664019062400989,1.4801802394765258,0.75766506071359341,-0.8612223150746775,0.91063283179292942,-1.018010397568371,0.22769180264210051,-0.3446051973456441,-1.6543115719639687,1.1386323213641139,1.2928140355121882,-0.76173304994005242,0.45469051567732327,0.31601534714698681,-0.86987044098384436,0.60806642312644865,1.1012390730682182,-0.040664173268968561,0.9356020660819987,0.9886875238671593,1.2973018396762126,0.29812758562188307,-0.42724255040423081,-0.11941961693729812,1.1382307432383609,-0.27951349496016237,-1.1758345547086337,-1.5007559406765698,-1.5436100089926121,0.40178968930134645,0.7112680162691869,-0.22071181460191955,-0.10726715255347583,-0.7266959697531179,1.0831444890181501,0.54750014588982687,1.7803630374896058,-1.0543374512690626,-1.3934716484731475,2.0929149563728116,0.21634785304884266,-0.25085784921968551,-0.23497973672252589,-1.2045128923930946,0.9351998898667947,-0.65386398661400602,-0.81221867328770991,-0.88727004583934277,1.1651018115935832,0.75857680568442221,0.67156610377632975,0.75792494880377104,-2.363084619860802,0.86632772569723593,0.55198147579475187,-2.2979753148642672,2.3032435244207887,-0.94297929441371797,0.74880757451930791,0.47989718239274287,-0.78939092154195056,0.76064143824617958,0.57378747722882373,0.90693817240144248,0.5159409460056934,2.2170206192670285,-0.216531539744684,0.51280828683909596,-0.066618228256310308,-0.9271587292809329,0.70237368813506829,-1.1058622433622047,-0.40376805669936816,1.4780051959550662,0.62849380421742451,0.7642456316657763,0.81320036391483563,-0.010635690904429859,-0.77958679883628323,-0.87819564841003195,-0.30972058030309746,0.63292049743553502,-1.2139634096883352,-0.82703959776444902,-0.1375300659428238,1.1901821296153516,0.54403766673798293,2.5948107274265166,0.57239512221776623,-0.85012702917873617,-0.63105688845657182,-1.1348543309615289,0.19842286271201712,0.38303945976802556,-0.40281882936674002,0.1905692201732663,-0.27712468812340846,-0.22701870144966829,1.1772743549885447,0.88266953531262005,-0.50853638396449918,1.9462292896236468,1.7574669957627769,0.94703788073144823,-0.63237234051074998,-0.10853220386960823,0.72770561851007831,0.27526592707483749,1.3838280143355592,-0.076410465549855811,1.7151059811634444,-1.5537796140776272,-0.050946473080816276,0.894031780945164,-0.29488720701360643,0.68367204654116076,-0.92739386081949182,-1.9382577358232391,0.16013451733190848,1.2806507913645844,0.62019079380104847,0.14502998667492784,-0.087689996019408162,0.68399578883794221,-0.58270885661185889,-0.14620853996616864,-0.83346477065489455,0.97866830401958116,0.79200951127922237,-0.30728088111214247,1.3613287963224658,0.99153179140747205,-1.4854476599557356,2.089657917320463,0.82771596950892179,0.55844020123445459,-0.48046211940875411,-0.99907952425468871,0.29930780195593815,-0.47105230407625215,-0.08523480841440155,-0.51683518343249457,-0.73808628568967427,-0.10924966945359499,-0.59288874857623863,-0.56292889493020071,-1.6531994980429436,0.08069666948805243,0.52713179575196212,1.0285544658386181,0.093814475843702283,-0.82130789846780627,0.19484754154701356,0.27374999910294584,0.17687481399111843,1.5781428268879867,0.030001655528254983,1.9187151971532799,0.077885851718215271,0.92161095546436678,0.33510002241532871,-0.54473599555457619,0.3699912530691114,1.2297300802219553,0.81881722831713544,2.756194361321064,-1.9143685686737746,-1.6246660955197745,-0.191932868231763,-2.3847463486705385,-0.7991207776436946,-0.11843530387222734,0.27643438687627436,-1.1366384768022477,-0.39954455757133772,-0.81450953852050034,-1.2879424999620332,0.46110177600508151,-0.31316316093975677,1.4374882511437048,-0.78732293365305417,1.3145306364301852,-0.79597102691104515,2.0907137091150223,0.28194805142788115,-1.7369657288959943,-0.44663414606242346,-0.34987594949923073,-0.53821348326971274,-0.36875615548999885
0.16434362969204391,-1.2427320803378867,-0.42343817280958951,0.37754453650739817,1.3742527621796821,0.6534589515838447,-1.4709326569907986,-0.24724501684280195,0.082830400146731459,1.1264602856337482,-1.5243441286058654,1.8839397824913329,1.1354272255907329,-0.5661588266595371,0.18042221598946037,0.45507729283543819,-0.041533455933774811,0.37284434344701251,0.16997238516670221,1.1303151594968481,0.64906934986194609,0.087810746608406584,0.10357775711966107,-0.8355399028886914,-0.12156160475246322,-0.70377279566414641,-0.18426647015272155,-0.51214791150653294,1.2063175966756516,-0.13619122121501173,-0.10413183434986428,0.23318902969798419,0.64431129758357175,1.2958255223375279,-0.23425518514159807,1.3893472589925679,0.94797630242833131,-1.4048883621140815,-0.37003702218236645,0.34515176705325451,-1.9328122938777685,-0.81226994738665304,0.28838355872236876,-1.6964391694609735,1.1378816742408804,1.1396373564547104,0.66521232915675421,1.0718220350821173,-1.4087088167416322,0.44018406067860527,-0.12211126448180662,0.56466800397628003,-0.19770018183645258,0.42565374495934638,0.51495579363975463,0.96319794016153359,0.66730079719076574,1.1313999924820208,-1.1686030208878504,-0.4202751066410535,0.69233317189331267,0.0033200480439326114,0.48586469394634968,-0.26713184207953011,-0.46914737809516427,0.41848735811541715,0.628340142648524,-0.58207815553397046,0.63324883022750778,-2.6988231864630343,-0.60162024251872459,0.60565916264463693,2.462197296951425,0.99271811775699392,0.66591825037150465,0.13661653602471965,0.031142260196145955,0.79438095527727859,0.96420337062077799,0.65245240673950711,-1.6593028025620638,0.32768867806047164,1.0142222485015751,-2.1626599052937463,1.3692953406141164,-1.4604651365432573,1.4161266210662986,-0.89460124195884771,-0.20205941295755664,-0.46914618924187951,0.99482945582822191,1.3984478130669811,1.0692478008588444,0.49188575100109949,-0.27022433811684743,0.66484008185361565,-0.21873604549774367,-0.070887264504293709,1.500578721499469,-0.9309104747621868,-0.24960545880859328,-0.7170552329168659,0.55980504811618614,-0.28967226583225553,0.6419289683842121,-1.201447253414262,-1.0299460694427238,0.029508691311772868,-2.3024899167606114,-0.83741542281718018,0.00095540994847099494,-1.4968045110141166,1.6753166994394779,-1.8820259407341322,-0.93980038220998308,0.68383287014023231,1.0529311478222865,0.74141186716934304,-2.1130520990373274,-1.3536543558001188,-0.2011630056205099,-1.9311138226191036,-0.47151290499966897,0.12073457553976844,-2.0967551567079341,0.31551117996915673,0.31973171626657571,-1.6941998032498862,1.2447528062837692,1.8871871197536021,-1.1610191918453754,0.56712071627330518,-1.9703427288984772,1.429758449573352,0.65282915957819831,1.2292303733109746,-0.28406133735234262,-0.82837184606559799,-1.8834078755103338,0.77771382621874807,1.4828982337451686,-0.37705119597348608,1.2574592124255917,-0.43791723639959301,0.41373664285959622,0.93650255118146231,-2.1573286809679693,-0.14205744239895596,-1.0380864021551119,2.5923541564085157,0.28384580965828937,-0.65951603415913296,-0.0030776939391085776,-0.071958320056439137,-0.38815569253255722,0.17570262104869913,0.10508157851036237,-1.133668070513373,-0.77207022781607459,0.0028658219153177341,0.25096205694235707,0.76826218561588677,-0.46746397506773352,0.12423955788388219,-1.760587139676697,0.27748826041935071,0.42417852272807671,0.8071472314136614,-0.75159659743613738,0.39792299437664125,-1.7799915744768842,0.39814103927385608,-1.1388213036706978,0.12183260857321306,0.61009114727786151,0.92792083811433568,-0.8946107467217963,-1.1636177399673346,-1.2013515932206151,-0.87746670378744807,1.5702648074197725,0.76536808310215554,0.87902967671865162,0.70670181979102331,-0.82254901797390523,0.42479896959137931,1.3373599837873476,0.21748118846450892,-0.57054369535658267,0.33158138993721908,0.089002414138104724,-1.1366577969238665,0.50938180818719025,0.73618500562665512,-0.08108241484831448,0.49933843846632714,-2.1248622582317491,-0.99638371985278673,-1.2910909244809896,0.021723354280930904,-0.33335570358133987,0.57117027402376741,-0.69364037318602001,-0.87286926639720686,0.040332302975447008,-0.48195724464621309,1.2451064029880463,-0.025243648216028348,0.11055647085812,3.0999620563576005,0.062782317846440325,-0.47456388346255246,-0.49613013862822475,-0.82035976965936463,2.6461520760044808,0.089043095276784431,1.6841292973928916,1.1250057277934735,0.95299161347059991,-0.02873610579901539,-1.1877565614876162,-0.079554033453976658,0.9322455743350645,0.90168487206342984,0.24469430056826361,1.8839796913147926,-0.41982454961065852,0.82041210013967547,0.096580505622517202,-0.1843943750123489,0.04550162949997847,-0.44173042217218667,1.5083075889602329,0.55622704580712923,1.7826837915716049,0.29800593262170683,-0.99897501375370779,1.0155718956741215,-0.1614943980424754,0.11210333396315689,1.7711277022504701,-0.26276786105967848,-0.35091000909369052,0.3705972852420788,0.39176023893570838,1.5159364303406038,1.7794122718949974,-1.8885041136328349,0.96947477195777365,1.1044806387787673,1.4090926717790502,0.66482905234911793,0.76965481012382975,0.20420134601513923,-0.3292102313173717,-0.25076343794735706,0.55528892975238731,-0.35338721247072596,0.60298403330220252,-0.56894356003842395,0.64799044123824245,-1.3416954932588372,1.4930750617425543,-1.4304160014812182,-0.90878392371014549,0.26130492424988649,1.4085204278900676,0.52031634831960194,-0.23350515232799224,-0.4029895926811819,-0.29824826849180947,1.015948484729462,-1.3987969474971143,-0.68794661021154213,-0.1604759593920298,-0.36641504383860907,-2.2413068701922838,1.1448589374487079,-0.32055132298981026,-0.30959520572181221,1.8880523229360995,1.4392898656916535,-0.54649396990597421,0.75971311257944807,0.00042237342098314372,0.00066902132700003708,-0.24116175755794289,-1.4955817577620951,0.70106393496763331,0.29746574248943286,-0.93138480795631351,-0.33761128727799566,-0.1986280312870243,-0.94314188069424831,1.9368783809481207,2.8047333538290014,0.087093154568289741,0.49964922352262076,-0.71571293547580717,-0.017975186794772197,-0.036287286231064371,-1.5351106259013665,1.6357030808156594,1.5706260169464599,-0.40462603018191157,0.66402271890149889,0.80634393860224052,-0.48779603590740195,0.39124585611766832,-1.528324561903027,2.1246755812948899,0.27355075488637415,-0.7258055490990406,-1.0257218432277548,-0.32901702592112453,-0.32222173908364188,-0.35822648318163142,-0.98785723166883366,-2.047485768684794,1.6012981148348535,0.84076305647462879,0.63432123332079349,-0.21649978585061694,0.99666135316352411,0.15970895153293441,0.070828280227287946,1.441863237495725,0.91253665462585998,-0.0047722552187617704,-0.5382424531581016,0.10881567408473419,-1.2199765464865497,-0.45801513910937619,0.27337526998425693,-0.40121389332450363,-0.35541207781590556,-1.5503114909705742,-0.17190277614325772,1.7692332469070831,0.40947929900828939,-0.5226285643768207,0.36423311167350819,0.56465497513840113,-2.0491459060560362,0.78333810139790272,0.042848893898487721,-0.088933184640259136,-0.98408384174904295,2.0899010444761124,-0.18415660991735636,0.5964605538543668,-1.2893663639922972,-0.34572476364452376,0.71228076322098799,0.91349379882880077,-0.44867794305128034,-1.3755075987852043,0.61767125588154825,0.67957464102853771,0.92311093070471417,-0.27084181908568605,-0.11291898646993838,-2.2735680957445346,-0.21436983440295551,-0.91633188457637893,-1.1161750880469254
-1.0697702112261245,-0.039347998202710656,0.6795953540529629,-2.0525453519907595,1.0749181125355434,1.7107529181849184,0.77341916250731713,0.25642479652215067,-1.7006545095640186,1.8388211402552623,-0.21715804233207045,-0.28294242164301814,-0.37956808897331074,1.4160117492489608,0.48108359716654575,0.22192489740469312,0.22679659547083725,0.75649264303514796,-0.58944179414756248,1.0307085526612607,0.93059958103167062,0.41495578580141979,1.1004676740559527,-0.78317450560144031,0.95093460952625863,-0.050027306540345026,-1.4463959827492678,-0.58652236307688421,-0.043927588490325901,0.7304845072361027,-1.1846471936431326,0.60619135485023845,-1.017537016714037,0.25811609112370892,0.75820331111929951,-1.2665980439853577,-0.37107626965981294,-0.33651510487665709,0.72188131616644857,-0.62821160181124791,1.3381766781712867,-0.75806392569824199,1.7862502624148413,0.18334717494971015,-0.055200794404637113,0.055033167328197109,-0.56224967037419238,-1.9171763083837208,0.98586826508190628,-0.2650646026053094,-0.34024604057857016,-2.5676414428543435,-1.1867412793982519,0.54534409688014429,0.50536587901058927,0.64176159521277165,-0.11266113682229544,-0.47312133935765754,-0.83647525156251001,0.51358345792566185,-0.55491404053991245,1.1288642406559546,0.39771785280527422,-1.493618959682957,0.058067804166265127,-0.31010469644883754,1.561359027987925,-0.42166590767475487,0.47273652009143841,1.273029368568467,2.2481084136557485,-1.4487574289938483,-1.4531022772638162,-0.033425207945272109,-0.90991734231387444,1.6104558385713588,0.83218993484667436,-1.3953008626128542,-0.54406020840097646,0.61779431108545491,0.86024930035558045,0.95035758983388974,1.906406068648582,0.27232388831359067,0.12379708063986292,-0.36177753577677246,-0.37728563808603072,0.64973616714234594,-1.8097170056346741,-1.1630145666342011,-0.44195582270699874,0.4306702885515547,-1.2127294332953866,1.1612076426581823,-1.3662109610122897,-0.21667934294683858,-1.1304848243778729,1.5878322013776371,0.75526500155678866,-0.23821899838692409,-0.80997624104969834,1.4814731443534837,2.7207128858160878,0.3850970771723724,-0.85097003907025437,0.92426978556113148,0.2219673521741275,-0.46526945683375209,-0.35116065581255351,-0.32097985717746663,2.1027960193256798,-0.5446033690963954,1.7366133794466601,1.055833445859014,0.25716803601079319,0.072424900961292532,0.064053997131975113,-0.63041248832861008,-0.033107923655493969,-0.57850824774960441,-0.45386324119186144,0.26989238669163779,0.70489855013961955,-1.1195260543676708,0.40842705483728942,0.23133321947913696,0.41648535054952363,-0.2021470280107743,-0.77121941499785729,-1.3221418497691833,1.5929521609123465,-0.068037258722356289,1.6801708440552674,1.9543723048303321,0.12164820138596157,1.772525051559239,1.749880257055725,-0.79624198048069394,-0.23557674272785029,-0.59696731141561565,-0.45598993268087945,0.69982986171851158,-1.0156098431185221,0.84802125877698675,0.54714440801045716,-0.039897858488363108,-0.78420649297914513,-0.25983290738655734,-0.83151589925250091,0.74026354924996607,-1.7260186397116242,-0.15998165973830514,-1.0466256951703461,-0.50345220304121885,0.31251925208789916,0.52894223835491005,0.20950382644787827,-0.54997196950117666,-0.39047550738789921,1.2091701916840378,-0.91756499117281187,-1.8034428099361681,0.95460683436283078,0.2706712373640191,0.89786936720698107,-0.76154191121027182,0.73965317306460265,-1.9616458663298841,-0.10202985855558448,0.76696248303512415,0.32766561765024083,0.40878541214594732,-0.042652324849464532,-0.67478806388162826,-0.34402004363444483,-1.3562083227930566,0.58578608420920686,-0.41355835433414539,0.91148558335479646,-0.48357271850558853,0.91418823457845322,-1.6995056570079246,-0.076370475912500582,-0.41434404226707711,0.82360579249570176,1.4707471901651497,-0.24278046092337527,0.26859918397907451,0.10843380620936303,-1.780895947431536,-1.8196671628761012,-1.577549983569636,0.62610215406489389,-2.3442209067543498,-0.13826273935044803,-0.23246329212551423,1.1237303960833798,-1.1052752244233983,0.81356394410813415,0.17172958485550588,0.87520631084627776,0.32958780650224589,1.7999400846551257,0.51987850186398754,0.3394586410045724,-0.41686622361990439,-0.42127472035377778,-0.075617654200295634,0.27168387518844184,-0.31154732468906998,0.51378474652200967,1.2084217045047243,0.48189092921976917,0.071146072136753807,-0.80850313468629953,2.8540269320668616,-0.97283556351059053,1.6835546908486978,-0.86899975474868618,1.7772874498525097,0.08277303634353439,0.072287351292113958,-1.099719279170118,0.46204703843905648,1.206104599415488,-0.33293105717685867,0.56114289225708314,0.39435062314045533,-0.12168028604649785,0.21447668892109203,-0.35315571164266402,-0.4454167835237714,0.094088336084599988,-1.9536619857219621,0.010916241275135491,-1.501583559612806,0.20639786952870701,1.8521450718702384,0.03263691037382227,-1.0832130925741437,0.57509220304552144,-1.634339744348378,0.51778700943634193,1.4250384414101391,0.51304274407421002,1.6571095686467432,1.7563582243624565,-1.3041734884535088,-0.64086518068503551,-0.021510863183867562,1.9126642871562114,-0.38541158147769744,-0.36152509436782787,0.50232022592812908,0.6287980184467834,-0.95025700239444433,0.29955670461282791,1.5181237859467365,-0.75257249279317329,0.11824300858782058,-2.0502761743382791,-1.649453917888835,-1.7094926354843676,0.89704980871766138,0.0125949833321436,-1.2893180758503326,1.734723429057315,-1.5690055487415171,-0.079026280877996777,0.54057123878465696,0.093090404155554751,-1.1954609865468717,0.87811809055361523,1.7276287227531932,-0.050837623824704768,1.1213280776940233,-0.076477332338200463,-0.82887927704590958,0.17746423136955891,1.027315082133315,1.2074438606069666,-1.2684125784554932,0.31860268804371711,-0.34837582390984767,-0.96862792340611348,1.4698321011624484,0.42331612855892925,2.4018646932693031,-0.52325387770478604,1.2240814139573155,1.2499029089498654,1.4610994994473248,-0.77785969218319817,0.19464655394886865,0.74561717051530163,0.62067545611140684,0.81572303761715459,-1.7880413738524539,2.384928780202725,1.1634269456711395,-0.015987160323761431,0.7866736524784147,0.30648561829422694,0.099383333764096748,1.2937483625241248,-1.3404016135578203,-0.9275469341202186,1.0195113636910924,0.018375352757593274,0.58033407956521321,0.80741868019423757,-1.7725329581292117,-1.2663707130820807,1.0749737358852611,-1.3063107383851251,-0.91445635078955723,-0.67584843460029531,-0.41319830355486109,1.0309506211529476,0.5138935763128708,-0.42049720725747719,-0.82398823308908342,-1.304414981373955,1.7218348562581134,-1.420105894940485,-0.97845404748826525,2.4475897316670792,0.62865621887448597,0.072344666510956404,-0.67531738838162492,0.77330940570882856,0.58790934367350467,0.40844737430840133,-1.3714107033766259,0.041163896153801401,-0.28520463748563069,-1.7955834622849651,-1.1191766883980179,-0.51512064714949979,0.40778150880083686,-0.36307342688773531,0.21293064452939051,-0.90125973773535895,-1.3929251341750046,-1.1195944599526768,-0.10796787918834648,1.2069997108373789,-0.38479324776761031,0.19711315267689411,-0.12749644982858421,-0.67235254774255715,0.137671996890978,-1.3400176863490398,1.1112821146845584,-0.41404288548846108,0.018483059201111911,0.22776864515199896,-0.82790588777701069,-1.3080141063226345,-2.3861109052585472,0.4262511669242483,-0.16100658287258263,-0.54991583377842623,1.4469217904112144,0.42342964044722714,0.88737115213286699
-0.2974663232479674,0.31727250049187078,-0.51900146063634678,0.40484030643391483,-1.2166210521432987,-0.83512948764066719,0.47195279946121771,0.48539426614743975,0.2683704825122783,-0.32739225030317254,-1.55713466772752,-0.13404594971921446,1.2792150481630151,-0.61577791616328803,-0.8689326992465144,-0.97752539199975907,-0.42019956329927299,-1.6152762438448252,-0.4543283442216397,-0.44130473051377478,1.5784256669190029,0.8018948802052781,0.16952540966111596,0.20566537229359497,-0.71797391555353196,0.37717820332624297,0.16060133419667233,0.16571846985233621,0.4402914662368031,-1.4666776331658595,-0.071055468832529625,-0.0028858812476263459,-0.61301164172497646,-0.98629996354963134,0.037174951768616883,0.26174881042631259,1.0594180513825626,0.62869964943957313,-0.056471847891588628,-1.002922274513963,-0.55322826344309795,-0.15379707860071526,0.41334352822374693,-0.46244194892458057,-0.095361379610666819,-0.9268810421329553,-0.55712224319242232,-1.1348220080348441,0.4246074403262145,-0.012571504226978459,0.4177199213635292,0.90832999155977379,-1.2648917238637361,-0.66799429854078485,0.68454781496780615,0.34056816913379051,0.52255260892567745,0.94509645545834886,0.14428789059264241,-0.21266497131778131,0.51834483505466578,-3.2523699931759795,-0.26834655422238535,0.57927190732761979,0.77506292319091341,1.3528449417140314,-0.92972430514264059,-1.1733578658266095,1.7279053806106095,-0.60834720888620264,0.23371905689018732,-2.0324369132538078,-0.69610585248737644,-0.21822520435448428,0.41816569236451134,2.1098066659775658,-0.2213562057410208,0.88414653498881923,-1.0149209192977757,-0.86898721373257504,-0.95690963659477191,0.54338414591775663,0.17405190343438712,0.90656428128134747,-0.91554029001824644,-2.1344458471480388,0.51185041767944306,0.45100537432463939,0.88707769332063158,-0.27403702834786592,-0.84689789538017246,0.56442469445319721,-1.0168150342976565,0.35106153757761405,0.26105523742187736,0.097142405327945949,0.89991442869174498,0.2124299331155641,0.41167129811473113,0.32880545403988221,0.27781534563058358,0.37573298956523771,-1.2168684247920905,-1.2060153738663728,0.047492186424209833,-0.45612344491504708,-0.12086978898065624,-0.35056188789489523,-0.074308297728056305,-0.28688614944568019,0.3056829152659325,0.36671038560893143,0.91968334427179343,-1.6343625674999758,0.78052507857166298,-0.97933475164309958,-1.0677467766111106,-0.31593763050781609,-0.25771363163267824,0.26256000929248552,-0.89273065110739891,1.0415523535888818,0.16110463608725217,0.024813010797848419,-1.4323301094266072,0.70198080566898891,0.44381770455998842,-1.6281293887911488,-1.2869083828760119,-0.62839741601094012,0.306507023110973,-0.043405863226991546,-0.5530633194031942,-0.1643463992068023,-1.8039693666727161,-1.4877291991355444,0.019693116775858669,-1.6287940408378683,-0.4193114897870181,0.92782147038062812,0.33463690783290245,0.77412378005616989,1.352378393863672,-0.46762480797843059,-0.97667058092315928,-0.30343110514443977,-1.9158159741230329,-0.56515979666310434,0.92685585853526753,0.45450780450398093,2.8124478074135673,0.22509364581701399,0.78267296115517149,1.6133374743108133,2.9345308746357275,1.6965697580297321,-0.037322147110010917,0.44072712355054583,-1.510780829876649,-1.3817813417479361,-0.34712340692882743,-1.1760628906316772,0.459893038666703,1.3701815451138535,-0.5359184745627924,1.432157458956359,-0.67991342204170346,0.55971982630484629,0.7805367833217004,0.46379667169658723,-0.10717626331272702,1.7075018018860073,0.39234056424597236,0.68592447416723079,0.44479730655791078,-1.1905149297514008,-0.18948726481829126,0.95119746761838653,-0.39850220860573393,0.78006703041248104,-0.44223095391207662,0.095122074667396292,0.22750440278387335,0.36115913248710335,0.84708710604565129,-1.1366098133140297,-0.26968272082045308,0.98862104829264519,-0.94716673101029369,-1.0280322922933631,1.5570179077120312,-0.41899657703658943,1.6594738671725151,-0.40078466761983217,0.099431296242751613,-0.11657648994866709,-0.72945000146376027,-0.24449689244062087,-0.27837442986796607,0.97447005472121229,0.41730783204232835,0.53942009721191198,-0.26177398699985743,-0.0077008382715483504,-1.084297618462279,1.5727340501642111,0.85782649513068532,2.2025349811043324,2.9979142687200357,-1.5723260973895645,0.87568335494973826,-0.027048515837690724,1.0714691912181298,-0.53220121460654091,0.046932457791042125,1.7761250339197356,1.1556523104546097,-1.0146702799041143,0.33776608618784426,0.11884013485801925,0.14344231299038943,0.5126006834197615,-0.13752748632696812,0.12098766960610695,-0.58522833926525097,1.0676186020748648,1.3562733206058837,0.70235862035335683,-0.37379847653753201,-0.68839889126032061,-0.14318371926913226,-0.35007664407318495,0.76726631570780957,2.0614740984709465,-1.647808766697922,-0.99276609667931681,-0.34262241255884518,1.9580691057636048,0.25963826771788145,0.27130843298571483,-1.0112101614715356,1.027386279124813,-1.2892856196657458,-0.30962237736566017,-0.77912903914215614,0.050442927798075916,-0.91933726775225155,1.6009230580952094,-0.0017280935143630172,-0.57948113265205259,-0.55312967176421157,0.063813330046273931,-2.4179423975816592,-0.44686850750508955,-0.59007466974222078,-0.61050319973679101,2.4401114627778666,2.4987370589621873,0.17439489891783902,-0.25348586961191266,-1.2099918815401687,-1.1405116276917711,0.63641809895082313,-1.6719787529607955,-0.084347731549926752,0.071551217182124149,0.83315334607643088,0.58491628075668844,-0.034226693115418226,2.1948069274743949,0.72204212575408278,-0.46275573454574093,-0.37848907023836686,-1.6838253869296282,1.6220982665271624,-0.26866822057185841,-1.0040780189408116,0.72272018721981846,-0.72770461241852125,-0.78973396719197941,0.24581230930778158,-0.71045966146246509,-0.42519073668015911,-0.76012038336829635,1.1917511099771299,2.0704026361676684,-2.1451997459108281,-1.1015040285684912,-0.4251725236173598,1.0205112553894071,-0.038515542431250251,0.5190982151358946,0.12594805370481268,-0.020546791816131012,0.96865826805115207,-0.98295391660056441,-1.4969095756540129,0.54911950712021207,-0.092918444017835736,-0.65580134548302293,1.0286690407779597,0.37331599969618928,0.99261125768392322,-1.4478372493200982,-1.4443263243711233,-3.8872000385382397,-1.2308509885830268,-0.03693191240037462,-0.27136819629244369,0.84111204829693886,-0.23074366493682222,0.99152376196007497,-0.92152984599683441,0.73125258105463753,0.25584187941540248,-0.4488686974995949,-0.80479161170673907,0.19957218161456325,-1.5672118856422927,-2.1441573114561638,-0.42518594552927069,-1.0242266414714283,-0.38251020380977435,3.2024474544356316,0.40559938333678047,-1.8613108012887483,-0.68171116300312085,0.16957045632668796,-0.50056795328959736,0.32348390430996016,-0.48139577733921929,1.4061487863106559,0.19068684529808447,0.34419512041939365,0.32175820476101091,-1.1821697832249325,-1.6352883971054446,1.2576855527188944,-1.3827580316983279,-0.54984286741836563,-0.52979445973547823,-2.1129317305357191,0.20031158194969187,1.0827351668640093,0.6852337950075118,0.18864729731169341,0.26643440951973496,-0.21505741427920333,0.090247619173755761,0.45060641184907968,0.039238255301330738,-0.024145249111779239,-1.0746661292038622,-1.1831178336986627,-0.45643448402970516,0.010823942024515872,1.0495467498102993,-1.2144230064677248,-0.093090944297286163,1.1298754900203627,-0.36733993861879322,-0.72926096837624865,1.028355173936994,-1.0549309115544736,1.8438880840853167,1.2344834622574377
-0.65208462712416404,0.80791896570213062,-0.23024843362055281,2.2640848196607117,-0.9522324420017918,-1.4094261298632782,1.6682361270051083,1.1866640984090648,1.1319987924198918,1.204238222654695,-0.041114505881847847,-0.23757048464091959,0.6267054099507402,1.9901154633014495,-0.41476385733478799,0.46313668033758648,1.4351675656233274,-0.81184562178346564,0.68472734494404308,0.32284996204445859,-0.83363708475318865,-0.60881057130277194,0.38339813140938889,-0.011752103620357481,-0.87164008547456839,2.1335916327258326,0.480483359364198,-0.058782896964165485,-0.82318213171305765,-0.72354803685398383,-1.9347021301467504,1.2190050338958816,0.38149423034407592,0.96632596126034198,-1.0997778460020331,-0.88722781354531999,1.0057053159172338,-0.38746761763870918,-0.46703275945311945,-1.1558678792287258,0.97691693337463004,0.28584744932719958,-1.2461767523770175,0.82907521654858918,-0.84854718673282437,2.2887312326873692,0.78119960613745232,-0.046423974351908627,-2.2202437460759654,0.0068988758534701232,0.53056650345839995,-0.37330399865948638,0.82673454323635365,-0.29124644361722857,0.14638185990312394,-1.63073919132307,0.10172545672272475,-0.63422277764670054,-0.33703384035296996,-1.0909584972417254,-0.19646091084723946,0.9001570589550929,0.32916607232182332,-0.6392803085521046,-1.986046394090708,-0.75204384709246241,0.62691667362906389,-0.85361837264255014,0.50255638689488114,-1.4473654421341569,2.3126817874041317,-0.86854076194774577,-0.0024393473822744431,1.7120599905776008,-0.40068301934404088,1.6321964805227629,-0.95647486119562608,0.52003801772477865,-0.24191091284159796,-0.68633450012261799,0.048766736436312921,-0.85658665239762566,-0.43748451627180923,1.3087240598342016,-2.1728874779772247,-1.46751792691811,-0.85324888799353882,0.036925216193678841,-0.4772025314370355,-1.7497528861534537,0.11933719071039392,0.50784234111868043,0.19719510019164221,-0.10070955052639087,-0.027877159937259706,-0.41360225534390443,0.58905309537596973,-0.62674091068403393,-0.140912842482837,-1.6872009731139892,1.2669748928329989,0.32140637139595307,-0.20574289216169295,1.0722322862700393,-0.95016783795256365,-0.38762851219466016,0.89685288140056951,1.0688081407117045,1.8575253542848911,1.1501633920865348,0.99607773088726892,-0.71647567471978668,1.8760187628459495,0.034903449997003282,0.69241403162466597,-1.2026168947015277,3.3755982377967855,-1.1356591617959866,2.4829362848059553,-0.36605331368025162,1.0605623788141914,0.28480347764435149,-0.082321458896050262,-0.62267967837227578,-0.22302797971588134,1.669774531888637,-0.89356667845170634,-0.052207037044856588,0.54288383414067576,1.3477730887562005,-1.6491763832410107,0.084440465685665336,-0.71968371790217422,0.10483830902570668,-0.42518272819696568,-0.89824399399278376,-0.22733983568566291,-0.96930674917039417,-0.6972094850899756,0.42739375488466586,-0.65433811355858917,2.1325309968396082,0.31980382277905206,0.65238971569389137,-1.1616725234438474,0.5852375625873506,1.0484220701155593,-0.46119052402108962,0.23477876011399035,0.13136995706790766,0.91251967763552777,-0.51497755982316984,-1.2001007994644073,-1.5058807899081093,0.70682223245575437,1.0286193007328508,1.5884192055027191,-0.76820660981841982,-1.4703261669959569,0.036918416873873171,-2.3694082558938447,0.01978905612729364,0.10699337582362717,-1.2052606809350532,0.042084749990961616,0.096862335636764343,1.7134458214210839,0.33126155623803671,0.37084969786974636,-0.066357796078493028,-1.3973752043362493,-1.3441550679185923,2.5499800172005647,0.25432539676102661,-0.096503154594430027,0.37856468835477058,0.42112525817369639,0.34607749610167621,0.043967507131473189,-0.29718770493832231,-0.77151011453732499,0.26909192072195226,-1.1036916851110945,0.71005592641010717,-0.021542386747252004,-0.8314944200832709,-0.49787385063137046,0.088362973779559525,-0.046005698128360473,-0.13292203791950469,-0.02388800363702839,1.2620977367825073,0.20404676756099566,-0.14894805588957705,0.17007699041283145,0.6816358954855567,-0.23741993281298104,-1.3556044353789676,-0.64888297398706385,-0.93867536573857147,0.47296850408188568,-0.59074788114158439,0.29267077081550469,-1.1297547312182075,1.82803823437129,-0.79017837365350763,0.08913282485400166,0.0029058183813407581,-1.1025873104741875,-1.0968312825653628,0.62142135414074218,0.75243142014277797,-0.00054604851046523523,-2.3595604293233552,0.39744132469909826,1.8211443837376149,1.0001769614498939,-0.35212399903408698,-2.7086137287361791,-0.34370057644068885,0.91346569610445461,-0.074444037754738041,-0.31488706637823111,-0.8429516038762096,0.62152621446734291,1.139560606249207,0.16134813736830717,0.6585688345031967,1.565457050225711,-1.3048826534155886,0.48945207650223044,0.65725119136191912,-1.0794326308495239,0.65644974340188456,0.95058484894512196,1.3872943795033219,1.0910098390635037,-1.8838865519316483,1.5009714911008039,0.10467887219056131,-0.86455995336638181,-1.9963873483375529,1.7308592163216101,-0.16002016734143401,0.57678237176707792,0.32520322384439199,-0.23205215838349705,-0.31545553191914311,1.42253204306993,-1.2561562563178634,-0.12063557392926047,-0.59276058500989304,1.6653114685573944,0.054796368654948094,0.29125132589276947,1.016166561049179,-1.6186337279701601,-2.1901901042083729,-0.035726958427968934,0.71036349449108038,-0.47574878233919227,-1.0080224126105091,-3.2187194875767394e-05,-1.1110572156448408,1.2668774940536778,0.12647437171342779,0.097761592219727855,-0.40550818967958641,0.87010356052941351,0.28743052936258706,2.0557060413031913,0.099658046394602171,1.5287507940183265,2.4760392666306386,1.1397132431622752,-0.34248222820854601,-0.82198417583376615,0.45372039627574412,0.13351418873611359,0.080718624089074639,1.3443758955974809,-1.0249231118359228,0.14821228361283903,-0.84882368148829179,-0.054600343117212603,0.30012055018298628,-1.233790567728819,-1.2895387103932296,0.19656669975844787,-0.21718253105927834,-0.069930893396115856,-1.257854148063275,0.38614511870362778,-1.531460435226224,-0.76234762296537628,-0.89465211236225051,0.9870773041550065,1.3868893364423025,-0.36704538569341605,1.2716925423818846,0.57046694108239659,-0.98481071628739747,-0.053606469742852839,-1.0893730124537992,-0.34230269252970058,0.93227278270403002,0.046361911871186108,-1.6293861358376549,0.37456564882507948,0.024528357704668775,1.0667644575751576,0.59971763914422804,-0.42872461434473719,-0.057368829713643085,0.73956696778343112,-0.37798543025325254,0.60422558633685897,0.29858938942592989,0.72253025382728553,0.78884924781373889,0.78484504594039506,1.5391400259840533,-0.8269638473991946,-2.8560262308274487,1.1530779540319012,2.7334499108543397,0.28629102596242889,0.5862072246988157,-0.73679343472888348,1.7593793730454141,-1.1856793713621947,0.31090897526028333,-0.34738615274029011,0.83005054217128482,1.7769228815735565,0.9927001806256992,-3.4366885864398182,-1.1750662963480956,0.40800549907591094,-0.56052098899693115,0.74874897172717081,0.91731430155320492,0.19395750664958991,0.22970552724692386,1.1808296713552777,-0.99662303335346381,0.11472507571454306,0.0924081492885091,1.0743822049083238,-3.1074609911814566,-0.67811747292338009,1.2785360452719374,-0.52405483623259597,3.2015849156956393,-1.3034889105728289,-1.2093167164588141,0.32218779015091858,0.011256616911038186,0.038174791353847499,0.13689232933251433,-0.16077830060050219,1.387147010862837,-1.1243045081260972,-2.1110687405457242,-1.7151749657226627,-0.22897323360893881
1.6475630473344918,0.5358238581476279,0.24340371459144872,-0.9451297449170839,-1.1901713797959952,-1.2546507281384307,1.1023198252450266,0.61471439086592694,-1.6718637151501119,-0.79508738837729187,-0.73649176976033004,0.71796000883016986,-0.52611476522033684,-1.8803082874592454,-0.73658154479822679,0.2055040492297707,-1.0037039463579118,-0.24063924387507346,0.91508424710024716,0.01057136821504198,-1.7539515891778936,0.19487221959625411,-0.40799553873733435,-0.37179203901777491,0.10757344374111946,1.80085043344665,-0.41268122219061243,-1.7266265249647119,-1.1257519013784842,0.70666518081367879,0.87226896961515998,-1.486443334747086,1.0455501989433398,-0.88014691369824161,0.69823263681525138,1.4277780385852026,0.69903754340740987,0.90079955948759161,0.16689286960661268,-0.45902024822378062,-1.7910892045978724,-0.18297948337850092,0.75755286128657295,-1.5133458388037573,-1.1198775921230542,-0.35087106245181132,1.2825034137701006,-2.3402799210801426,-0.35848077246657656,-0.95693473525550488,0.52069166663330579,-2.1782001848505139,0.6288426878196588,-0.7092340425638507,-0.29289241070679867,0.55315925771082552,-0.15061233597878501,1.9746830244310793,-1.001427963248374,0.92857523239979667,1.0170889294646401,0.27651407935955458,-1.1024023232827913,1.0027374656999315,-0.59030265786552394,-0.3686472780738827,-0.69018390580113642,-0.21162238812788367,-0.92859742740393836,0.56558160914717071,-0.99399698138910775,0.82968566200252458,-0.77367489507648324,-0.86587371413469283,0.16918618015248055,1.1207480516826793,-0.52660390542159885,-0.31121804951877369,-0.13180721907042392,-0.79331965640737367,-1.2939115277736,0.35014649683842169,0.37046799385755114,-0.43793421285215667,-0.13425894368886823,0.14786704273040924,-1.5681375168917175,0.57121720593405922,0.1330812072373081,0.61995039514024175,-0.091111798811061573,-0.20747883153099445,-0.51495094102385686,0.85319088928181053,-1.7783435713466629,-0.57452042195207409,0.23592562141188017,-0.9780126265237612,2.2884308435495329,-0.34888196744609318,0.47507944937772278,0.74295755732808555,-0.57185757893460309,-0.60520172609247402,-0.74228262362990871,-0.39699520037328484,-0.8605877171681493,-1.4805911335650692,-0.2684087375237722,-0.23139633100847132,1.4829694709868313,0.30247658760538582,-1.0521317343309409,2.3119217147532711,0.3048142077869494,-1.2642105648050128,0.82870902062485174,-0.815601636013781,-1.2215078222662368,0.56731935391893795,1.1248021074611918,-0.18307670606991028,1.0036600861844458,0.1983944358053695,1.579152882389633,-0.52647335299187681,-0.89653238047017403,2.0013165597875902,0.66342449567136574,1.2512854183723312,0.32688355247013623,-0.42254636439212379,-0.05039987164185749,-0.18792666173139544,1.1293358813792556,1.0258007483806364,-0.48837232801915076,-1.4353804714507727,1.5286043216199743,1.1915668434311137,-0.30871798166181857,-0.25905490335869696,-0.43458727708844008,-0.23376041857071828,-1.9993548163323849,0.57839753378126446,1.6970631389555089,1.6945945725352203,-0.70258979590592274,1.2999599705243643,-0.63961728061982637,0.64439933973210328,-0.21223806043773721,-0.79667294878480188,-0.56951365227116169,-0.73181394932046551,-0.095824591491091432,-0.45829560091858362,-0.35852357207748003,-0.25913579593760006,1.5087820819357507,-0.232099674179546,-0.5015205981942169,0.57684909529082184,-0.51383126871859663,1.7267939396765131,1.1930150083332389,-1.6268557040692122,-2.3193686338366502,1.4309952958671412,-0.70053984430263927,-0.62724232389732082,0.077250981015240125,0.062626448957328357,-2.0897292560725242,0.54686886357519582,-0.96309682343434522,0.062658737740920678,-0.32631412473083149,-1.0151440754424668,-2.446653888780197,1.7346329458956027,0.37533251905674075,-0.48265036265335198,0.11864366025346228,-0.75411807783137774,0.015520109894720257,-0.9434444736967994,-0.24115510660056189,-0.73333908239982493,-1.3874728173821007,0.34378510431997822,0.26496727551693605,-0.074703268860944208,-0.79026253153517845,-0.78622147326007108,-2.0518549849161167,0.078873629465982351,0.21843429684049628,-1.4121361377128603,-0.31073664568004727,0.052267423218683343,1.5919472776622199,-0.10413017086061303,2.1844830234432457,0.96897164753763876,-0.3347170938236772,0.31820097312256601,0.41877338569528805,0.38960296786878751,0.46451588781561221,-0.54864658210240647,-0.47156705995851417,-0.2850423937623644,-0.83647211147224443,-0.62734678785902154,0.83231698268583787,-1.7674904214870542,-0.84421907667363993,-2.4258622819114484,1.3025710476046397,0.21945278412543304,-1.4632115246049016,-0.44814189049077291,-0.46264215380754437,0.32343099502615752,-0.93745892277785192,0.95593596422666838,-1.9276237331444819,-0.86391645199332157,1.3811237665430147,-0.58048046428469735,-0.9890196702049453,-0.36084567597399542,-0.79283472155549151,1.0101129457988036,0.79729505291334946,1.5070805053397363,1.4796936513471401,0.66195199947101058,1.153328103890005,1.082466272543088,0.1287828297342917,1.0614271074443828,1.5875765222751383,-1.1644524548142137,-0.15839258261082081,-1.1765354647659592,1.0214249068357337,1.3341987441522216,0.86974892569846596,0.78374495560330637,-1.2813719270768156,0.26578196026800133,0.50515715704051212,-2.050319001275239,-0.70478107822728586,0.44258693548254263,0.028722824843340308,-1.7469747054011093,-0.48034881194637985,1.2903424410961797,0.75814219897476309,0.6408190835178228,0.97535442010222018,0.30146968042962424,0.077263792442734569,0.29160694294498501,0.45095848296984653,1.5633993084068749,-0.72328907851542912,-0.0044001401650400739,0.55180696032059817,-0.096815527337327914,-0.60805271443962605,-1.3555293793573258,1.3979881865205566,-0.30693745194767191,-1.1864311048328033,-0.72841337269105522,1.2793807998146907,0.37892631500762819,-1.1976353796810635,1.3600587705626643,1.5534646879703813,-0.13183826153919298,-0.4604059422288303,1.0940426055809553,-0.56175117431454202,-1.1787713690655803,0.81900961962671837,1.0910264465703112,-1.0224898114451952,0.42210782416713666,2.0403855298059663,-0.17928351554657365,1.5419667622179025,-0.76147833433334389,0.20979025336562948,0.77558178584018955,0.51186849103231657,-0.55223108588313807,-0.55042745996661768,0.32238412754665369,-0.065173438490441785,-0.10997212767443043,-0.88167702498518075,1.2168182391894917,-2.762638665778149,0.51322783674492378,-0.60111250350372192,-0.10434037801816688,1.3024462776802344,0.15110375192106476,-1.515012112155623,-0.57230704754144612,0.96218028351646978,-2.5402201472243826,-1.6132973817639638,-0.64226231847387705,-0.2380042417891913,1.9846201083356618,1.2857303395973936,1.0472886529826162,-0.55615903221943541,-3.0534208836115657,-0.62730948712460477,0.26948003714844998,2.6312977836348654,1.3658182943698913,-0.85855721928968576,-1.2523497041680698,1.0054181676396257,-1.6910871778971612,-0.29439303854116516,0.26719711411349445,0.19487188463155572,0.8347612959480285,2.2172561650207734,1.4814677058395875,0.45387251656023103,1.071477069529396,1.0830050387413215,-1.0995556484812317,-1.2759562946768264,-1.2713779150782023,0.2997694502020728,0.034002510135748461,-0.46096922256218659,-0.97052292329469614,0.39355710981246039,-0.18838978737003034,-0.5244337817004654,0.94917275788051225,0.38690818270584681,0.07359691315612632,2.1824671984470392,-1.1642456332779882,0.65007124681504691,1.1730782227062575,1.2100881857421877,-1.588914220354732,-1.4328600349532541,-0.12208856912539401,-1.1831890942594994,1.1838147052433003
-0.53074795881914927,0.92864467180825594,0.4154320377367714,0.73966813312896618,0.8794924398023346,-0.18287225283790215,-0.16661630943524663,2.0922191604768177,1.0059433304055712,-1.7893378364045311,1.776109230360865,1.9068658097229565,-0.19674258178260351,-0.15317728369685901,-1.8473900513666099,0.80266265507276935,-1.2455163167030097,-1.0543640777653851,-1.1950975458852013,0.3568938837349328,-0.44016324600040219,1.0871913546133578,-0.030624329885133014,-1.7648324321499556,0.21711196660224741,0.054506226192115703,-0.78873023522584595,0.6778023080031188,-1.2620782471988787,-0.75056600556480058,0.85238991780570472,-0.72430986201260217,0.16365169984846081,-0.8976755460564505,-0.84093269719422514,-0.95998024627430933,0.42396107313369119,1.1546753356827089,1.0960693395516281,0.095360680861814942,-0.30758918125449003,-0.23454479740860573,1.5851656606797988,0.47170282699974569,-0.40311163539746436,0.33497498075031928,-0.094033553101013329,0.17826517232100322,0.44510319790949626,0.85993766470444633,1.2812234689101112,0.15684503049651757,-0.27139384316487725,0.78305809561034989,1.1379435137776726,1.4301272537843968,0.84908908818217665,0.69440739665689621,-0.5383564496757024,0.50975927110233432,1.1675565352962882,0.32208756569533376,-0.68798452259807263,0.61759198686469086,1.5255148032550647,0.57116838064020803,1.2238328432952381,-1.3717308122286165,0.41247285546810758,-1.8767014813365444,0.15121768101523639,0.055615879437524017,-1.0216233017341372,-0.19252639774215122,1.5131380222305788,1.6475265650687807,-0.94572779755538805,0.16884456852506896,-0.66928339658705416,-0.59559648116163955,-1.2908287774140164,-0.64284984806597834,0.095994776972379264,0.61247193312421078,0.80394803521155644,-0.8414968217104789,-0.88742793761134442,-0.6154075236364871,0.39887829723702134,1.085479693473173,-1.1515041050249333,-0.27562824272180558,-1.5854737964255941,0.77088511021162343,1.3159721465992866,0.34216866928168471,1.9696863497603496,-1.3860506778294031,0.632181739597234,-0.54859787010322048,-0.13990355045785138,0.40952305577428172,-1.1044934167041482,1.8724106928621922,-1.8265303182123265,-2.001159232273761,-0.097853241026740173,1.4135414510819619,-0.58688871867553061,0.071260216324764009,1.0561297399099951,1.4046948218229003,1.2914822647870736,0.29022898200248348,2.1389160536969771,-0.6763323391295204,-0.1763358615640839,-0.41215114867561664,-1.6260111214919628,1.374138634106145,1.0980667289058128,-1.0342777582748777,1.2489551892258923,0.040107618482501356,1.4638865055375079,-0.40839605918686261,-0.24348932272408427,0.40241708310780494,0.26943188113426797,1.307625817297573,-0.35096272458042094,-0.68820278290343162,1.543277981276914,-0.41688787126232463,-1.7970759144625155,0.1660127673971552,-0.47130385135152569,0.98218932602860631,1.6598222445340034,-1.908404525637831,-1.4857947861791847,2.7665722652154949,0.23309790468430477,0.11335969725676566,1.4865577020603182,-0.45153586821972802,0.28706156818473416,-0.044899309478982047,-0.5615130800656859,0.87213239802020626,0.5001124507609912,-0.78211950062697422,-0.77501839088014968,1.0028705170759853,0.012289176742597795,-0.10616615831319315,1.1047502737370567,0.58085757200897026,0.58804405582311303,1.6467010606802677,0.41474478341037041,1.1676010732517459,0.44730189988896596,-0.59862132445722405,-1.8123052209922152,0.31682256226118677,0.03331910098504251,0.75884343419896438,-0.47599310044552756,2.8856159776630341,-0.22888097252136946,0.034010474878993023,-0.20967317564261459,0.70710827595958436,-0.31129029458443852,2.5694788833606559,0.42405696132416498,-2.087138303393449,-0.6243966243136797,0.13941853351510167,-0.3801033346791588,1.0582489289701733,-0.24858436926252425,-0.14426084313713894,-2.3173237928232542,0.50299844989597187,-1.2835567442851781,-0.32542327226099443,0.7999920295823485,0.87625554860450905,0.28253847608753618,-2.5187410217076263,0.82371618484766251,-1.3209310520621229,0.52274306295659601,0.3347920186181656,-0.68223547927193906,0.1638835169267352,2.0264451985961069,0.00013819011186086107,-0.23724696572970758,-1.7471299904092989,-0.46457648228081089,-1.0856836860943699,-1.4013072816762626,0.18332818342968862,-0.52835296979414348,-1.574060678317369,0.56889958549840702,0.99887829532883177,-1.0233015005667101,-0.34091859427731142,0.025839120951295241,-0.74247499836725206,1.6662534117160963,0.87003762695035081,1.2561956028649359,-1.1926609591876252,0.35196742718472085,1.5542229064196931,-0.60795431659483579,0.0015325916418800398,-1.1758473557969547,0.72820815187801913,-0.2715497898623711,0.25593946425621039,1.1051249802460201,-1.6068192113546389,-1.0366164364217312,0.98464187619644272,0.091489203969480279,0.79419079163979966,-1.609081797026455,0.28214351655694664,-1.2993963144993408,-0.21048680723559302,0.29472859989911859,0.13099557356877187,2.8318235412716164,-0.75751880025523533,0.19156609164165267,0.16687452436956632,0.66019980926428035,0.080988250876881912,0.72296956271711654,2.166644550079718,1.6528127908073107,0.31045085707742343,-1.1076723608860428,-0.14232233872750907,0.14995824630005686,-0.36286525334042741,0.83546247585765476,-2.7916486987624771,-0.53364361145390471,-1.9784851027030765,0.70294985588242032,0.37686165719331438,1.1240127927528536,-0.061584699132868063,1.36297689941478,0.43524134249317964,-0.69664763044327604,-0.83581607898493193,-2.1213413046370682,-0.15633477454992437,-2.1838711035900991,-1.0097886354263672,0.45826137880062662,0.87679852890838006,-1.2904576385442892,0.67217680940243452,1.1833474333181131,-1.1934072937293045,0.89733943639958946,-1.3611499446353075,-0.24654530209133474,1.4869928791766931,0.042398720229141977,-1.855889498734886,0.67022558402019916,-0.53853033303394737,-0.15279270739189638,-0.46530198336597539,1.7245322013120865,-0.50693639351248454,0.37779862577886331,-0.86580810099113859,0.48598008288054428,0.58276324779553501,-1.0446201775633157,3.4076865138429837,-2.6622229801761867,0.93558857552039776,0.35799269253068094,-0.018541669800790545,0.06270289548862841,0.69801176758745542,1.9504665013582729,-1.0030229352674551,2.2292852490541262,0.88936528241736323,-0.89327864337638985,0.30588804858857305,-2.0096277301507866,-0.50253124312448905,-0.36587121012086393,0.44391617922448218,-0.35314830091584221,-0.78662437236353544,0.55075627777358471,0.44551912362083196,-0.83773456925284995,-1.211950291775207,-1.0600045209074533,1.7286698353566234,2.4279961706343394,1.1866382675080387,1.3742607245809568,0.034280931240868437,1.1544902767000598,0.82878757300410155,-0.24360597405102757,1.0874895084637963,-0.68850968699964121,-1.3459367325208449,-1.7510617512422588,0.88177748652216881,-0.44034579112328454,2.1674163960953217,-0.47966909234284033,1.1384236800869416,-0.089396889550256139,1.2965697171684833,1.542505055166145,0.44476588129262346,0.010207903685243953,1.4557900879055592,-0.99319656634673203,-0.071637978617515238,-0.92725032465805091,1.6435022934549646,-0.83888028306889884,-1.3852252529634115,1.0634490208967513,0.49893335430362767,-0.046385515784685832,-0.011881015357255434,-1.0287241897593493,-0.38082488338218523,-0.65936544279118214,0.014439175620251408,0.84448758240007149,-2.8479768584526886,1.2086477935701332,-1.1661911213486955,0.088806632411101954,1.4137591690909663,-0.28060403090944852,-0.45974070109915488,-0.73584419352736841,-0.59611884978346441,0.39604221876182405,-0.17900471251457675,-1.79333874682804,-0.081254460752089697
-0.41305328753757253,1.3402966475618798,0.27611144624956652,-1.1351393392023019,-1.5446152974516298,0.63377844693074148,1.595318390011127,-1.5041784330536614,0.328752459838001,0.28821308252682548,-0.3840988468785938,-0.80358548918835693,1.7654530985012109,-0.2169978224972173,-0.27579435185791534,-0.26459331894282112,1.6194195103103246,0.11423112742409085,0.32746407364621827,1.4321096902643111,0.60683931327291507,-0.13192662635631094,-0.70735862535672933,-1.0638227498598947,0.60573204851718554,1.1729686851584959,0.31989858892223211,1.7851610303160612,0.36150553228921672,-2.5339334818634964,-1.7540538553893379,0.09201342065765987,-0.044667905051858692,1.03707182877311,-0.63796572834988863,0.34183366216604039,0.034551664842075516,0.64791928585539604,-0.42138896557977906,-1.3249913463828504,0.20332043481929901,0.27627794609404904,1.3011039317925526,-0.088704725083588495,-1.0108611847966087,0.38573045124080613,0.33153835960304212,-0.41458542365263951,-0.5447233368764941,1.1448800918067696,-0.72170784976041857,-1.5509673635708736,0.49342333516423703,1.0292344990069249,-0.35343824347361363,1.4876609490997943,-0.022208131450291099,-0.63209581773388268,0.89825302770261273,-1.1053593670908637,-0.6183517480138212,-0.42136827178739106,-0.61106154076805519,0.066416802073817227,-0.35540920641923274,-0.44276054415890287,-0.21994440355703904,-0.12526355409546991,-1.7776164992711085,2.0849649836766257,-0.0014038806782547353,-0.65865701140723343,0.27973188672981458,-0.77747557308241499,0.29754332087206009,0.51793720711512437,0.30777790275509675,2.5614714290361702,0.7065917706185465,1.8152704680379246,1.2045324198458409,-0.15523772555337154,-0.027661558596185635,0.7389613069490043,1.837323245368359,-0.2719355467183765,-2.3551805331905822,-0.40054487729715343,0.02726371823673281,1.3337683553508057,-1.651640802918787,0.61367444281656869,-1.1998023133646705,-1.3368658488098775,0.53469407652708334,0.01747484850506114,2.9852856217275043,-2.1278329354818104,2.3362038215349115,0.36313145860006457,-2.627494319635693,0.30283550157512906,0.41620677189636013,0.058698323990906603,0.5484327761633716,-1.1199324792655954,-1.087745636000865,0.84081859262247183,-0.40530976938019342,-0.32812562519034416,-0.026066048935274588,0.20867970743842076,1.9816675097832137,1.1679819108815905,-0.28825385839233525,0.48323324491344538,0.084176784993226075,-0.91931375437280549,-1.6953545109533938,0.33199845555377677,1.4436288910416271,-0.35479449011568437,-0.53945370213286914,-0.9454962624870733,-0.46785574351389558,-0.23701355372616947,0.28279862877430911,-0.41012378945092437,0.13167852752400044,-0.95235482583809306,-0.75087304894785933,-0.015277902481169045,-1.6189368574547447,-1.0248782190008272,-0.66664036104785562,0.47333333560874258,0.567156210792922,-0.72082379626434578,-2.1134346874097685,-0.035049866783000365,-0.0040611930087107147,-0.14204244510760575,0.63953891861469192,0.051196852622211644,-1.4405968522766555,0.8617906078395976,-0.40164129082711031,0.61970831520177072,-1.213863388074538,-0.51914311146902115,1.5259081008883175,-0.018655733610369315,-0.7447462573074215,-1.5733570301235449,-0.364196559033717,0.82001209187798152,0.60994387269512917,-0.90620933392916225,-0.26063829311233494,-1.0171613825783548,-0.92236348014663183,-0.2374789882509247,-0.40061027713128972,-0.61326466806292912,-0.29054964188184079,-1.635159083618078,-1.4755527534582098,-1.4891457553628606,0.76071112044036937,-0.90156202769519056,-0.80704051161699919,0.91368891672882546,1.4098663301247607,0.31078240520076367,0.063923640885473171,1.5427093083045402,-0.24553663641480822,-0.62544850195996493,-0.73743331143697433,-0.64073173674316919,-0.77605937934809666,0.58527585281383343,-0.36806215226091699,0.49108591794858103,-0.90242974246524998,-0.18031543924774099,0.43434258376086554,-1.0429149187623783,0.44453317487974708,-0.1880592784517722,0.212372275116779,0.65587990786222616,-0.13855639188047852,-1.6042949904423849,-0.60417858973362004,-0.69267658374327268,-0.15823979363024424,-1.4305184667533974,-0.78063075316132113,-0.40383553844521081,0.507023431517446,-0.15386475057307272,-0.9144637390367838,-0.30010343917564147,0.96333726737753811,-1.400460221930504,-0.43076424599941865,1.1711215804829471,-2.2662840798329706,0.24777021223412427,-2.3091177194148771,1.1208039663976519,0.2518287123234747,0.73024782904503882,-0.71614121835546762,0.73115805163154368,0.80475139102745763,-0.81517997098814332,0.068837423354473945,1.3342454042772769,0.46334722737113837,-0.59384560897089989,-0.22765940164282739,0.54422818197075196,-0.50995046523798992,0.90124735720501026,-0.89340017573672181,-1.207899568145655,-1.4926336183107083,-0.09752828484294053,-1.8097677968973938,-0.2285348666644457,1.0903368480051732,1.0069854451171969,1.3898645229218589,-0.52336773330993491,0.030671056723922376,0.23131452067539002,-1.4370990602174791,-0.35666166923738096,-0.96232230720513878,-0.35605763242072835,-0.053614650517369182,1.2687229596489713,0.70209853349489748,-1.0269306911962237,-2.1573503881139833,-0.87353061035120361,0.68682595462426121,0.80518222476147416,-0.96245911096836489,-0.1879847595839301,0.31900311677705151,0.64765680531042302,0.83166022667980821,-1.266160617571787,0.25972403101853325,1.2748123331845991,-0.2161113494681183,0.45109760771404722,0.87122094114106019,0.328291288324985,-1.195446821935831,-1.76886606370056,-0.7770052685448936,0.002846677241364354,1.4600977770256105,-0.90008640022062469,0.62443932100402388,-0.7372585391148907,-0.55841599169845879,-0.80824035523704163,-1.1722899677369483,-1.0821660673278923,-1.7975444309091797,-0.69336183190056078,-1.5504340069555644,-0.71508139246491409,-0.87937213942408998,-0.65350784575244403,-0.171158631073239,0.37609366337600431,-0.10597273013806828,-1.0645393008698558,1.33565900752821,1.4183849731040143,0.31249003599435238,0.87556251397560836,-0.38189033051226662,0.8291856689970728,-0.14170584479382373,1.1550710588765651,-0.64576070180581124,0.52212469918980664,-2.0914122958596963,1.0534625045660229,0.31364409038237506,-0.31312661994913055,0.44783397608115461,-0.32647651965523883,-1.0710733865991275,-0.98432770356637889,0.3748193721794103,0.66068676911909374,0.52012455694410464,-0.59736986785271229,0.14801923700710573,-0.62876044232822159,0.023717856382896557,0.48892805806895884,-0.512838614504733,-0.24130780426300866,1.2153879692644289,-1.5322043733534099,1.1902180792277173,-0.11115014407600379,-1.3059524178469724,0.66057236979685607,-0.42475786533498983,1.188318535556909,-1.8965077697956962,2.3316644936659783,0.38787430553101732,-0.5197814728989002,1.3648168446402358,0.32569705980733005,-1.0160016665402971,1.1765083652660298,0.32346272288191474,-0.49587721144633917,-1.6784734969749497,-2.2807262279509377,-2.750187426487996,0.25766264553038121,0.33224597835751857,-0.35068235113151047,-1.2532877735983323,-1.504907251229318,0.2998094457469283,-1.1223018857356053,-1.1318257212639358,-0.4609276710659202,-2.0794729617442078,0.49248629734139998,-0.8259369242220489,-0.52504878322004944,1.4271633588820558,1.5204874735834222,2.67055767928148,-1.3473756636822307,-0.14192108182412494,-0.23868333309635084,-0.20912346470630996,-0.75319301736291799,-0.89301710150169089,-1.1079943279116322,-0.29117339813551923,-0.86208325652115414,0.19926245773671111,1.0801616188035266,2.2876124867527432,-0.25850588754127163,1.922335473223127,-1.0784137091880479,0.1881285504761368,-0.78478517103066558
0.3413547822800283,0.97269848907940848,-0.31888038285630771,1.4923808209327376,1.1937939380009983,0.3521644251455327,-1.0901636042967831,-1.3637742702957492,-0.15642598457028536,1.6614702815468438,-0.33742478792134839,1.9675347269733237,-0.6345727527690509,-0.72764616285208461,-0.14935406401985615,-0.0063725541252659234,0.44678600276295727,0.14483811956751508,-1.0974563726530164,0.26885256337833174,-1.195471223351749,-1.5985335661584559,0.33009886251718579,-3.550410102215718,-0.15548616005077981,0.66722016262745432,-0.099986349998399657,-0.94009947126679738,-0.69138054189063902,0.020872194947138437,-0.1681929984757973,0.98409462945561599,0.93805627248023904,0.1936042977060389,-1.065918294349842,0.94947455212360066,0.0061088157766971849,0.17617915372739054,-0.80082693319486675,-1.3383686507608066,-0.20159508265209178,0.86320277599231454,-0.85378589748859746,1.0821152945457937,0.23876534144850639,1.8458036051828721,0.55273501466053976,0.89775473776741221,-0.7132897333615702,-0.50046684392752849,-0.018039895609799201,-0.42225379188192014,-1.8683519171615874,0.1620768632553542,0.55653228383780273,0.047537115281929193,0.77561369151103565,0.72810490065492106,1.8755092214788291,0.47699947397437925,-0.064535368363356896,2.0940625677740283,-0.045901004421067836,0.34413915272448636,0.46228241960152211,-0.63701621431107025,-0.9108360100466707,0.47247504904615911,0.45870257651731472,0.07462518856857904,0.70708745183350097,-1.532950179751263,1.4405810366398379,-0.10199303669190861,0.3027547389805294,-0.16044397116327461,-1.2364613897931247,-2.498925815313612,-0.78222518339002223,-0.71184627280771384,2.3292896225215634,-0.58328050861812586,-2.5408697359162278,1.2844305055305607,-1.0588023537402671,-1.1642679742312574,-0.97393111477496896,0.558476322945477,-0.53346599514905413,-0.99399940643404316,0.40210314655378376,1.1294629309186508,-0.46064737113620741,1.4908549061739782,1.6549521627378927,2.4587492397360409,-0.8639622867093727,-0.10278167856229974,-2.321336744680695,0.12798655638298398,0.41057618199183121,0.52124420622571666,-0.56297936147727934,1.0177392287839,1.3406336524801636,0.084382096254516009,0.89623912497064717,1.903107988192319,-0.7602092974850776,0.94948355650679461,0.16243632778551448,-1.7002774546030728,0.26436543685815811,0.26447473447148656,0.62004244956522192,-1.855545955014346,0.069575927521280334,1.1896298053218317,-0.015975719482558975,0.48753698373850823,-0.34201815096518062,2.2285670823107382,-0.73610004529427908,1.4144871669486909,-0.60730580766906661,1.5399761398206162,-1.253523481321585,-0.45349446695055035,-0.80822827531848673,1.479230968161563,0.92403870165704727,-0.94792263293382428,-0.013519100219692834,2.0436414335367412,0.85791471015994081,-2.994334344810349,0.82257303164280737,-0.019735636525864835,0.72673156168204489,-1.6657221023852968,0.73182052507653439,-0.82120125180396153,-0.54016053409511244,-1.078096581961139,-1.5702300003715153,0.76269117519898166,0.49300052766965818,-1.0779962721129779,1.7323521533506749,-0.13931673367485886,1.2267592397402418,0.40449580879253316,-0.4372055198153259,1.7951190645791117,0.30182128800989094,1.2039628093414774,-0.26209039225649983,0.67596942010407535,-2.3773140990953157,-0.22206905508467001,-0.19512989147964019,-1.5295114091948649,-0.90959880522137748,1.2322362978956285,0.1910329827991436,1.518897510243103,-1.6193770194400958,0.66225669147885524,-0.12053179282738342,0.094762642299666716,0.2519754998028147,-1.5331876572278202,0.22222579009865834,-1.21697819758923,0.052494510564879575,-0.12153344994752746,-0.36630213857185323,0.70047251608276528,-1.0716871857964727,-0.060356547512421838,-1.2068160409903537,-0.14811146617224483,0.091121897862608173,-1.0579252253827827,-1.2216113315261481,-0.57380290650146459,0.55782722346603264,0.35195326136362332,0.024279674865615788,-0.13148178936278218,-0.664654729172096,0.54476149872195478,-2.2079394975991744,-0.90852118682381056,0.35316862015294281,-0.42653225309832582,-0.077079089336776374,0.64292484194116972,1.0006925256100021,1.4887925104195787,0.88206449409123888,-0.67662290154252203,-0.64008018151927981,-1.2217285460121239,-0.98308747393253282,-1.246541163639544,-0.3126836183665439,-0.94692054209709486,0.73323078424344124,-2.1670455921170149,-0.67783250150975716,0.58567620039840251,1.579149224909266,-1.6218318631202358,0.51619676466396081,-0.39943337021651232,-0.17990626685666106,-0.45796712295855696,-0.96160649649269581,-0.15942132269716339,0.77607415573698835,0.91376251577838852,0.33799015148268508,-0.93708494848736501,-0.38512645001309925,-0.3358992397681162,1.1686976025474067,-0.6388555938197269,-1.185622543338551,-1.3661400872801341,1.7481556087209109,0.10639729532975271,-0.14563168964517934,1.3317319618418773,-0.17675721879304196,0.55397879387852311,-0.60601688866731229,1.156786936648305,-1.6364221617678927,-1.068165224857881,-0.40806723910407278,-0.51675005395643248,-0.21000483150320501,-0.60191820822520858,0.90028736578794533,-1.4226451860970615,1.2088902362529637,0.49846047554214984,0.76191527107245072,-0.21925154976091107,-0.83260267287416467,0.030047476624888044,0.31365187514386667,0.60385797783724671,-0.39978696033949207,-0.83265351917391306,-0.03076385987905858,-0.52716597882413796,-0.59180729878197669,0.32668744305334035,-0.35988100376146348,1.7313817181715481,0.58068992654502261,1.0367937475519331,1.5338383943815894,-1.445001226573376,-0.25389314176680539,-0.57339406793519565,0.48566809249123627,0.56976275100089591,0.79948079765616042,-0.75259733247566984,-2.2218267692850011,0.27829797085924762,0.15518859117745137,0.94736116214912991,-1.7736579779342845,-0.60310542682141133,0.11253663511532958,0.35744011788751895,-1.1016550186678635,1.4639754262316929,-0.23189397503049203,-2.0786032064606794,-0.20925471741493731,2.088917385905892,-0.012188419745891126,0.36339913572852084,0.38830198249952891,-0.67270805210497642,-0.22205413184072167,2.5744083583780299,-0.18376553690232592,1.2037589210061881,-0.92975707988320611,1.4029884759951323,-0.98887152600363204,-1.2824812427132586,-0.67427867440291489,-0.063808611245223412,0.48317512011022695,-1.3516194622830717,0.22092849829196212,0.99741510323916027,-0.312412722937007,-0.67299020594826608,1.0943564491581164,1.0796528669590497,-0.25249168785328197,0.90506050349765887,0.35728866494014244,-0.38157599273201293,-0.49604362897892534,0.5229771537837834,0.75050399826033065,1.1303252254161478,0.0095852960688828127,-0.76210273000566253,0.21582818262953643,0.23045664438154198,0.62709471441288955,0.37333794181460211,-2.5490795433880993,0.64194898120278732,-1.1379061129035348,-0.32144521512475305,-1.013450720519111,-0.35672226714559607,-0.18943950336473767,-0.66538002189986434,-0.13326629315415051,-0.28080782261834109,0.078618585236064034,1.769264431263631,-1.9124546169450953,-1.210534463186913,-0.075840620328343475,0.33603527920735454,0.044666265588475758,0.74501608279366927,0.26332102797083384,-0.99045562301431489,-0.57268521504573455,-0.80539933905512839,2.7764266491166261,-0.83312299978439108,1.427600323029919,2.4619283976169264,0.40367598202177435,-0.58133092744523696,-1.0436758404468827,-0.59225315682916735,-0.76789895571108413,-0.18224115721883616,0.4727535685369646,1.4964131045596023,-1.4630551447003521,0.97678686610618681,0.35379812020173285,-0.44804627891034648,-0.14895537764887534,0.89114550340718912,-0.27814324530639634,-0.11890565137833126,-0.65899658612887491,0.61555212904952972
