0.020885473597188963,0.18309131006603943,-1.8947999283190982,-0.37227332304387689,-0.93388019656209142,0.097435816422794461,0.094214632064758635,-3.5095512040697132,0.19910865584993784,1.4910496024342192,2.0168508144082953,-1.0403306290902736,1.9823483621165667,0.2193276587872294,-0.33343572620734996,1.3683072720768299,0.99656360643440256,-0.91284528737339532,-0.83942257078807292,-1.16333647190155,1.4393298574410678,0.15680120392407426,1.0351974164229498,-0.38561189330264517,0.0051439019807163954,-0.10742867057237532,-0.3852508781100783,-0.24544146762089394,0.30690783653911335,-0.69368268791363286,-0.087812440841845626,-0.4678855989771214,0.10365464493584417,0.65650561683265996,0.37403007118079817,0.84413118587377856,-1.4088061371988412,0.19377624503550306,0.53776554691646061,0.13555020221759384,-0.9894937314384864,1.0004335169688912,0.27929330771906186,0.1022966754657893,0.43642476906548155,-0.4739701690259277,0.19728572115864781,-1.539103228323796,0.38236348111898061,1.8634120130025862,-0.59340528868650466,0.47047828455854251,0.94798594414086634,1.2372751234192714,-0.72315566840352852,-0.11428968871803108,-0.0083747771303307583,0.3098194373881345,0.73863225247775144,-0.42821467344008968,-1.1484519478123276,0.28546309114933566,0.58535382140518077,-0.61977059805120749,-0.043325334658422303,0.38307802842024768,0.85198281253110786,0.0041524009198142748,1.7086056871729425,-1.8928579286023526,1.6089895234692928,-1.3070720395530402,0.064946020028151155,-0.42278385670671426,1.4605799868721856,0.46414049958780063,0.63260360113910952,1.2481495949579011,0.44063460296627066,0.43212693048040363,-1.8448669379014944,2.5229877093323219,0.7447690657299384,-0.69286037594690153,1.8761934650459253,0.53266640886564443,0.16827294968120449,-0.18352959519114367,0.61292623960157788,-1.2691647346679067,-0.87441694740401532,1.294298868479572,-2.407140042010544,1.1027151830660207,-0.61147008014343684,0.087362597687207277,0.12272784417451339,-1.3408818529241711,1.533857074171187,-0.75111056320360303,0.35814247991646864,1.9258218324792902,-0.36097674828400633,-1.891145652683222,-0.37257308084206947,0.3873807033041845,-1.3162166633188206,-0.63764057775415472,-1.2150646814269896,1.0744361590541105,-1.1603247236534098,0.52685570956014294,1.4985102780723574,0.57196138990638623,-0.93343060574404657,0.014920889475848345,-1.8393769863293448,-1.5312940115054654,0.055370558916027823,0.94718273787000196,-1.0762281673094656,-1.9484665544567037,0.087904483898086652,-0.44379830320465186,-0.97760380386966261,0.17350943461818555,-1.235544369034048,-1.1722897693503247,-1.0966261613838979,2.0427906790843577,-0.0097896307664390794,0.94925983138535697,0.66075582750304207,0.33443911332539694,-0.31326653867343274,0.29256113490241237,-1.3983837890869504,-0.28367851121229248,-1.4300711861918189,-0.21623596652955746,0.62345508931473881,-0.15865611159464441,-0.50999729379479553,0.040433417029411452,0.81327171114614227,-0.50902329576476446,-0.16462145801729353,0.39771343904186152,-2.64626703388844,1.6753386025072436,-0.72448636356344231,-0.94889863412187125,0.48633960066251269,-0.77446093142770167,1.0464261847786624,-0.48267762176412832,0.5467261885377972,0.35189636349755804,-0.7798086113132654,1.241264020002514,-0.68009781342331832,0.42587173741277107,-1.6425387249239534,0.17719244309473617,0.26130507548378729,0.58920887570330593,0.51002200437262168,0.08421041382240349,-1.2828417562591485,-1.3080831928532748,0.62372196093694143,-1.240375045160246,0.14458908964837258,-0.85063175204743202,-0.048312270611355707,2.071847057198847,-1.563021847373341,0.46792781012744356,-0.2565076528965724,-1.0325723724131364,0.63534854776784455,0.75875540826986876,1.2583164007608134,-1.3462142134853541,-1.0395921363386544,0.7619172004082827,-0.67313269456286395,0.18243560786543669,0.025651853721634543,-0.94039352641362339,-1.0709036326229449,0.07285790525785095,-1.7528001173745364,-0.37916245985669644,0.69324689432619147,0.18534489796193906,-0.40614745858303425,-0.68535371000177769,-0.25280849404742622,0.13207510694910424,0.088490298846368637,-0.41488521181192195,-0.64527940698886288,0.13853071467973654,-0.045176339545561495,0.041426848372093719,-0.29766031971771006,1.6168783124655985,-0.42213986157222982,-0.64746976500281828,-0.14314428281605515,-1.2631187908110415,0.35812645878723276,-0.93593857228219235,0.65121531223251972,-0.5088081988614529,-0.37140674123153206,0.46191253440110164,-0.025881322919564943,-0.98577410056610881,0.3470191312373973,0.5544707826457731,-1.7640818916955148,-0.73611262316630321,0.23706992787080444,-0.8977194257829515,-0.76535167622739619,0.30071074197351083,-1.702197775559219,-0.83552136168584823,0.9437057287726186,-1.3291198203659944,-1.2325480077855888,-0.6361987078849185,0.057145316298535233,0.58036289456286971,-0.17706316980192027,0.020046107129429374,-0.12042629859081123,1.0206838538833614,-0.87739884512400235,1.0354802176726643,0.49538039461393252,0.35143223868851825,-1.3860504887272984,-0.43620389094366485,-1.9501566426929833,0.76077460446279388,2.703296717553874,0.53875769188071865,0.64659962373302715,0.56471710465093117,-0.62849130198936309,1.2988013648026977,0.11306071967933995,-0.77200626726144117,0.3927056572832,0.71224729678691223,0.31932776114323247,2.1852453524840425,0.77173185478506767,-0.071578912401899564,0.5455809197013427,0.68070464443437706,0.84636596487800864,0.15353089513936685,0.6077018311357697,-1.2326156631753282,-1.7045352841250982,-1.4316623397544763,-0.39718316587440061,-1.0074194077753893,0.75896508767898307,-0.24233508029658252,0.068294952705310052,-0.6350698392538584,0.14797204492549323,0.47719445741126604,1.3093636872843442,0.17485151966370616,1.0474483246945419,0.13355244051722054,-0.062434543635989721,0.22993192207934093,0.32571223222404122,-0.48625284707952798,-0.42099911274464857,0.8059049744385397,0.30374366401332431,0.044092520578699806,-1.9890849452182193,-0.015080984252968412,-0.26954633049258292,-0.55671107973385359,-1.3980837016456411,-0.6793493309359806,-0.15249369080751599,-0.53319178484159147,0.97338869887787849,-0.88516266195278337,0.21828959621433902,-1.3449663658656907,-0.19196581792241962,1.960313257649676,0.47680663003872964,0.79792337565173965,1.3465589732296592,0.48012939654807302,-0.87709175628032643,-0.04991021927842388,0.95046083595820896,0.067002670001821696,-0.74416413623291477,-0.81404818970847581,0.12465936178313082,0.74291561845329113,-0.42150996151773651,-0.65538758098993166,-0.23445645649604469,1.505350858187251,-1.7939054682169051,0.767686056055777,-1.0971611631770257,0.60466120488669539,-0.082360370382719247,0.86268821612534741,-1.4573921146723403,0.1027673313108337,-1.371137860398371,-0.14401495599692057,2.0425020940249814,-0.21996562476614623,1.8253367662032047,-1.4890723619001074,-0.63945501842981767,0.35369027166301109,-1.0105387284752956,0.66244780534149106,0.19518078656072924,0.51638644248227228,2.0968411325767149,-0.25415048638079402,-0.17973485640693232,0.64309439592553874,-0.19433046680151697,-0.23776618472780731,1.7033521480638083,0.30692989975532903,0.054286572439568172,1.2466067868911896,-0.70623218349282213,1.4349334198584105,-1.4421624223253502,0.43278002018539308,1.8237039045176189,-0.31614824390561308,-2.010125953961531,-1.8128166409652891,0.55613295543453711,-0.25942788306493492,-0.30188676888541666,1.3561909051070922,-0.85749475499604966,0.33222667969138198,0.35626761061464834,0.35548178770806566
-1.0952242803048367,0.53769391494519325,0.89174483660697146,0.96392722387522733,0.21331275810219863,0.055278914093846422,0.3607287125525499,-2.2907713930376308,-2.1803251324678423,2.3450322370974717,-1.227080556384246,1.3984937422205701,-0.33420960832009217,-1.7910700156127171,-0.92514135968218647,1.4004422521400066,0.38254525349707108,1.4057212398475187,-0.88446098216363267,0.015400455846783581,-0.69929552669340955,-1.1010406970374813,-0.42273984864394853,-0.9833754930082772,-0.13556876869758297,-1.3213059340488096,1.5710529978829477,-1.157648457642974,-1.3597503125702028,0.95767967441613577,0.61785299356010948,-1.4361866286095821,-0.69280836911441834,-0.51940301878789286,0.094136637772123166,1.4838839940359703,1.3893917800808542,-1.1296927804822645,-0.16773427096099511,-0.32026309168234735,-2.1330051113178379,-1.3216388652419053,-1.7744270292908697,-0.98149287704346078,0.6709943239936238,-0.81042362961697867,-1.1396551650215025,-1.0128377712936774,-0.028187571964400648,1.5827130761166328,0.73449185796993988,0.34945193892725002,-0.32391464738247899,-2.0466881009823608,0.20104508024953208,-2.326024400145108,0.4972390887780605,1.2819774084665954,0.32578426795420823,0.29739041276366662,1.4303766772138762,0.34691357337131684,1.8911670164004344,0.11255810958364454,1.1082187611125385,-1.2250814023120833,-0.68623605165770529,1.7022829619218094,0.21389201546837217,0.10405157332716085,0.85043836935154027,0.43381228680206729,-0.95117082361590133,-0.43241405126073373,0.23015596734489407,-0.32260110104497536,-1.4567509857480352,1.2920570420423581,-0.80428819181804556,-0.85476839782840908,-0.025125043320906173,-0.20407230939329715,-0.13308601140400489,-0.5400242796153174,0.44113372130735129,1.7180949752347294,-0.33628651787990921,0.93752693510931118,-0.050045878068287468,-0.77477220959146753,-0.46055533547452326,-1.4181311650582997,1.1809744896603172,0.50155734669736574,-0.28518045734999514,1.2224229351258713,1.6430605271567218,0.18511941384270778,0.74263698008185897,2.2545901619381188,-0.99872633924917731,1.0341067502619743,0.29709566929915709,-0.62339628495516164,-1.2603855852171535,0.10354146651824217,-0.28650346293811252,-1.4583325086199563,0.42931253499276434,1.1125580510945072,0.62472346450654004,-0.9206015400563955,0.56005507386173659,0.24753259160575727,0.76147350479173503,2.2703582598101919,1.0000679984270227,0.095291414358721988,1.1259395348123127,1.0407318383989352,-0.89802026588160433,-1.3831124260182326,-0.36920577290743101,0.024624676628454543,1.4225749476469156,-0.55726463685915806,-0.78773351404479974,-0.92939259023086374,1.3602489032029306,0.7249603900030257,-0.40466436118491234,0.61636903892609329,-0.95590801313851959,-1.4594005684588245,0.090315776854334756,-0.41116246424051178,2.238403134577359,1.7602293088893932,3.0586924822188273,2.3128270630287902,-0.46786137080860701,-0.8604681310246125,-1.195232772887399,-0.54313972103850061,0.54330628979062112,-0.87665979210415601,-0.50436809782932124,0.11333400137867704,0.85348054479525126,-0.8135244884144156,0.053814919302431721,0.26988019308956163,1.3840341898758091,-0.25752823880698167,-0.27848783180065423,-1.4821369426788666,0.86137596694500906,-1.5373364996110068,1.0428194607200767,-2.0577547543258454,-0.062784475194034531,1.8460007407770973,0.26334090892706813,1.2066405057371581,-0.59003789007586882,-0.78074154674467044,1.6503068567310173,-0.010369741176327675,0.17378580629013129,-0.25285012869726209,-0.29027971996869029,1.3548731936389737,1.4014780166351448,1.0493022106880814,1.5232915655778854,-0.031716659390310251,-1.9139990806045297,-0.1614951174537527,-0.40292248322472846,0.41193751025267861,0.97143593537557049,-1.9859846668179197,1.1615754774397451,-0.40459235500028434,0.53341527216707985,0.22832820853495114,2.2944294921827768,-1.6740469842240209,-0.17194059966543898,0.8854450200765176,-0.55011966421249159,0.17943822826522227,-1.1360125713825171,2.3088234222114647,-0.48978440434542186,1.2580860931905284,-0.30263046994179044,0.53040186764948949,1.8739643051052599,0.356997287095912,0.11266067677021968,1.5353695680288935,0.25257577688809091,0.60741074046955645,-1.3016931516809847,-0.61263604898416446,-1.077251620666696,0.50943213013078403,0.63998783058228181,-1.2514902147634563,-0.40788698911993365,2.036924886879774,0.27077395386248132,-0.72163359366742641,-1.0361293485245511,-0.63669412121149904,0.49337305569044482,0.13247380590567898,0.2699367921798671,0.057635800009859149,0.31794866291880469,-2.0108099093479721,0.52506161962807618,0.49396748946365221,-0.52348563191152475,0.67920572378136501,-0.18124908241530949,0.68893631264248134,-2.4377919458628594,0.50095114490409831,-1.5844770915945343,-0.55853995842861426,0.049674326527768112,0.20309229140475285,-0.027299819701743402,-1.5784716672057075,1.3614847065931315,1.8622312414378048,-0.26496944036397341,1.6551181065031537,-0.34651519339242642,0.73562909034815915,-0.058170840471451352,2.007502856492648,-0.75451892309005419,0.4773411697001263,-1.081320686784661,0.98852915336787817,1.0701782273563851,0.79551186167821109,-0.68161850333119367,-0.78097620005903556,-0.23125822256612091,0.05837853481159299,0.085136824607422237,0.70503284268328426,-1.7628535733877244,-0.57737599749895741,2.129858312414608,-0.69567571260087802,-0.29940893385226341,-0.031718688167314907,0.34828810968509932,2.131901434079277,0.17735243955417776,-2.3089347189009435,-1.0742694129009445,1.1638389026729323,0.41316277694016268,0.31898190563304607,-0.12213146536613671,-0.41286653758528746,1.4530674178399836,-0.3747414663217094,-0.47332524227343248,0.92200257996338231,-1.4419463800728183,-0.47943318201444723,0.14002677598878177,-0.45458515123241883,0.27973521537197671,-0.18424072781900558,-0.054872747219468082,1.1785545939721402,0.46698857149591644,-0.63677763193772352,0.10112041466408855,-0.49914807676516315,1.1955840418823136,-0.21928110825729197,-0.60869108774750569,-0.54964137876515706,-0.73872095390197956,-1.0342525114967387,0.66162066708844391,-0.61092238173615421,1.5529114503478179,1.04357724638128,-0.61186847580825043,-0.15799736116701932,-1.0226877826367866,-0.79205969136036269,0.1484801404978737,-1.5603994547759457,0.18243336755797571,-1.1027011152900366,0.23470313310440979,0.054434546649425146,-0.97031219070296126,-0.7377887974392735,-0.28626591018206038,-0.58157611014943189,0.68325199250895541,0.39056257504620245,0.89187975667800157,-1.3166426095365609,0.23596319024646858,1.5135042095249822,-0.55459777446781788,-0.67256343911622685,-0.62486425917063337,-0.23939800332366926,-0.68389271594427059,-1.3065614271614376,-0.25951177809797815,0.3305775848939394,0.71551489659722534,0.42679626018216538,0.76948527286156487,-0.73244167335811894,0.86074560389835864,-0.10917553811184734,1.5534427381796394,1.8215351471760441,-2.6085910099136473e-05,1.1590299084581146,-0.77718408177555265,0.017627228715847151,1.7085350378332751,-1.3195215798199671,-0.42295346743077272,1.3626642481350038,1.1387925802134282,0.1945600478324217,0.3004765035936553,0.42351618231968186,2.1099923969547669,1.9050491186192888,0.82144382992078901,0.32208323890244606,0.1681083506814825,0.97944562108326627,-0.67037390048975176,-1.510900011970528,0.80961260126975587,-2.8126525070719439,-0.78175012231559016,0.32366458198432796,-2.4030539106799691,-1.1516980810053645,1.5378328400010115,1.4307232295027976,0.14945158393111063,1.4187588379054079,0.066091001996873677,-0.34380061755393976
0.81146799847182083,-0.55149443750595428,0.42475617208351618,0.22080501809467473,-0.12158261536496395,-0.49918654840865168,1.0622288472344377,1.1745186648041941,-0.24468457325061416,1.8127351212687488,-0.80729814710780756,-0.327352381805954,2.2480158531696373,-0.42276990348022708,-1.0125944560244422,0.22483255664363141,0.5031437589732406,-0.4041475937160669,0.38122338795409755,0.69967283806094072,-1.0916413614345608,-0.88166878098844104,0.30792443351137677,-0.98998050495148149,0.30458474233579802,-0.099151406527670946,-1.0534645456616534,0.31065479834788839,-1.0196454794634309,0.093873213760630875,-0.15696122313514313,-1.0179961997939768,-1.9498207923150861,-0.21635711021942466,1.1984052193963415,0.072035036788447207,1.3395023295381709,0.68709303116106502,0.24305289492635729,-2.0669819827235258,0.7761962503237928,-0.90663474992297943,-2.080569726745952,-1.1626692067363589,1.517429791393589,-0.27871430045675655,0.47581034552828677,-1.3563681992229371,-0.6710656990998447,-0.11359795233913406,1.2832446533094104,-0.21920974834269302,0.27717299965445491,0.27271030505773469,0.22399814800725895,0.37518011252170674,0.52395931902508053,-1.7886274315198434,-1.450025165092484,0.97270642478547953,0.10862355193888533,1.0352645448821087,-0.63695476170670817,0.54467935482969632,0.99023482469929969,1.0790001713708857,-0.095312828469685321,0.21413442875985567,-0.66868216665525193,-0.62928202895793872,-0.61098436382133059,0.66683512028479841,0.5324780280584247,1.1498638776295496,0.11189546459220837,0.68746422627398007,0.090935554411706629,0.39898765146664639,-1.1130496006512383,-0.28502935495839082,-0.75581915454473214,-1.3358637461406917,-0.9798983602285356,-0.84763486772728525,-0.49134549371101771,-0.64295261467775133,0.42997587239276647,-0.029951264239403023,0.8944294820087797,1.1257068929628855,1.4733633864242779,-0.08846994633868964,-1.3183781150456166,-0.68419984561648128,0.32534801250951456,-0.53693722524749421,-0.57991072135898991,-1.4891458606127594,-0.90363308908295525,0.79549959696217076,0.050689642349615711,1.5709168750217333,0.088808028805664629,0.58997005483155507,-0.42568037772519446,1.0881844627538622,-0.34033004415284701,-0.99851990186097839,1.7580097652042657,0.57500966565632627,0.75894418629078331,0.47829954109734335,-0.29395632216473661,1.3825437837723553,-0.35324473560768571,0.84930375668736902,-0.96308861119074562,0.21710331387465132,0.5522779998712618,-1.0906055999466917,-0.33666374262114923,-0.50127695466137667,-0.25127347049154819,-1.8087909368801471,-0.52507907481949412,-1.2729137438708376,0.48217352826605819,-2.3938818774437665,0.091538182035868609,1.5061674766787965,2.4785435459990177,-1.042111428259836,-0.73859628451463399,-1.3308161937443568,-0.45031756886032331,0.95523728729661861,-0.21873258730876693,-1.8265455423022585,1.7205020657813277,0.35841554760520355,-0.84463445081005795,-0.23552419698082344,0.67869640794326713,-0.20198450381721542,-0.38054992297050499,-0.36989635872329218,-0.52232047153318206,-1.2506681119131575,0.77376998502436378,-1.4102884728708025,0.83374593055879864,-1.4959188934246321,0.88138257467950776,0.39726544333284169,-1.5841560701878445,-0.5329120007683259,0.1479887363809762,-0.95519682562777819,-1.7787133827146238,-0.032815452422925336,0.34554504340019832,0.98802474458707057,-1.5288737822849057,0.9233770723373198,0.41982533913755016,0.16433619625815235,0.45037127329641224,0.1162547705030038,-0.32378228533341824,0.4963033649563966,0.58500298207782109,-0.44064719434208077,-1.2008264049609223,2.120130658369908,0.1855370300195609,0.31413348528465107,-1.6136827241644955,0.060707442081264662,-0.11888887029356959,-0.85551965225182602,-0.43596015960959061,1.9146506329336854,-0.074840707001956344,-1.4991922444557524,0.73516111418305874,1.1385548561085883,0.57348630685926216,0.062506021440180762,0.504024422425848,-0.85398549032312687,-1.3354224134166786,-0.23103179360902701,-0.5076950355753469,2.0307707896369038,-1.8693973475116537,-0.0563939501528904,-1.079167984096187,0.30354464018166927,-0.57962151762570491,-0.62735814784182875,0.60699089323697986,-3.9305049511579093,-0.20401103552007729,1.6774285173206751,1.9174453581164261,1.1333394483117663,0.66837420253224744,-1.2329058354405347,-0.62811511009764875,-0.46430555621309205,0.10980303848599317,1.0829771444499154,0.4934182979078211,-0.26120962946463006,0.30020102465111714,-0.78025444462126448,-1.2924666790034687,-0.016025567991468519,0.81989369204627116,0.2371445998746079,-1.1965937324041889,0.25193637440340072,0.39637410953199043,-0.13780601859593161,-0.64435398496952034,1.0801741819067849,2.6295462538312,-0.82537461139366308,-0.26843671015078474,-0.83183625114544646,0.84852968379390714,-0.33311243009771258,0.34048066177217179,1.3084374852033118,1.7593187244046922,-0.069845585421593678,-0.34140174351975955,0.55330279047995856,2.0532392586618435,-1.8395748444842306,-0.49379019685923814,0.10175471962894091,0.18305379003074249,-0.060042152389265399,-1.0132655155435726,-0.11715574466522015,1.8980842250923158,0.71607392315242158,-1.0171396928130847,0.062638071861476768,-0.59219027452025619,-0.1667312521187827,-0.95497306791648184,-0.30629212353892721,1.16781350114101,0.39058186343136492,0.46130103914277149,1.0156757631910602,1.0093542352995022,1.1858498699929145,0.53266977131054727,-0.38487981277503619,-0.43667216668448744,0.44228702392946379,0.7924375764830125,0.20084376331241552,1.1658493446327289,1.3128557606195332,-0.91209297694209912,1.3871263455547993,-0.43592366609761918,1.7464433274501598,-0.33023123315440261,-0.33196145900674712,-1.092402292711814,-0.18894151109938237,-1.0913285776102306,0.58946223456195657,1.3608973163063316,-0.082917798421384095,-0.19523632668354127,1.6143959182720584,1.178632902029418,1.4179688029974058,1.9090919810022735,0.020167588305542706,1.5283980505707502,-1.3798653328448514,0.35101642716804582,2.0769298879185008,-0.90088494972280753,0.66959179668500812,-0.12243969304657119,0.56509950213997395,-0.11004762213904004,-1.0482774937933335,-0.56005910018684579,2.3193671792740549,-1.1417765667065072,-0.95075217020845182,0.87264438525915622,-0.50513914428471474,1.3234471612360719,-0.82332607517511502,1.8002662919207975,-0.18327141548896703,1.1462226602565406,-0.53925628087488042,-1.1068582165502154,-0.84241207018972897,2.0439016254495583,-0.3688681569846593,0.57693518058331394,0.39517505624097748,0.21083601652749645,-0.3631551103471648,-0.44208306688991805,0.60075876730902711,-0.69187155200950878,0.33347670712780769,0.43873937145728037,-0.40177209468273262,-1.3321313169618896,0.49320122359293916,0.61275520125758598,1.1888706052913995,1.0097290180991738,0.6691157002177609,0.7879892983168858,2.7774704177589347,0.11399122454534426,0.85261631740808153,0.073347010560051121,0.28820180008174401,-1.1343236604848028,-1.1641881422970715,0.31895102991306662,0.83376715042796046,-0.76693883512783123,1.2745396585889306,-0.19519234495527293,-0.34755355399988719,1.3698771099050124,1.5062599361465361,1.4558563548796009,0.54708451134022584,-0.47416158064477093,-0.90451480986310806,1.0372079963822576,1.1056647399404924,-0.73772786400488222,2.0472718357693647,0.042696139229284294,-0.070687761611630845,-1.0041307944826277,0.65558907312149306,-0.36130191439049109,2.0948079805386945,0.60396131222798233,1.047991213550334,-1.3366647474291391,1.0203160316751159,0.86848303945141514,1.1106141909589271,-0.21682238609387086,-1.3159053616618208
-1.0303379599969333,0.34289427345003054,1.3062980858749187,1.2255561917293789,-0.98447998139513559,-0.59644116927838076,-0.088726812983109152,0.743929826093358,-0.83327922796249787,0.21807966542654678,0.57460766154547138,-0.5244730075614854,-0.73325282832836025,-0.64844884371414346,-0.29668914784139128,-0.32901347126368136,-0.36105632291364548,1.1904682076411084,0.41134545510503934,-0.35394078493288011,0.98430840253620688,0.27835234878120663,0.79381119259856203,2.5041609649614531,0.12645360145570256,0.10669646841675104,1.3025602440060615,0.44329091535659121,1.312043532714495,0.56895638869389387,-1.0619540436776589,1.0107078664850353,-0.40259206144939774,0.70218883634395746,0.8539547466532964,-0.7789295491389443,1.7137849125984903,-0.5782637470965204,-0.41133620454481518,0.45599538270350587,2.4063600179971552,0.47350102333923694,0.9347333511764212,1.1927897692921201,-1.1978597550966155,0.17403138189426323,-0.31628177145271996,0.93442268260359551,1.4670118120193032,0.35624886697100461,0.36773339734273708,0.56891684649037355,0.0052411449120398409,-2.1229252470061715,1.2560994252507098,-0.69520184016009334,0.40918254215163802,-0.68840335228160743,-0.17267644374612545,-1.1102219709300276,1.2466738244746491,0.71246777547505913,-0.4590168631857553,2.2684117647280084,0.75177803509340624,0.24991873863688327,1.004434025689648,-1.6296324150912305,-3.7754026861674661,-0.49094668497215066,-0.53455006799513527,0.46950020073233917,-0.30451454636708203,-0.3731667989458009,0.13368063287717416,0.20292328472205748,0.048227331116978071,0.95363954022429565,0.63246403566901876,-1.5772469292297027,-1.9758833260368189,-0.19067499045089897,-0.59250752972669429,-0.65593892977368196,-0.60856362522744611,1.3004573261523389,0.61520594937297046,1.5371256669852722,0.014576555156079181,-0.89273426653213284,1.375104311549721,0.22296284824028142,0.71153351230343931,-0.11715051158568217,0.78344896784481799,0.12632578501779812,0.94786559821555127,-0.65108290543514624,-1.9846269746720868,-0.46987370836240655,1.1880157639743973,0.9381076006746164,-0.65230062627949359,-1.1805813306653368,0.99456367507037979,-1.0685198408027632,0.56891228614601097,0.75186879712943766,-0.90377758026397226,0.40472907474700776,0.41468501910503841,-0.019555904891375639,0.18189273342425222,1.6338379411453712,-1.0404475156701865,0.7742637575511353,-0.059122159220272627,1.7579210753075123,-0.67772672098958653,1.239780338035261,-1.5428286048545734,2.0817434096981136,0.92331905811116166,-0.41045379963158279,0.58291132452797878,0.31443401036907281,-0.093013181121183591,0.32079069072646338,0.019299592986973303,0.058350619453448022,0.22740073168623881,-0.71884511914990146,1.3959106409732533,0.41372723199037764,-0.23242679161260787,1.1127602017121063,-1.9038850850057478,0.5239925107370258,-1.6511941028793742,-0.83736437975944811,-0.53470996977199359,0.02913660869500264,2.3736407708842919,-1.8755919064921591,0.9443230477500395,-2.0059422025390856,0.91591419774772087,-1.7979182828790803,-0.36348187145907096,0.16338729177079886,2.6400543495913809,0.49984093057989276,-2.1592763000423942,1.7947901778231485,-0.18177140436916581,0.18302397980989019,2.0758882998109964,0.85666748242219637,-1.5119321459513237,-0.52595537026048844,1.0182956130915251,0.44679527932704249,-0.89816292621586957,0.42486395267136984,1.061416173892813,0.29166804665201346,-1.6785114941859203,-0.51955608016731092,-1.5680526520445346,-1.9376155798028114,0.15471965845228625,0.71413080655570393,-0.35957037494289706,0.45658379647308972,-1.0328723318972943,-0.26640254994370499,1.8854822325186225,-0.32766713644589512,-1.3558819030979685,-0.95844652517815354,1.8200164317352188,0.91603950008515644,-0.50018536701444494,-0.077090255131934335,1.3658716855152198,-0.64987404696641127,1.2784408487456136,-0.7575206773443024,-0.016642988930798991,1.129813354379223,-0.18779617965749146,-0.055170753670619757,1.0757517083897092,2.0421581113934781,-1.8709726881837812,0.15670186332216265,-1.2496009505544032,-0.69065160398207981,1.2405191946800767,0.23163948051389677,0.8798654237265261,-0.59188715794604385,0.6810297796221223,-0.8030479192981711,-0.26352258461356809,0.8660511802441887,0.22922234291685931,0.42030838526907743,1.3192816092643742,-0.1496091323723949,2.7537252100119192,-0.13626105575605885,1.906095793948648,-1.209822048094882,0.47201348949485422,-0.48623695321025262,0.49443323124551858,-1.9810260904238484,-1.3652696703381193,0.5806623638444296,0.044010852224295328,1.0625974388740855,1.098354721132816,1.4641074461908861,0.53086436872770182,-0.43788740183498853,0.42568671700832761,2.0032515614496518,-0.012918142952978721,-0.19679511422169749,-0.89159326250459048,-2.1324910440160902,0.074246154738218773,-2.9351804326372206,-1.1190490932168271,2.0612449071481609,-0.097489162102107674,-1.3627574743042492,-1.1037348438888928,-0.83085143413221274,-0.53745341937116231,0.45422684244674244,0.95161671785655477,-0.41308124343350439,0.49159656419355541,0.28142133796837082,1.105483035376164,0.57497284462055342,-0.47891464333942102,0.43527511603625901,0.70052517057277419,-2.0668050669302902,2.1737986337793087,-1.8009299700812638,-0.92206436882748011,-0.28964054325927779,-0.33927329788592481,-1.7685327453328221,-0.36344177151651891,0.35573210989246734,-1.2608850394320348,-0.37848185939360812,-2.3865952129578845,-0.42691323399663417,-0.32861802648659832,-1.0248005665152295,0.16542245292474972,0.87361535749739216,-0.11393737040213206,-0.18718554639673612,0.58001351005186808,2.8180927220539114,-0.50048095375388102,-0.72346196472652924,-1.2707426631796073,1.2392926084745324,-1.3034636899532024,0.21898804405891498,0.65095480381696436,1.2109782986268911,0.21697592168322696,-0.76290961821696834,-0.1544895494097831,0.88186919319370904,-2.4381065925162293,-1.1082951430593371,0.50376178048195908,-0.64124996177701954,0.62306906801317641,0.76687074538104605,-1.5647420248410102,0.86933269920449086,-0.37244907198664784,-0.14969393209782947,-0.8290859392371458,2.2748951913771616,0.051351193153283875,0.38979317264563873,0.51886792143282068,0.56920264908097884,0.58805992977084576,0.67264308542053741,0.62889984418374378,-2.2848550037937003,0.093433541328825351,0.4950966949759083,-1.238436375615535,1.2099918748012128,1.0706087633102221,0.78848161917056692,-0.5969882898188964,-0.92267692717433791,-0.32114781781579105,-0.42037822557453358,-0.10856921889426598,-1.4926203697268949,1.2066137978872307,-1.7596006281593795,0.67050871433246662,-0.60418432081886475,1.5992880121433375,-0.14504016709358519,-0.78624028827973791,1.4300564106946569,-1.0724612646682106,-0.20512804581202196,0.85233847728080592,1.8847474329333274,1.1815602722058896,-0.35046225610916409,-2.3484410127170907,0.2847801599088699,0.10074132838921417,0.27536871232949484,-1.1355481284466553,-0.16899435374582059,-0.29843070486367135,-0.1049881568783099,0.3280073485505457,-0.61597714734547004,0.42037771034757576,-1.5047058453014126,1.3560816593765399,1.178830287206164,0.67974708402901163,0.040059787237048713,-2.3880564515926612,-1.0524102883159727,0.38204188120101623,-1.3621652253317607,0.61913264590683958,-0.22135502394558212,1.5716766754319118,0.076066831223146711,1.6723583533138657,0.29801941200111515,-0.50451776784178748,-0.17702599998404225,-0.33582942703724744,0.65575137025366881,2.0409917713933328,0.88384597313898927,-0.37712099335397825,-0.046413550936617851,-1.2397579454004048,-0.45139662352749327
0.32395183156361113,-0.55020565290380263,-1.3344272188369888,0.13574181517806228,-1.0253127774210766,2.0667710142152691,0.03346035094685907,-2.1849850480074542,-0.81600627477343812,-0.5852810799483017,0.56662053114216704,1.4897121490265524,0.55446680880204802,1.0189455197761061,-0.10590813824948329,-1.1208574012925487,0.19899102719654335,0.2739306634178223,-0.67439115604874544,-0.71948478078739619,-0.45667427086398177,1.051255975669612,0.66590643916719006,-0.7813624409845632,-0.099836477140807511,-0.13933439427689559,1.0364646169214897,0.50431166374080871,-0.57111293717040112,0.034161028772238963,0.0053305791758480915,-1.702409054917212,0.3166644385079796,0.76044455284851586,0.22043290348540873,-0.13560299118351229,0.38927946164471056,0.35821111519119359,-0.82684583461965955,0.23301601843770611,0.1664320599538005,0.73359965211155376,0.46187645272014255,0.046051421064636618,0.15932316046932304,1.196162561539716,-1.2648197689833072,-0.34652488815097704,-1.2296666491087436,-1.1651643902206892,0.89600809130496517,-0.1937951264828584,-0.56383122094178717,0.088312093627319191,-0.91009963810793404,1.4490341524615298,-0.73150435542406755,1.0785421918250695,0.10876457453266349,-0.96694243473453123,-0.1135580036294431,0.49317034692851852,-0.084139174423546015,-0.52582267292176244,0.37766646730588643,1.1030121531271768,1.4431417110979508,0.68239765481422754,0.15144117515565569,0.87010064203114335,-1.1669656814076603,0.33802460002193574,-0.95799339854382526,1.8798772485310664,-0.39658567407075324,2.1412065869704602,0.022461251971792658,0.96433269693255697,0.12061071690352634,0.039403694712298133,0.343538324683065,1.5548866433820698,-0.24177193967128469,-1.4186832145178514,-0.17520697619750994,-0.91301201678515864,-1.3757767727542463,-0.77860703828586675,-1.1794451653441234,-1.4271200008498999,2.4178978475449435,-0.45497302273371065,-0.80589859334880154,1.0625641003778836,1.4351611452160313,-2.2819460280634316,-0.2539354097188713,-0.51144005343285992,0.69051274227399861,-1.8771854475907948,-1.3508829387458765,-0.85664207291865258,0.97307609102845305,0.036369135990478446,-1.7249938743979363,-0.55782158739504828,0.23973080885246129,-0.34096589576498815,-0.48432767125375509,-0.39894827417060241,-0.33994530955530927,0.32836283236597891,1.4270961309101904,0.50944004762661299,-1.2341747793324547,-0.45944019933602376,-1.4379123583367162,1.0069730832477919,0.13410096059471613,-0.1362060716055053,-1.0335988660190429,-0.82384652460887153,0.63794340352890733,-0.35429743599075908,0.67938864273295418,1.5682714213056217,0.38898748982260911,-2.1017159461981803,-0.37956693503862549,0.81318597078563681,1.042995556654962,1.6006669655148871,1.2144944793378403,-0.67028644238363988,-0.19982137409242162,0.44795164124238718,-0.0060219885278917241,-0.21068882524717575,-0.44835722222939134,1.185986262096552,-0.42632008916780317,-0.31199871173035926,0.034253609690175428,-0.83500112807473492,0.89334442139759662,-0.92650857759706307,1.1287295687572558,-2.5183254217933397,-0.093625179038839532,1.7352364604586981,0.95265447314812057,-0.3773535135595299,-0.42969336291161564,-0.68338201463120407,-0.24227101168003079,-0.14601232238082604,-1.3232865845781598,0.51249254957215151,1.1674449112216778,1.2152173277382303,0.67709586639393848,1.2541145721690536,0.34214657109879953,-1.7008183102003454,-0.38928612967403042,-0.61768794585762754,0.34968980704253322,-0.1997674830239497,-0.24542402519612086,1.3982079321400731,-1.8151280736143542,-0.28517169356940703,-0.12688171498027567,-0.77651253739919568,0.041333327576192666,1.1328749986795175,0.56641103305142582,1.4801893662878463,0.75767418752492444,-0.86121374704771725,0.91064084103552734,-1.0180014570185028,0.22770018440760739,-0.34459700184159542,-1.6543033764599266,1.1386405168681559,1.2928224172776874,-0.76172466817454854,0.45469908370428258,0.31602372891249086,-0.86986224547979529,0.60807461863049772,1.1012472685722638,-0.04065560524200889,0.93561063410895895,0.98869590563266319,1.2973100351802547,0.29813578112593175,-0.42723435490018213,-0.11941142143324956,1.1382391250038602,-0.27950529945611069,-1.1758265454660459,-1.5007477451725277,-1.5436018134885701,0.40179788480539513,0.71127621177323597,-0.22070361909787101,-0.10725877078797172,-0.72668777424906883,1.0831526845221922,0.54750815513242068,1.7803710467321936,-1.0543294420264748,-1.3934636392305597,2.0929227793539429,0.21635586229143558,-0.25085002623854791,-0.23497154121847735,-1.2045043243661415,0.93520901667812162,-0.6538548598026791,-0.81220973273783814,-0.8872618503352937,1.165109820836171,0.75858481492701602,0.67157411301892356,0.75793295804636485,-2.3630769831411262,0.86633554867837437,0.55198967129880094,-2.2979674918831359,2.3032513474019201,-0.94297147143257953,0.74881558376190172,0.4799051916353359,-0.78938309856081212,0.76064926122731802,0.57379530020996217,0.90694599538258092,0.51594876898683184,2.2170286285096128,-0.21652371676354665,0.51281592355877825,-0.066610405275172896,-0.92715109256125061,0.70238132485475058,-1.1058546066425274,-0.40376023371823055,1.4780130189361975,0.62850162719856295,0.76425345464691474,0.81320818689597407,-0.010628054184747814,-0.77957916211660094,-0.87818801169034966,-0.30971275732195985,0.63292832041667346,-1.2139557729686579,-0.82703177478331058,-0.13752224296168644,1.190189952596483,0.54404548971912137,2.594818550407648,0.57240313146036004,-0.85011901993614236,-0.63104887921397801,-1.1348463217189411,0.19843087195461004,0.38304746901061859,-0.40281100638560241,0.19057760193877027,-0.27711705140372667,-0.22701106472998622,1.177281991708222,0.88267717203230234,-0.50852874724481689,1.9462369263433241,1.7574744462209984,0.94704533118967593,-0.63236489005252228,-0.1085249396728373,0.72771269644539471,0.27527281874869736,1.3838349060094144,-0.076403760137451399,1.7151126865758428,-1.5537729086652288,-0.050939767668414765,0.89403848635756278,-0.29488050160120466,0.68367856569210317,-0.92738734166854941,-1.938251402933753,0.16014103648285757,1.2806573105155277,0.62019731295199088,0.14503650582587405,-0.087683476868462187,0.68400212172743613,-0.58270215119946012,-0.14620220707667533,-0.83345843776540707,0.97867482317052357,0.79201621669162114,-0.30727436196119623,1.361335687996321,0.99153924186569975,-1.4854398369746042,2.0896657403015944,0.82772379249005379,0.55844802421558659,-0.48045299259743041,-0.99906909361318041,0.29932009521200575,-0.47103628559107463,-0.085217858621946682,-0.51681730233276602,-0.73806747328266065,-0.10923104330803757,-0.59286770103175912,-0.56290896495446097,-1.6531799405901153,0.080715854417976449,0.52715060815897574,1.0285729057227155,0.093833101989259704,-0.82128889979933739,0.19486896161440376,0.27377067412451411,0.17689623405850574,1.5781649920011926,0.030024751948741921,1.9187381073123093,0.07791434972091206,0.92164094355871073,0.33513746096789299,-0.54469557681872272,0.3700348382497079,1.2297768318472899,0.81886919526322488,2.7562351525798254,-1.9143264735848284,-1.6246277256599391,-0.19189449837192088,-2.3847079788107006,-0.79908240778385131,-0.11839563018219659,0.27647946214851771,-1.1365961954518449,-0.39950358005111841,-0.81446930604610168,-1.2879030125334636,0.46114070464928991,-0.31312218341953746,1.4375279248337307,-0.78728363248593347,1.3145697513358432,-0.79593228452829168,2.0907520789748602,0.2819860487648152,-1.7369288491278034,-0.44659614872549241,-0.34983869720812427,-0.53817623097860889,-0.36871890319889239
0.16434362918782669,-1.2427320808421021,-0.42343817331380651,0.37754453600318116,1.3742527616754667,0.65345895107962648,-1.4709326574950139,-0.24724501751509156,0.082830399474441874,1.1264602851295329,-1.5243441291100808,1.8839397819871175,1.1354272250865176,-0.56615882716375532,0.18042221548524315,0.45507729216314791,-0.04153345660606448,0.37284434277472223,0.1699723844944126,1.1303151588245586,0.64906934918965731,0.087810745936116999,0.10357775644737148,-0.83553990356098018,-0.12156160542475281,-0.70377279633643519,-0.18426647082501116,-0.51214791217882172,1.2063175960033621,-0.13619122188730134,-0.10413183502215387,0.23318902902569458,0.64431129691128297,1.2958255216652383,-0.23425518581388768,1.3893472583202784,0.94797630175604253,-1.4048883627863711,-0.37003702285465673,0.34515176638096423,-1.9328122945500581,-0.81226994805894182,0.28838355805007848,-1.6964391701332631,1.1378816735685908,1.1396373557824209,0.66521232865253599,1.0718220345779019,-1.4087088172458475,0.44018406017438827,-0.12211126498602384,0.56466800330399125,-0.19770018250874219,0.42565374445512938,0.51495579313553641,0.96319793965731537,0.66730079651847696,1.1313999918097313,-1.16860302156014,-0.42027510731334378,0.69233317122102389,0.0033200473716429781,0.4858646932740594,-0.26713184275182039,-0.46914737876745455,0.41848735744312687,0.62834014214430578,-0.58207815603818869,0.63324882972328955,-2.6988231871353259,-0.60162024319101337,0.60565916214041871,2.4621972962791334,0.99271811708470514,0.66591824969921587,0.13661653535243004,0.031142259523856339,0.79438095460498981,0.96420336994848921,0.65245240606721833,-1.6593028032343533,0.32768867738818136,1.0142222478292855,-2.1626599059660379,1.3692953401099011,-1.4604651372155468,1.4161266203940091,-0.8946012426311365,-0.20205941362984625,-0.46914618991416979,0.99482945515593313,1.3984478123946915,1.0692478001865549,0.49188575032880921,-0.27022433862106443,0.66484008134939743,-0.21873604600196089,-0.070887265176583295,1.5005787208271795,-0.9309104757706208,-0.24960546048931745,-0.71705523426144646,0.55980504693967936,-0.28967226700876203,0.64192896720770531,-1.2014472545907682,-1.02994607061923,0.02950869013526599,-2.3024899177690421,-0.83741542382561418,0.00095540894003653574,-1.4968045121906228,1.6753166982629717,-1.8820259420787098,-0.93980038338648986,0.68383286896372553,1.0529311466457802,0.74141186599283626,-2.1130521002138352,-1.3536543569766251,-0.20116300696508907,-1.9311138237956098,-0.47151290617617547,0.12073457436326149,-2.0967551578844419,0.31551117879265023,0.31973171492199648,-1.6941998045944637,1.2447528044349752,1.8871871182409516,-1.1610191933580258,0.56712071459258018,-1.9703427307472712,1.4297584478926277,0.6528291580655462,1.2292303717983242,-0.28406133886499363,-0.82837184757825011,-1.8834078770229843,0.77771382470609596,1.4828982322325182,-0.37705119748613708,1.2574592110810141,-0.43791723774417224,0.41373664151501699,0.93650254983688175,-2.1573286823125484,-0.14205744374353513,-1.0380864033316182,2.5923541554000851,0.28384580864985492,-0.65951603516756696,-0.0030776949475430234,-0.071958321232946085,-0.38815569370906372,0.17570261987219241,0.1050815775019279,-1.1336680715218095,-0.77207022865643671,0.0028658210749556981,0.25096205610199457,0.76826218460745277,-0.46746397590809602,0.1242395570435201,-1.7605871405170612,0.27748825957898821,0.42417852188771421,0.80714723057329929,-0.75159659827649949,0.39792299353627875,-1.7799915753172484,0.39814103843349358,-1.138821304511062,0.12183260773285097,0.6100911464374994,0.92792083727397356,-0.89461074756215841,-1.1636177408076989,-1.2013515940609794,-0.87746670462781018,1.5702648065794083,0.76536808226179343,0.87902967587828951,0.7067018189506612,-0.82254901898233923,0.4247989687510168,1.3373599829469833,0.21748118762414687,-0.57054369636501667,0.33158138892878464,0.089002412961597777,-1.1366577979323029,0.50938180701068347,0.73618500445014834,-0.081082416024821427,0.49933843728982064,-2.1248622594082569,-0.99638372102929351,-1.2910909258255672,0.021723352936351609,-0.33335570492591909,0.57117027267918685,-0.69364037453060057,-0.87286926757371364,0.040332301630867776,-0.48195724582271959,1.2451064018115401,-0.025243649392535226,0.11055646968161305,3.0999620551810927,0.062782316669933377,-0.47456388463905896,-0.4961301396366592,-0.82035977083587142,2.646152074827973,0.089043094100277484,1.6841292962163854,1.1250057266169673,0.95299161229409313,-0.028736106807449872,-1.1877565624960527,-0.079554034462411133,0.93224557332663049,0.90168487105499584,0.24469429955982916,1.8839796901382864,-0.41982455078716502,0.82041209896316869,0.096580504614082727,-0.18439437602078335,0.045501628491543995,-0.44173042318062111,1.5083075879517964,0.55622704463062245,1.7826837903950987,0.29800593144520032,-0.99897501493021457,1.0155718944976153,-0.16149439921898212,0.11210333278664994,1.7711277010739639,-0.26276786206811292,-0.35091001010212497,0.37059728423364435,0.39176023792727394,1.5159364293321673,1.779412270886561,-1.8885041146412713,0.96947477094933965,1.1044806377703309,1.4090926707706137,0.66482905117261115,0.76965480911539574,0.20420134500670478,-0.32921023232580615,-0.25076343912386356,0.55528892857588052,-0.35338721364723247,0.60298403212569573,-0.56894356121493073,0.6479904398936619,-1.3416954944353434,1.4930750605660481,-1.4304160026577244,-0.90878392488665227,0.26130492307337999,1.4085204267135614,0.52031634731116794,-0.23350516392498832,-0.40298960562275704,-0.29824828126531194,1.0159484721240319,-1.3987969599344725,-0.68794662248082794,-0.16047597115709825,-0.36641505526753354,-2.2413068814531325,1.1448589263559279,-0.32055133391451579,-0.30959521664651773,1.8880523125156112,1.4392898551030926,-0.54649398116682546,0.75971310165474104,0.00042236266434900541,0.00066901057036589768,-0.24116176831457725,-1.4955817685187285,0.70106392421099861,0.29746573156472733,-0.93138481904909343,-0.3376112983707743,-0.19862804237980336,-0.94314189195509956,1.9368783696872676,2.8047333429042904,0.087093143643583365,0.49964921276598689,-0.71571294606436886,-0.017975197383333929,-0.036287296819626141,-1.5351106368260738,1.6357030702270985,1.5706260061898265,-0.40462604060240143,0.66402270848100975,0.80634392818175138,-0.48779604632789181,0.39124584552910652,-1.5283245726596604,2.1246755707063243,0.2735507446339569,-0.72580555935145752,-1.0257218534801713,-0.32901703634161439,-0.32222174933605913,-0.35822649343404867,-0.9878572420893228,-2.0474857791052816,1.6012981044143653,0.84076304605413965,0.63432122273223179,-0.21649979627110619,0.99666134257496242,0.15970894111244516,0.07082826980679853,1.4418632270752367,0.91253664420537084,-0.0047722656392510908,-0.53824246341051851,0.10881566383231714,-1.2199765567389662,-0.45801514936179344,0.27337525989991263,-0.40121390340884794,-0.35541208790024986,-1.55031150105492,-0.17190278639567455,1.7692332366546666,0.40947928892394508,-0.52262857429309229,0.36423310175723594,0.56465496522212955,-2.0491459159723089,0.78333809164970314,0.042848884486432877,-0.088933194388458869,-0.98408385132917076,2.0899010350640603,-0.18415661916133874,0.59646054444231122,-1.2893663732362795,-0.34572477272043356,0.71228075448122385,0.91349379042517986,-0.44867795128682825,-1.3755076068526799,0.6176712479821459,0.6795746326249168,0.92311092179687504,-0.27084182832966835,-0.11291899571392106,-2.2735681049885179,-0.2143698436469379,-0.91633189382036162,-1.1161750972909077
-1.0697701871868939,-0.039347974163479668,0.67959537809219339,-2.052545327951524,1.074918136574774,1.710752942224149,0.77341918654654762,0.25642482056138149,-1.700654485524788,1.8388211642944929,-0.21715801829283976,-0.28294239760378731,-0.37956806493407991,1.4160117732881914,0.4810836292188535,0.22192492144392381,0.22679661951006794,0.75649266707437846,-0.58944177010833199,1.0307085767004913,0.93059960507090111,0.41495580984065061,1.1004676980951833,-0.78317448156220981,0.95093463356548913,-0.050027282501114038,-1.4463959587100372,-0.58652233903765372,-0.043927564451094914,0.73048453127533319,-1.184647169603902,0.60619137888946895,-1.0175369926748064,0.25811611516293975,0.75820333515853,-1.2665980199461271,-0.37107624562058211,-0.33651508083742626,0.72188134020567907,-0.62821157777201742,1.3381767022105173,-0.7580639016590115,1.7862502864540719,0.18334719898894083,-0.055200770365406125,0.055033191367428097,-0.56224964633496188,-1.9171762843444902,0.98586829713421431,-0.26506456253992439,-0.34024599250010878,-2.5676414027889587,-1.1867412473459436,0.54534412091937479,0.50536589503674345,0.64176161123892583,-0.11266112079614153,-0.47312132333150353,-0.83647523553635583,0.51358347395181603,-0.55491402451375826,1.1288642566821079,0.39771786883142823,-1.4936189436568037,0.058067820192419135,-0.31010468042268352,1.5613590440140783,-0.42166589164860085,0.47273653611759242,1.2730293845946203,2.2481084296819054,-1.448757412967695,-1.453102261237663,-0.033425191919118101,-0.90991732628772026,1.6104558545975121,0.83218995087282854,-1.3953008385736236,-0.54406019237482228,0.61779432711160909,0.86024931638173463,0.95035760586004392,1.9064060846747353,0.27232390433974468,0.12379710467909386,-0.36177751173754163,-0.37728561404679989,0.64973619118157644,-1.8097169815954435,-1.1630145425949705,-0.44195579866776791,0.43067031259078553,-1.2127294172692333,1.1612076586843356,-1.3662109449861364,-0.2166793269206847,-1.1304848083517196,1.5878322254168677,0.75526501758294284,-0.23821898236077022,-0.80997622502354416,1.4814731603796369,2.7207129018422447,0.38509709319852642,-0.85097002304410019,0.92426980158728567,0.22196737621335819,-0.46526943279452126,-0.35116063177332268,-0.3209798331382358,2.1027960433649153,-0.5446033450571649,1.7366134034858907,1.0558334698982446,0.25716806005002402,0.072424925000523471,0.064054021171206052,-0.63041246428937958,-0.033107899616262981,-0.57850822371037391,-0.45386321715263062,0.26989241073086861,0.70489857417885005,-1.1195260303284402,0.40842707887652024,0.23133324351836765,0.41648537458875445,-0.20214700397154362,-0.77121939095862679,-1.3221418257299526,1.5929521849515771,-0.06803723468312535,1.680170868094498,1.9543723288695627,0.1216482254251925,1.7725250675853923,1.7498802730818783,-0.79624196445453976,-0.23557672670169641,-0.59696728737638516,-0.45598991665472544,0.69982987774466576,-1.0156098270923688,0.84802127480314093,0.54714443204968766,-0.0398978424622091,-0.78420647695299095,-0.25983289136040333,-0.83151587521327042,0.74026357328919656,-1.7260186156723936,-0.15998163569907445,-1.0466256791441928,-0.50345218701506467,0.31251926811405317,0.52894225438106424,0.20950384247403214,-0.54997195347502248,-0.39047548334866838,1.2091702157232684,-0.91756496713358138,-1.8034427858969375,0.95460685840206128,0.27067126140324993,0.89786939124621157,-0.76154188717104132,0.73965319710383315,-1.9616458422906535,-0.10202983451635354,0.76696250707435465,0.32766564168947165,0.40878543618517815,-0.042652300810233544,-0.67478803984239777,-0.344020019595214,-1.356208298753826,0.58578610824843735,-0.41355833029491457,0.91148560739402695,-0.48357268645328078,0.91418825861768371,-1.6995056329686939,-0.076370451873269643,-0.41434401822784628,0.82360581653493226,1.4707472142043803,-0.24278043688414458,0.26859921603138226,0.10843383024859397,-1.7808959314053827,-1.8196671468499479,-1.5775499675434828,0.62610217009104807,-2.344220890728193,-0.13826272332429415,-0.23246327609936035,1.1237304121095331,-1.105275208397245,0.81356396013428833,0.17172960088165976,0.87520632687243194,0.32958782252839991,1.799940100681279,0.51987851789014172,0.33945865703072642,-0.41686620759375037,-0.42127470432762376,-0.07561763817414173,0.27168389121459585,-0.31154730866291597,0.51378476254816385,1.2084217205308776,0.48189094524592319,0.071146088162907711,-0.80850311866014535,2.8540269480930185,-0.97283554748443635,1.6835547148879284,-0.86899973070945569,1.7772874738917404,0.082773060382765329,0.072287383344421974,-1.0997192471178097,0.46204706247828731,1.2061046314677963,-0.33293102512455092,0.56114291629631363,0.39435064717968615,-0.12168026200726691,0.21447672097339984,-0.35315568760343319,-0.44541675948454057,0.094088360123830928,-1.9536619616827315,0.010916265314366437,-1.5015835355735754,0.20639790158101481,1.852145095909469,0.032636934413053258,-1.0832130605218353,0.57509222708475194,-1.6343397203091474,0.51778703347557242,1.4250384654493697,0.51304276811344052,1.6571095926859738,1.7563582484016871,-1.3041734644142782,-0.64086515664580501,-0.02151083914463657,1.912664311195442,-0.38541155743846661,-0.36152507032859704,0.50232024996735958,0.6287980424860139,-0.95025697835521383,0.29955672865205873,1.5181238099859671,-0.75257246875394279,0.11824303262705152,-2.0502761502990436,-1.6494538938496044,-1.709492611445137,0.89704983275689187,0.012595007371374546,-1.289318051811102,1.7347234530965456,-1.5690055247022865,-0.079026264851842873,0.54057125481081114,0.093090420181708655,-1.1954609625076411,0.87811811459284572,1.7276287467924238,-0.05083759978547378,1.1213280937201766,-0.076477316312046559,-0.8288792610197554,0.1774642554087896,1.0273150981594683,1.2074438766331199,-1.2684125624293399,0.31860270406987112,-0.34837580788369366,-0.9686279073799593,1.4698321171886017,0.42331614458508326,2.4018647092954599,-0.52325385366555555,1.2240814379965461,1.249902932989096,1.4610995234865554,-0.77785966814396768,0.19464656997502253,0.74561719455453213,0.62067548015063734,0.81572306165638508,-1.7880413498132233,2.3849288042419605,1.1634269697103701,-0.01598713628453044,0.78667367651764519,0.30648564233345776,0.099383357803327688,1.2937483865633554,-1.3404015895185897,-0.92754691008098811,1.019511387730323,0.018375376796824265,0.58033411161752124,0.8074187122465456,-1.7725329260769034,-1.2663706730166946,1.0749737679375695,-1.3063107063328168,-0.9144563187372492,-0.67584840254798728,-0.41319827951563026,1.0309506451921782,0.5138936003521013,-0.42049718321824636,-0.82398820904985293,-1.3044149653478017,1.7218348722842667,-1.4201058789143317,-0.97845403146211107,2.447589747693236,0.62865624291371647,0.072344682537110294,-0.67531736434239442,0.77330942974805905,0.58790936771273516,0.40844739834763216,-1.3714106793373952,0.041163920193032388,-0.28520461344639986,-1.7955834382457345,-1.1191766643587873,-0.51512062311026929,0.40778153284006768,-0.36307340284850448,0.2129306685686212,-0.90125971369612845,-1.392925110135774,-1.1195944359134462,-0.10796785514911554,1.2069997348766095,-0.38479322372837949,0.1971131767161248,-0.12749642578935352,-0.67235252370332665,0.13767202093020869,-1.3400176623098092,1.111282138723789,-0.41404286144923025,0.018483083240342875,0.22776866919122965,-0.82790586373778019,-1.3080140822834039,-2.3861108812193117,0.42625119096347913,-0.16100655883335194,-0.54991581775227205,1.446921814450445,0.42342966448645797,0.88737117617209749
-0.29747102830747801,0.31726779417491124,-0.5190061682107503,0.40483559760154297,-1.2166257659229542,-0.83513425854506995,0.47194798487475031,0.48538963747725139,0.26836576102515353,-0.32739697159039177,-1.5571395747425145,-0.1340510237097072,1.2792098085404549,-0.61578332286542736,-0.86893817972918919,-0.97753091566287176,-0.42020508947618374,-1.6152817676322884,-0.4543338737024199,-0.44131026422961755,1.578419670398356,0.80188900260803697,0.16951953622402863,0.20565981275075107,-0.71797945867953938,0.37717256728805915,0.16059560678947754,0.16571265011113359,0.44028591827858177,-1.4666830499008749,-0.071060836462222873,-0.0028913430469404196,-0.61301719490309892,-0.98630560800263012,0.037168838907486408,0.26174274551700161,1.0594114289973997,0.62869311870729183,-0.05647838305847494,-1.0029288122913362,-0.55323480276181114,-0.15380371218318653,0.41333680172983661,-0.46244887239227817,-0.095368218083505554,-0.92688788166627001,-0.55712904326083268,-1.1348288068356382,0.42460073435177986,-0.012578211449797887,0.41771293821606609,0.90832328464912437,-1.2648983287641884,-0.66800081187232352,0.68454135296355834,0.34056211270555764,0.52254659638177436,0.94508984579764865,0.14428124281972221,-0.21267180915880793,0.51833781100442111,-3.2523771629211904,-0.26835381717162726,0.57926478398382486,0.77505589575503031,1.3528381917448602,-0.92973087905068474,-1.1733642580719208,1.7278991698662003,-0.60835332971786382,0.23371275702663716,-2.0324431217479724,-0.6961120639794921,-0.21823133958734248,0.41815964710985981,2.1098006212505087,-0.22136243419242266,0.8841403946152987,-1.0149270498372049,-0.86899334119989857,-0.95691576098850739,0.54337802169122651,0.17404569258250216,0.90655816125129662,-0.91554668273067497,-2.1344521473552027,0.51184411446464717,0.45099916538339707,0.88707152296743019,-0.27404323902629862,-0.84690383148627935,0.5644184822145818,-1.0168210592578715,0.35105524209614536,0.26104876309336472,0.097135746656691072,0.89990758651590896,0.21242336821681077,0.411664637287881,0.32879878655757439,0.27780895125883781,0.37572669019441562,-1.216874724977226,-1.2060216343160304,0.047485833489981789,-0.45612970608228709,-0.12087614025186544,-0.35056842083605261,-0.074315010866372072,-0.2868930050710809,0.30567587769687182,0.36670325919592045,0.91967626570667294,-1.6343693725340178,0.78051841824003854,-0.97934132177808686,-1.0677532563311689,-0.3159439783273662,-0.2577198864503279,0.26255384737280418,-0.89273726916908824,1.0415456414550222,0.16109792529715158,0.024806208534802223,-1.4323369114995281,0.70197391212310567,0.44381062817141298,-1.6281363718996931,-1.2869153656131795,-0.62840458159118251,0.3064996720977482,-0.043413399172025129,-0.55307076474357075,-0.16435375204299743,-1.8039769030454489,-1.4877366507092826,0.019685663272240965,-1.6288014929115791,-0.41931903114761471,0.92781241277536386,0.33462707607357145,0.77411422354477077,1.3523683801193001,-0.46763473037793335,-0.97668050445214316,-0.3034410282328735,-1.9158254372172958,-0.56516934266740704,0.92684615698961592,0.45449782361139751,2.8124376370533848,0.22508329766060275,0.78266234235091869,1.6133269485813286,2.9345200693977977,1.6965579369782984,-0.037333768039518704,0.44071549477789757,-1.5107925090873906,-1.3817931543582676,-0.34713516960618218,-1.1760751210191649,0.45988103466011154,1.3701698129342748,-0.53593057070772232,1.4321449973378468,-0.67992624724020656,0.55970736541707256,0.78052450192657818,0.46378304138618048,-0.10719026753591612,1.7074876093008724,0.39232619929073287,0.68590990051503453,0.44478201363044345,-1.190529984796644,-0.18950425900867654,0.95117948771292016,-0.39852083682684486,0.78004776236074325,-0.44225095435067868,0.095102712224036365,0.22748475019053996,0.36114102153885524,0.84706469871524681,-1.1366321337753877,-0.26970503999617162,0.98859873170420154,-0.94718877092197018,-1.0280556198379409,1.5569949013640576,-0.41901978512713367,1.6594509346571069,-0.40080731984198165,0.099408794498587597,-0.11659816276771108,-0.72947075201948663,-0.24451611392920444,-0.27839480008922429,0.97445003961315824,0.41728809401206407,0.53940067641550549,-0.26179312820257084,-0.0077227223393518613,-1.0843193270777336,1.5727126320759319,0.85780499322124548,2.2025133848588636,2.9978925806781076,-1.572347420503152,0.87566112048138578,-0.027070491276140141,1.0714451909371365,-0.53222495409300208,0.046908986617467147,1.7761017420974392,1.1556297460522618,-1.0146920833812971,0.33774365369949499,0.11881810931332436,0.14342037032535135,0.51257883407425608,-0.13754924173950617,0.12096582093559485,-0.585250829904574,1.0675956431150637,1.3562507174596306,0.70233565825262745,-0.3738218033232531,-0.68842258425030745,-0.14320786788477105,-0.35010079868346278,0.76724170001067982,2.0614496709106067,-1.6478329269458256,-0.9927899809377162,-0.34264611129808542,1.958044401419045,0.25961410654069184,0.27128540398232326,-1.0112325927017543,1.0273638439058108,-1.2893080572766025,-0.30964486948144743,-0.77915175316924623,0.050421122124030014,-0.91935899555941203,1.6009016345484841,-0.0017495408532701004,-0.57950257613084921,-0.55315120391534367,0.063792625207820822,-2.4179635021223937,-0.4468898924981296,-0.59009568470671936,-0.61052403062601757,2.4400907168985984,2.4987163993294739,0.17437432725229937,-0.25350653862092298,-1.2100120852230543,-1.1405315569746859,0.63639844801834067,-1.6719981296884334,-0.084366834630677207,0.071532662981373368,0.83313524793911375,0.58489854826776733,-0.034246072581446678,2.1947876306817791,0.72202282614355384,-0.46277503666284242,-0.37850859770872664,-1.6838444256434191,1.6220795875363727,-0.26868960456625884,-1.0040991404486896,0.72269933093569128,-0.72772529204326541,-0.78975410430033954,0.24579161094031066,-0.71048146493777886,-0.42521216689421937,-0.76014172571883953,1.1917298659925712,2.0703814895957602,-2.1452208873261096,-1.101526536298769,-0.42519512365250095,1.0204890082554583,-0.038537876858293664,0.51907578838280488,0.12592548397105746,-0.020569085142779275,0.96863648868829844,-0.98297382493674823,-1.4969285709127,0.54910050761042539,-0.092937450667081298,-0.65582039629387956,1.0286494355757227,0.37329598302376676,0.99259130217654712,-1.447856922140655,-1.4443460026850434,-3.8872198064796635,-1.2308707536107224,-0.03695176608301308,-0.27138767921059848,0.84109303207151398,-0.23076287868531647,0.99150473252424443,-0.9215486908794559,0.7312339202742133,0.25582472427924458,-0.44888507055812149,-0.80480826454732501,0.19955515326100332,-1.5672282721106499,-2.1441731509728892,-0.42520123661845821,-1.0242416578350013,-0.38252494568609746,3.2024324347793742,0.4055836258095154,-1.861326737686454,-0.68172728165873619,0.16955415675567986,-0.50058443654586449,0.32346678128503786,-0.48141253766421427,1.4061323923159066,0.19067054005462009,0.34417890672525125,0.32174208240795471,-1.1821862702158796,-1.6353049758731752,1.2576686979127916,-1.3827757104383369,-0.54986027368385826,-0.52981159057679772,-2.1129485860289106,0.20029500029199346,1.082719043208672,0.68521804164378164,0.18863154810958752,0.26641847402296964,-0.2150735337421667,0.090231317294616059,0.45059038550677266,0.039222689363438472,-0.024160268494827483,-1.0746812429378279,-1.1831328569461352,-0.45644941590853616,0.010809010930618786,1.0495319115228041,-1.2144378151088731,-0.093106454514452444,1.1298582132361188,-0.36735748872624047,-0.72927879354017011,1.0283370738328983,-1.054948880256902,1.8438700731181112,1.234465455347189
-0.65208462711111426,0.8079189657151804,-0.23024843360750305,2.2640848196705825,-0.95223244199188983,-1.4094261298533801,1.6682361270181525,1.1866640984221088,1.1319987924329358,1.2042382226677391,-0.041114505871947711,-0.23757048463101768,0.62670540996372015,1.990115463311275,-0.41476385732495175,0.46313668034742272,1.4351675656331528,-0.81184562177041586,0.68472734495394505,0.32284996205434979,-0.83363708474328668,-0.60881057129286997,0.38339813141928009,-0.011752103610458135,-0.87164008546466643,2.1335916327357034,0.4804833593740892,-0.058782896954266237,-0.82318213170315546,-0.72354803684408153,-1.9347021301368523,1.2190050339057796,0.38149423035397789,0.96632596127024428,-1.099777845992135,-0.88722781353541769,1.0057053159271319,-0.38746761762880721,-0.46703275944321748,-1.1558678792188277,0.97691693338453234,0.28584744933710043,-1.2461767523671194,0.82907521655849148,-0.84854718672292206,2.28873123269724,0.78119960614735462,-0.046423974342006805,-2.2202437460660946,0.0068988758633718736,0.5305665034683118,-0.37330399864964253,0.82673454324626217,-0.29124644360732654,0.14638185991835909,-1.6307391913078397,0.10172545673263046,-0.63422277763678869,-0.33703384034306794,-1.0909584972318274,-0.19646091083200301,0.90015705896500142,0.32916607233705536,-0.6392803085422023,-1.98604639408081,-0.75204384708256011,0.62691667364429671,-0.85361837263271767,0.50255638691004423,-1.4473654421243314,2.3126817874192853,-0.86854076193258267,-0.0024393473671095994,1.7120599905959053,-0.40068301932886818,1.6321964805379932,-0.95647486118039327,0.52003801774001146,-0.24191091283169447,-0.68633450011278552,0.048766736446148512,-0.85658665238779319,-0.43748451625657725,1.3087240598440271,-2.1728874779673975,-1.4675179269082845,-0.85324888798363652,0.03692521620358151,-0.4772025314218617,-1.7497528861382234,0.11933719072555787,0.5078423411285129,0.1971951002014761,-0.1007095505164889,-0.02787715992735712,-0.41360225533406064,0.58905309539120254,-0.62674091066887083,-0.14091284246452571,-1.6872009731010174,1.2669748928460434,0.32140637140900213,-0.20574289214331204,1.0722322862852696,-0.95016783793733084,-0.38762851218475819,0.89685288141047181,1.0688081407216026,1.8575253543000489,1.1501633920964329,0.99607773090243201,-0.71647567470462359,1.8760187628611074,0.034903450012234445,0.69241403163982906,-1.2026168946863698,3.3755982378119831,-1.1356591617807563,2.4829362848157825,-0.36605331367040778,1.0605623788240168,0.28480347765419534,-0.082321458883066162,-0.62267967835929561,-0.22302797970289839,1.6697745319069415,-0.89356667843339599,-0.052207037026543349,0.54288383415590857,1.3477730887714308,-1.6491763832257804,0.084440465700832412,-0.71968371789232966,0.10483830904402018,-0.42518272817864461,-0.89824399397439747,-0.22733983566201832,-0.96930674915522486,-0.69720948506940661,0.42739375490516934,-0.65433811354341653,2.1325309968547623,0.31980382279422592,0.65238971571445414,-1.1616725234202137,0.58523756260566095,1.0484220701338638,-0.4611905240027685,0.23477876013230006,0.13136995708306945,0.91251967765383801,-0.51497755980793714,-1.2001007994492496,-1.5058807898929514,0.70682223247091747,1.0286193007480084,1.5884192055178767,-0.76820660980325683,-1.4703261669807992,0.036918416889103592,-2.3694082558755425,0.019789056145604451,0.10699337584193686,-1.2052606809198232,0.042084750006124959,0.096862335651926562,1.7134458214362416,0.33126155625320597,0.37084969788491562,-0.066357796063330809,-1.3973752043210916,-1.3441550679034346,2.5499800172157183,0.25432539677619287,-0.096503154582415582,0.37856468836993684,0.42112525818886265,0.34607749611684246,0.043967507146634686,-0.29718770492310104,-0.77151011452742302,0.26909192073184668,-1.1036916851011964,0.71005592642000914,-0.021542386740566702,-0.83149442007658625,-0.49787385062153422,0.088362973789392035,-0.046005698121674959,-0.13292203790967239,-0.023888003627194648,1.2620977367923327,0.20404676756768078,-0.14894805588603977,0.1700769904195861,0.68163589549224113,-0.23741993280629592,-1.3556044353754373,-0.64888297398667338,-0.9386753657413297,0.47296850407912855,-0.59074788114427279,0.29267077081589471,-1.1297547312146772,1.8280382343748203,-0.79017837364996968,0.089132824854390613,0.002905818384877711,-1.1025873104706572,-1.0968312825618325,0.62142135414742661,0.7524314201494624,-0.00054604850378076259,-2.3595604293166743,0.39744132470578331,1.8211443837442911,1.0001769614565701,-0.35212399902740193,-2.7086137287294982,-0.34370057643400381,0.91346569611113904,-0.074444037748054095,-0.31488706637154606,-0.84295160386952517,0.62152621447402734,1.1395606062558832,0.16134813737184064,0.65856883450673465,1.5654570502292413,-1.3048826534120583,0.48945207650576766,0.65725119136860355,-1.0794326308428477,0.65644974340856899,0.95058484894865991,1.3872943795069248,1.091009839067034,-1.883886551928118,1.5009714911043341,0.10467887219409641,-0.86455995336284386,-1.99638734833395,1.7308592163251404,-0.1600201673378277,0.57678237177383218,0.3252032238511352,-0.23205215837674298,-0.31545553191245806,1.4225320430766062,-1.2561562563111872,-0.1206355739225779,-0.59276058500320861,1.6653114685640706,0.054796368661632039,0.29125132589945446,1.0161665610558552,-1.6186337279634839,-2.190190104201692,-0.035726958421284989,0.71036349449776481,-0.47574878233250723,-1.0080224126038329,-3.218718819292411e-05,-1.1110572156381646,1.266877494060354,0.12647437172010906,0.097761592226410357,-0.40550818967290142,0.87010356053609794,0.2874305293692721,2.0557060413098722,0.099658046401284742,1.5287507940250027,2.4760392666373194,1.139713243169024,-0.34248222820186097,-0.82198417582708172,0.45372039628242911,0.13351418874279486,0.080718624095757141,1.3443758956041572,-1.0249231118292466,0.1482122836195203,-0.84882368148160736,-0.054600343110462281,0.30012055018967126,-1.2337905677221428,-1.2895387103834042,0.19656669976834593,-0.2171825310494499,-0.069930893389433355,-1.2578541480565988,0.38614511871031276,-1.5314604352163985,-0.76234762295554415,-0.89465211235241837,0.98707730416169093,1.3868893364489787,-0.36704538568358308,1.2716925423886334,0.57046694108908103,-0.98481071628071304,-0.053606469736169594,-1.089373012450269,-0.34230269252616335,0.93227278270756797,0.046361911877870053,-1.6293861358309787,0.37456564883176452,0.024528357711419778,1.0667644575819064,0.59971763915098231,-0.42872461433484599,-0.057368829706891375,0.73956696779011555,-0.3779854302465675,0.6042255863435434,0.29858938943267305,0.72253025383396996,0.78884924782042332,0.78484504594182103,1.5391400259907295,-0.82696384739251028,-2.8560262308207678,1.1530779540385774,2.7334499108610641,0.28629102596917205,0.58620722470550002,-0.73679343472219916,1.7593793730520904,-1.1856793713555187,0.31090897526696831,-0.34738615273354695,0.83005054217796903,1.7769228815803051,0.99270018063238341,-3.4366885864331378,-1.1750662963414196,0.40800549908259592,-0.56052098898491665,0.74874897173070865,0.91731430155988913,0.19395750665626954,0.22970552725360349,1.1808296713619537,-0.9966230333467796,0.11472507572655231,0.092408149300586398,1.074382204920332,-3.1074609911694493,-0.67811747290821744,1.2785360452817629,-0.52405483622276394,3.2015849157023633,-1.3034889105607483,-1.2093167164467336,0.32218779016299182,0.011256616923116239,0.038174791365925907,0.13689232934459789,-0.16077830058309245,1.3871470108802482,-1.124304508108686,-2.1110687405283439,-1.7151749657052515,-0.22897323359152907
1.6475630472439302,0.53582385805706978,0.24340371445409525,-0.94512974498972169,-1.1901713799154283,-1.2546507282289923,1.102319825107672,0.61471439090480107,-1.6718637151112412,-0.79508738824483005,-0.73649176958107343,0.71796000912093683,-0.52611476494749265,-1.880308287074888,-0.7365815443849979,0.20550404959620541,-1.0037039459914774,-0.24063924349071741,0.91508424743780759,0.010571368692986839,-1.7539515885595647,0.19487222016778785,-0.40799553811900641,-0.37179203825906393,0.10757344459341919,1.8008504343278184,-0.41268122165492327,-1.7266265244290224,-1.1257519008318451,0.70666518148277879,0.87226897021954453,-1.4864433341427012,1.0455501995009282,-0.88014691314065152,0.69823263712094663,1.4277780388729755,0.6990375439291574,0.90079956005613315,0.16689287017515331,-0.45902024765524002,-1.7910892038600743,-0.18297948268749942,0.75755286188398641,-1.5133458379833218,-1.1198775911084713,-0.35087106124307904,1.2825034148026047,-2.340279920148205,-0.35848077150575952,-0.95693473422997133,0.52069166761204622,-2.1782001837781855,0.62884268905029095,-0.70923404128642442,-0.2928924094652155,0.55315925892353635,-0.15061233503588928,1.9746830256079477,-1.0014279621183024,0.92857523354779081,1.0170889306305577,0.27651408055434357,-1.1024023221527197,1.0027374668300031,-0.59030265668865667,-0.36864727685022108,-0.69018390453068068,-0.21162238679271139,-0.92859742609763862,0.56558161052913658,-0.99399697991355351,0.82968566360751095,-0.77367489337093553,-0.86587371237537836,0.16918618151254664,1.1207480524344156,-0.52660390482816632,-0.31121804889646665,-0.13180721855962799,-0.79331965594337306,-1.2939115274211082,0.35014649714411755,0.37046799429268079,-0.43793421232343799,-0.13425894328261151,0.14786704304307724,-1.5681375164854601,0.57121720649862107,0.13308120791338091,0.61995039586310752,-0.09111179814593931,-0.2074788310351271,-0.51495094062158009,0.85319088963729384,-1.7783435710379742,-0.57452042173697304,0.23592562132829278,-0.97801262653168197,2.2884308432319789,-0.34888196883992312,0.47507944746915509,0.74295755485798476,-0.57185758196623582,-0.60520172857352406,-0.74228262578339943,-0.39699520190052534,-0.86058771909861709,-1.4805911353840291,-0.26840873916650165,-0.23139633200403792,1.4829694702431591,0.30247658679002548,-1.0521317355097044,2.3119217136501775,0.30481420668385056,-1.2642105659081111,0.82870901971590127,-0.81560163678234787,-1.2215078231931078,0.56731935289847724,1.1248021062356337,-0.18307670738905901,1.0036600847717096,0.1983944342522492,1.5791528807429251,-0.52647335473217538,-0.89653238254500445,2.0013165576012484,0.66342449332671882,1.251285415934098,0.32688354993831287,-0.42254636664318074,-0.050399874310085108,-0.18792666390280727,1.1293358784412131,1.0258007454246718,-0.48837233097511545,-1.4353804745361696,1.5286043184121119,1.1915668400938193,-0.30871798528684857,-0.25905490689013838,-0.43458728090064785,-0.23376042259897545,-1.9993548207529155,0.57839752957677981,1.6970631352548116,1.6945945687588577,-0.70258979972908187,1.2999599667480017,-0.63961728439619181,0.64439933595573784,-0.21223806393333461,-0.79667295230927249,-0.56951365595393688,-0.73181395311475084,-0.095824595303298774,-0.45829560473079139,-0.35852357595440409,-0.25913580004849612,1.5087820776844705,-0.23209967855328564,-0.50152060280192834,0.57684909030875531,-0.51383127401030071,1.7267939338989429,1.1930150032575848,-1.6268557095839404,-2.3193686389302326,1.4309952910543307,-0.70053984911544909,-0.62724232871013064,0.07725097620242892,0.062626444565666434,-2.0897292601834203,0.54686885907202387,-0.96309682803110674,0.062658733237748038,-0.32631412914041569,-1.0151440799526115,-2.446653893765256,1.7346329410469468,0.37533251420111424,-0.48265036748010676,0.11864365547350217,-0.7541180825645426,0.01552010522627089,-0.94344447794409825,-0.24115511036199597,-0.73333908627276956,-1.3874728209922023,0.34378510103743753,0.26496727256195612,-0.074703271358930845,-0.79026253440752081,-0.78622147624392169,-2.051854988011478,0.078873626230236096,0.21843429351116136,-1.4121361411825777,-0.31073664917863736,0.052267419514993564,1.5919472740341971,-0.10413017456430289,2.1844830196927592,0.96897164383394974,-0.33471709752736717,0.31820096941887605,0.41877338210310927,0.38960296430548041,0.46451588425230511,-0.5486465862919615,-0.47156706433524775,-0.28504239832627526,-0.83647211627012641,-0.62734679258123727,0.83231697742001354,-1.7674904269579821,-0.84421908187474715,-2.4258622870767192,1.3025710424931412,0.2194527788735505,-1.4632115298279125,-0.44814189630020923,-0.46264216029002414,0.3234309885904722,-0.93745892907315231,0.95593595802495612,-1.9276237393820383,-0.86391645807257378,1.3811237609207569,-0.58048047101906952,-0.98901967712649608,-0.36084568298913489,-0.79283472864629767,1.0101129385676131,0.79729504519629524,1.5070804966867937,1.4796936428345786,0.66195199081806877,1.1533280952838554,1.0824662640016565,0.12878282112814438,1.0614270985863397,1.5875765133414292,-1.1644524643273757,-0.15839259184321677,-1.1765354741387386,1.0214248973872864,1.3341987345633903,0.86974891540772148,0.78374494475102952,-1.2813719381162707,0.26578195061445603,0.50515714748055407,-2.0503190107416054,-0.7047810875353494,0.44258692664242266,0.028722815751327194,-1.7469747136329021,-0.48034882013137836,1.290342433004769,0.75814219093014756,0.64081907552000206,0.97535441221591035,0.30146967259010815,0.077263784650013462,0.29160693468431975,0.45095847498994751,1.5633993006609479,-0.72328908609210152,-0.004400147875122877,0.55180695324074214,-0.096815534323594826,-0.60805272147268763,-1.3555293862500057,1.3979881797214657,-0.30693745865317246,-1.1864311124453195,-0.72841338137984057,1.2793807913130801,0.37892630620733114,-1.1976353884992803,1.360058761726523,1.553464679181034,-0.13183827039325555,-0.46040595141045393,1.0940425964461258,-0.56175118288783865,-1.1787713779196447,0.81900961049189036,1.0910264370900009,-1.022489820597946,0.42210781471569697,2.0403855206064185,-0.17928352479291337,1.541966752971561,-0.76147834357968192,0.20979024411928976,0.7755817769034884,0.51186848278658093,-0.55223109439868978,-0.55042746857575808,0.32238411900222957,-0.065173446970149471,-0.10997213621885465,-0.88167703335337833,1.2168182310154427,-2.7626386734951995,0.51322782902786956,-0.60111251108039432,-0.1043403855012497,1.3024462707437545,0.15110374492286222,-1.5150121185066632,-0.57230705241098023,0.96218027957884367,-2.5402201506980435,-1.6132973848204533,-0.64226232150149565,-0.23800424327358027,1.9846201069309164,1.2857303379696294,1.0472886508510628,-0.55615903429324298,-3.053420885627629,-0.62730948888877547,0.26948003565409595,2.6312977832157927,1.3658182934579848,-0.85855721975554822,-1.2523497045154499,1.0054181674286489,-1.6910871783600292,-0.29439303781125387,0.26719711554831399,0.19487188870182559,0.83476130053902298,2.2172561707119431,1.4814677126309381,0.45387252511684617,1.0714770744837925,1.0830050446166772,-1.0995556438066134,-1.2759562901893882,-1.2713779105907641,0.29976945468951383,0.034002515076203693,-0.46096921616610614,-0.97052291815012748,0.39355711487837003,-0.18838978289054686,-0.52443377743305242,0.94917276200056855,0.3869081875845789,0.073596917441460435,2.1824672026497338,-1.1642456291400107,0.65007125077679784,1.1730782265853694,1.210088189491866,-1.5889142169933503,-1.4328600312035757,-0.12208856544740113,-1.1831890904879181,1.1838147090148816
-0.53074795881914927,0.92864467180825594,0.4154320377367714,0.73966813312896618,0.8794924398023346,-0.18287225283790215,-0.16661630943524663,2.0922191604768177,1.0059433304055712,-1.7893378364045311,1.776109230360865,1.9068658097229565,-0.19674258178260351,-0.15317728369685901,-1.8473900513666099,0.80266265507276935,-1.2455163167030097,-1.0543640777653851,-1.1950975458852013,0.3568938837349328,-0.44016324600040219,1.0871913546133578,-0.030624329885133014,-1.7648324321499556,0.21711196660224741,0.054506226192115703,-0.78873023522584595,0.6778023080031188,-1.2620782471988787,-0.75056600556480058,0.85238991780570472,-0.72430986201260217,0.16365169984846081,-0.8976755460564505,-0.84093269719422514,-0.95998024627430933,0.42396107313369119,1.1546753356827089,1.0960693395516281,0.095360680861814942,-0.30758918125449003,-0.23454479740860573,1.5851656606797988,0.47170282699974569,-0.40311163539746436,0.33497498075031928,-0.094033553101013329,0.17826517232100322,0.44510319790949626,0.85993766470444633,1.2812234689101112,0.15684503049651757,-0.27139384316487725,0.78305809561034989,1.1379435137776726,1.4301272537843968,0.84908908818217665,0.69440739665689621,-0.5383564496757024,0.50975927110233432,1.1675565352962882,0.32208756569533376,-0.68798452259807263,0.61759198686469086,1.5255148032550647,0.57116838064020803,1.2238328432952381,-1.3717308122286165,0.41247285546810758,-1.8767014813365444,0.15121768101523639,0.055615879437524017,-1.0216233017341372,-0.19252639774215122,1.5131380222305788,1.6475265650687807,-0.94572779755538805,0.16884456852506896,-0.66928339658705416,-0.59559648116163955,-1.2908287774140164,-0.64284984806597834,0.095994776972379264,0.61247193312421078,0.80394803521155644,-0.8414968217104789,-0.88742793761134442,-0.6154075236364871,0.39887829723702134,1.085479693473173,-1.1515041050249333,-0.27562824272180558,-1.5854737964255941,0.77088511021162343,1.3159721465992866,0.34216866928168471,1.9696863497603496,-1.3860506778294031,0.632181739597234,-0.54859787010322048,-0.13990355045785138,0.40952305577428172,-1.1044934167041482,1.8724106928621922,-1.8265303182123265,-2.001159232273761,-0.097853241026740173,1.4135414510819619,-0.58688871867553061,0.071260216324764009,1.0561297399099951,1.4046948218229003,1.2914822647870736,0.29022898200248348,2.1389160536969771,-0.6763323391295204,-0.1763358615640839,-0.41215114867561664,-1.6260111214919628,1.374138634106145,1.0980667289058128,-1.0342777582748777,1.2489551892258923,0.040107618482501356,1.4638865055375079,-0.40839605918686261,-0.24348932272408427,0.40241708310780494,0.26943188113426797,1.307625817297573,-0.35096272458042094,-0.68820278290343162,1.543277981276914,-0.41688787126232463,-1.7970759144625155,0.1660127673971552,-0.47130385135152569,0.98218932602860631,1.6598222445340034,-1.908404525637831,-1.4857947861791847,2.7665722652154949,0.23309790468430477,0.11335969725676566,1.4865577020603182,-0.45153586821972802,0.28706156818473416,-0.044899309478982047,-0.5615130800656859,0.87213239802020626,0.5001124507609912,-0.78211950062697422,-0.77501839088014968,1.0028705170759853,0.012289176742597795,-0.10616615831319315,1.1047502737370567,0.58085757200897026,0.58804405582311303,1.6467010606802677,0.41474478341037041,1.1676010732517459,0.44730189988896596,-0.59862132445722405,-1.8123052209922152,0.31682256226118677,0.03331910098504251,0.75884343419896438,-0.47599310044552756,2.8856159776630341,-0.22888097252136946,0.034010474878993023,-0.20967317564261459,0.70710827595958436,-0.31129029458443852,2.5694788833606559,0.42405696132416498,-2.087138303393449,-0.6243966243136797,0.13941853351510167,-0.3801033346791588,1.0582489289701733,-0.24858436926252425,-0.14426084313713894,-2.3173237928232542,0.50299844989597187,-1.2835567442851781,-0.32542327226099443,0.7999920295823485,0.87625554860450905,0.28253847608753618,-2.5187410217076263,0.82371618484766251,-1.3209310520621229,0.52274306295659601,0.3347920186181656,-0.68223547927193906,0.1638835169267352,2.0264451985961069,0.00013819011186085758,-0.23724696572970758,-1.7471299904092989,-0.46457648228081089,-1.0856836860943699,-1.4013072816762626,0.18332818342968862,-0.52835296979414348,-1.574060678317369,0.56889958549840702,0.99887829532883177,-1.0233015005667101,-0.34091859427731142,0.025839120951295241,-0.74247499836725206,1.6662534117160963,0.87003762695035081,1.2561956028649359,-1.1926609591876252,0.35196742718472085,1.5542229064196931,-0.60795431659483579,0.0015325916418800398,-1.1758473557969547,0.72820815187801913,-0.2715497898623711,0.25593946425621039,1.1051249802460201,-1.6068192113546389,-1.0366164364217312,0.98464187619644272,0.091489203969480279,0.79419079163979966,-1.609081797026455,0.28214351655694664,-1.2993963144993408,-0.21048680723559302,0.29472859989911859,0.13099557356877187,2.8318235412716164,-0.75751880025523533,0.19156609164165267,0.16687452436956632,0.66019980926428035,0.080988250876881912,0.72296956271711654,2.166644550079718,1.6528127908073107,0.31045085707742343,-1.1076723608860428,-0.14232233872750907,0.14995824630005686,-0.36286525334042741,0.83546247585765476,-2.7916486987624771,-0.53364361145390471,-1.9784851027030765,0.70294985588242032,0.37686165719331438,1.1240127927528536,-0.061584699132868063,1.36297689941478,0.43524134249317964,-0.69664763044327604,-0.83581607898493193,-2.1213413046370682,-0.15633477454992437,-2.1838711035900991,-1.0097886354263672,0.45826137880062662,0.87679852890838006,-1.2904576385442892,0.67217680940243452,1.1833474333181131,-1.1934072937293045,0.89733943639958946,-1.3611499446353075,-0.24654530209133474,1.4869928791766931,0.042398720229141977,-1.855889498734886,0.67022558402019916,-0.53853033303394737,-0.15279270739189638,-0.46530198336597539,1.7245322013120865,-0.50693639351248454,0.37779862577886331,-0.86580810099113859,0.48598008288054428,0.58276324779553501,-1.0446201775633157,3.4076865138429837,-2.6622229801761867,0.93558857552039776,0.35799269253068094,-0.018541669800790545,0.06270289548862841,0.69801176758745542,1.9504665013582729,-1.0030229352674551,2.2292852490541262,0.88936528241736323,-0.89327864337638985,0.30588804858857305,-2.0096277301507866,-0.50253124312448905,-0.36587121012086393,0.44391617922448218,-0.35314830091584221,-0.78662437236353544,0.55075627777358471,0.44551912362083196,-0.83773456925284995,-1.211950291775207,-1.0600045209074533,1.7286698353566234,2.4279961706343394,1.1866382675080387,1.3742607245809568,0.034280931240868437,1.1544902767000598,0.82878757300410155,-0.24360597405102757,1.0874895084637963,-0.68850968699964121,-1.3459367325208449,-1.7510617512422588,0.88177748652216881,-0.44034579112328454,2.1674163960953217,-0.47966909234284033,1.1384236800869416,-0.089396889550256139,1.2965697171684833,1.542505055166145,0.44476588129262346,0.010207903685243953,1.4557900879055592,-0.99319656634673203,-0.071637978617515238,-0.92725032465805091,1.6435022934549646,-0.83888028306889884,-1.3852252529634115,1.0634490208967513,0.49893335430362767,-0.046385515784685832,-0.011881015357255434,-1.0287241897593493,-0.38082488338218523,-0.65936544279118214,0.014439175620251408,0.84448758240007149,-2.8479768584526886,1.2086477935701332,-1.1661911213486955,0.088806632411101954,1.4137591690909663,-0.28060403090944852,-0.45974070109915488,-0.73584419352736841,-0.59611884978346441,0.39604221876182405,-0.17900471251457675,-1.79333874682804,-0.081254460752089697
-0.41305328753757253,1.3402966475618798,0.27611144624956652,-1.1351393392023019,-1.5446152974516298,0.63377844693074148,1.595318390011127,-1.5041784330536614,0.328752459838001,0.28821308252682548,-0.3840988468785938,-0.80358548918835693,1.7654530985012109,-0.2169978224972173,-0.27579435185791534,-0.26459331894282112,1.6194195103103246,0.11423112742409085,0.32746407364621827,1.4321096902643111,0.60683931327291507,-0.13192662635631094,-0.70735862535672933,-1.0638227498598947,0.60573204851718554,1.1729686851584959,0.31989858892223211,1.7851610303160612,0.36150553228921672,-2.5339334818634964,-1.7540538553893379,0.09201342065765987,-0.044667905051858692,1.03707182877311,-0.63796572834988863,0.34183366216604039,0.034551664842075516,0.64791928585539604,-0.42138896557977906,-1.3249913463828504,0.20332043481929901,0.27627794609404904,1.3011039317925526,-0.088704725083588495,-1.0108611847966087,0.38573045124080613,0.33153835960304212,-0.41458542365263951,-0.5447233368764941,1.1448800918067696,-0.72170784976041857,-1.5509673635708736,0.49342333516423703,1.0292344990069249,-0.35343824347361363,1.4876609490997943,-0.022208131450291099,-0.63209581773388268,0.89825302770261273,-1.1053593670908637,-0.6183517480138212,-0.42136827178739106,-0.61106154076805519,0.066416802073817227,-0.35540920641923274,-0.44276054415890287,-0.21994440355703904,-0.12526355409546991,-1.7776164992711085,2.0849649836766257,-0.0014038806782547353,-0.65865701140723343,0.27973188672981458,-0.77747557308241499,0.29754332087206009,0.51793720711512437,0.30777790275509675,2.5614714290361702,0.7065917706185465,1.8152704680379246,1.2045324198458409,-0.15523772555337154,-0.027661558596185635,0.7389613069490043,1.837323245368359,-0.2719355467183765,-2.3551805331905822,-0.40054487729715343,0.02726371823673281,1.3337683553508057,-1.651640802918787,0.61367444281656869,-1.1998023133646705,-1.3368658488098775,0.53469407652708334,0.01747484850506114,2.9852856217275043,-2.1278329354818104,2.3362038215349115,0.36313145860006457,-2.627494319635693,0.30283550157512906,0.41620677189636013,0.058698323990906603,0.5484327761633716,-1.1199324792655954,-1.087745636000865,0.84081859262247183,-0.40530976938019342,-0.32812562519034416,-0.026066048935274588,0.20867970743842076,1.9816675097832137,1.1679819108815905,-0.28825385839233525,0.48323324491344538,0.084176784993226075,-0.91931375437280549,-1.6953545109533938,0.33199845555377677,1.4436288910416271,-0.35479449011568437,-0.53945370213286914,-0.9454962624870733,-0.46785574351389558,-0.23701355372616947,0.28279862877430911,-0.41012378945092437,0.13167852752400044,-0.95235482583809306,-0.75087304894785933,-0.015277902481169045,-1.6189368574547447,-1.0248782190008272,-0.66664036104785562,0.47333333560874258,0.567156210792922,-0.72082379626434578,-2.1134346874097685,-0.035049866783000365,-0.0040611930087107147,-0.14204244510760575,0.63953891861469192,0.051196852622211644,-1.4405968522766555,0.8617906078395976,-0.40164129082711031,0.61970831520177072,-1.213863388074538,-0.51914311146902115,1.5259081008883175,-0.018655733610369315,-0.7447462573074215,-1.5733570301235449,-0.364196559033717,0.82001209187798152,0.60994387269512917,-0.90620933392916225,-0.26063829311233494,-1.0171613825783548,-0.92236348014663183,-0.2374789882509247,-0.40061027713128972,-0.61326466806292912,-0.29054964188184079,-1.635159083618078,-1.4755527534582098,-1.4891457553628606,0.76071112044036937,-0.90156202769519056,-0.80704051161699919,0.91368891672882546,1.4098663301247607,0.31078240520076367,0.063923640885473171,1.5427093083045402,-0.24553663641480822,-0.62544850195996493,-0.73743331143697433,-0.64073173674316919,-0.77605937934809666,0.58527585281383343,-0.36806215226091699,0.49108591794858103,-0.90242974246524998,-0.18031543924774099,0.43434258376086554,-1.0429149187623783,0.44453317487974708,-0.1880592784517722,0.212372275116779,0.65587990786222616,-0.13855639188047852,-1.6042949904423849,-0.60417858973362004,-0.69267658374327268,-0.15823979363024424,-1.4305184667533974,-0.78063075316132113,-0.40383553844521081,0.507023431517446,-0.15386475057307272,-0.9144637390367838,-0.30010343917564147,0.96333726737753811,-1.400460221930504,-0.43076424599941865,1.1711215804829471,-2.2662840798329706,0.24777021223412427,-2.3091177194148771,1.1208039663976519,0.2518287123234747,0.73024782904503882,-0.71614121835546762,0.73115805163154368,0.80475139102745763,-0.81517997098814332,0.068837423354473945,1.3342454042772769,0.46334722737113837,-0.59384560897089989,-0.22765940164282739,0.54422818197075196,-0.50995046523798992,0.90124735720501026,-0.89340017573672181,-1.207899568145655,-1.4926336183107083,-0.09752828484294053,-1.8097677968973938,-0.2285348666644457,1.0903368480051732,1.0069854451171969,1.3898645229218589,-0.52336773330993491,0.030671056723922376,0.23131452067539002,-1.4370990602174791,-0.35666166923738096,-0.96232230720513878,-0.35605763242072835,-0.053614650517369182,1.2687229596489713,0.70209853349489748,-1.0269306911962237,-2.1573503881139833,-0.87353061035120361,0.68682595462426121,0.80518222476147416,-0.96245911096836489,-0.1879847595839301,0.31900311677705151,0.64765680531042302,0.83166022667980821,-1.266160617571787,0.25972403101853325,1.2748123331845991,-0.2161113494681183,0.45109760771404722,0.87122094114106019,0.328291288324985,-1.195446821935831,-1.76886606370056,-0.7770052685448936,0.002846677241364354,1.4600977770256105,-0.90008640022062469,0.62443932100402388,-0.7372585391148907,-0.55841599169845879,-0.80824035523704163,-1.1722899677369483,-1.0821660673278923,-1.7975444309091797,-0.69336183190056078,-1.5504340069555644,-0.71508139246491409,-0.87937213942408998,-0.65350784575244403,-0.171158631073239,0.37609366337600431,-0.10597273013806828,-1.0645393008698558,1.33565900752821,1.4183849731040143,0.31249003599435238,0.87556251397560836,-0.38189033051226662,0.8291856689970728,-0.14170584479382373,1.1550710588765651,-0.64576070180581124,0.52212469918980664,-2.0914122958596963,1.0534625045660229,0.31364409038237506,-0.31312661994913055,0.44783397608115461,-0.32647651965523883,-1.0710733865991275,-0.98432770356637889,0.3748193721794103,0.66068676911909374,0.52012455694410464,-0.59736986785271229,0.14801923700710573,-0.62876044232822159,0.023717856382896557,0.48892805806895884,-0.512838614504733,-0.24130780426300866,1.2153879692644289,-1.5322043733534099,1.1902180792277173,-0.11115014407600379,-1.3059524178469724,0.66057236979685607,-0.42475786533498983,1.188318535556909,-1.8965077697956962,2.3316644936659783,0.38787430553101732,-0.5197814728989002,1.3648168446402358,0.32569705980733005,-1.0160016665402971,1.1765083652660298,0.32346272288191474,-0.49587721144633917,-1.6784734969749497,-2.2807262279509377,-2.750187426487996,0.25766264553038121,0.33224597835751857,-0.35068235113151047,-1.2532877735983323,-1.504907251229318,0.2998094457469283,-1.1223018857356053,-1.1318257212639358,-0.4609276710659202,-2.0794729617442078,0.49248629734139998,-0.8259369242220489,-0.52504878322004944,1.4271633588820558,1.5204874735834222,2.67055767928148,-1.3473756636822307,-0.14192108182412494,-0.23868333309635084,-0.20912346470630996,-0.75319301736291799,-0.89301710150169089,-1.1079943279116322,-0.29117339813551923,-0.86208325652115414,0.19926245773671111,1.0801616188035266,2.2876124867527432,-0.25850588754127163,1.922335473223127,-1.0784137091880479,0.1881285504761368,-0.78478517103066558
0.34134364792996041,0.97268735472934087,-0.3188915172063756,1.492369686582671,1.1937828036509317,0.35215329079546503,-1.0901765846590756,-1.3637854046458158,-0.15643711892035264,1.6614591471967772,-0.33743592227141606,1.967523592623257,-0.63458386834927849,-0.7276572784323122,-0.14936517960007961,-0.0063836697054897359,0.44677673319495531,0.14482883122967338,-1.0974656609908591,0.2688432750404901,-1.1954805116895917,-1.5985428538405673,0.33008957483507562,-3.5504193898978293,-0.15549544838861717,0.66721087428961268,-0.09999563833623748,-0.94010875960463902,-0.69139352225293249,0.020857368572623346,-0.16820597883808608,0.98407795706887069,0.93803960009349374,0.19358762531929857,-1.0659368127488114,0.94945787973685536,0.0060902973777307995,0.17616248134065021,-0.80084360558161205,-1.3383834771353251,-0.20160990837087478,0.86318795027352713,-0.85380072386311645,1.0821004681712751,0.23874866906176606,1.8457887788083536,0.55272018828602076,0.89773991139289322,-0.71330455908035761,-0.50048166964631591,-0.018063951389711518,-0.42227598287977086,-1.8683741269292773,0.16205649884416248,0.55651191942660627,0.047516751526468282,0.77558963573111983,0.72808084487500524,1.8754870117111393,0.47697726420668879,-0.06455757813104375,2.0940403573506048,-0.045923214844485895,0.34412063498124712,0.46226205584605734,-0.63703657806653513,-0.91085637445786716,0.47245654941702808,0.45868407754391516,0.074606688939451965,0.70706895220437049,-1.5329686787246628,1.4405643836786626,-0.10200968965308006,0.30273993203158134,-0.16045879753778905,-1.2364762161676432,-2.498942487700361,-0.78224185577676753,-0.71186292642461912,2.3292729689046547,-0.58329716223503114,-2.5408864083029767,1.2844120059014297,-1.0588190067014425,-1.1642846271924328,-0.97394778650598268,0.5584596505587317,-0.53348264811022783,-0.99401607882078846,0.40208649293687887,1.1294462773017442,-0.4606640247531123,1.4908400797994596,1.6549354903511477,2.4587325867748655,-0.86397895909611799,-0.10279833217920101,-2.3213533982976036,0.12796990276607875,0.41056135561731188,0.52122753383897136,-0.56299603386402464,1.017722556397155,1.3406169800934187,0.084365423867775069,0.89622429859612818,1.903091315805574,-0.76022410574548793,0.94946873013227562,0.16242152018083952,-1.7002922628634844,0.26435062925347858,0.26445990809696734,0.62002764196054294,-1.8555626086312527,0.069559255134539408,1.1896131329350867,-0.015994219111686005,0.48751663809715168,-0.34204034261876287,2.2285485826816029,-0.73612039093563575,1.4144686673195599,-0.6073243072981972,1.5399576401914852,-1.253541980950716,-0.45351296657968154,-0.80824863972968319,1.4792106037503658,0.9240164912336245,-0.94794667059963167,-0.013544983897722841,2.043621087239651,0.85789436451858414,-2.9943565552337725,0.82254899397699999,-0.019757828179443413,0.72670935125862213,-1.6657442940388796,0.73179648806645858,-0.8212234428018127,-0.54018272509296361,-1.0781169457166049,-1.5702503460128743,0.762670829557625,0.49297833601607582,-1.0780184631108294,1.732337346401726,-0.1393315406238024,1.2267462781477876,0.40448282843023986,-0.43721848140777952,1.7951042569744315,0.30180648040521141,1.2039498477490231,-0.26210335384895345,0.67595645851162189,-2.3773270606877728,-0.22208203544695879,-0.19514285241636242,-1.5295243701315879,-0.90961176615809936,1.2322251642012931,0.1910200218624257,1.5188845486506488,-1.6193899810325501,0.66224372988640179,-0.12054475441983309,0.094749680707217052,0.25196253821036108,-1.5332006188202745,0.22221467451843488,-1.2169893131694582,0.052483394984657476,-0.12154456487202016,-0.36631325349634974,0.70046140115826927,-1.071696455364477,-0.060365835194528213,-1.2068253293281963,-0.14812260052230775,0.091110763512544463,-1.0579345130648941,-1.2216224464506449,-0.57381586743818647,0.55781610854153663,0.3519421464391268,0.024268559941125024,-0.13149290428727425,-0.66466769010881788,0.54475038379745877,-2.207950613179404,-0.90853045573608004,0.35315933247083781,-0.42654152201059115,-0.077090204261267087,0.64291372701667393,1.0006814106855055,1.4887813954950821,0.88205522517897972,-0.67663218988035279,-0.64008945043154331,-1.2217378149243967,-0.98309674284480231,-1.2465504325518169,-0.31269288727880395,-0.94692981100936435,0.73322151533117175,-2.1670548610292859,-0.67784177042202709,0.58566693148613258,1.5791399559969932,-1.6218411320325086,0.51618749575169087,-0.39944263912877764,-0.17991553576892644,-0.45797639187082229,-0.96161391939274043,-0.15943059160942877,0.77606488682471841,0.91375324686611858,0.33798088257041975,-0.93709421739963494,-0.38513387291313883,-0.33590666266815578,1.1686920256595865,-0.63886486273199639,-1.1856299662385981,-1.3661475101801812,1.7481481858208638,0.10638987242971358,-0.14563911254521897,1.3317245389418302,-0.17676464169307965,0.55397135220863869,-0.6060243115673567,1.1567795137482579,-1.6364295846679398,-1.0681726477579281,-0.40807466200410897,-0.5167574956263169,-0.2100122544032427,-0.60192564989509301,0.90027992411806068,-1.4226526277669469,1.2088827945830782,0.49845305264211026,0.76190784817240609,-0.21925897266095071,-0.8326100957742093,0.030040053724848793,0.31364629825605284,0.60385055493720208,-0.3997925372273059,-0.83266094207395769,-0.030771282779097832,-0.52717340172418259,-0.59181472168202132,0.32668002015330078,-0.35988842666150306,1.7313761412837279,0.58068434965720406,1.0367881706641129,1.5338328174937692,-1.4450068034611963,-0.25389871865461922,-0.5733996448230142,0.48565882357897094,0.56975532810085128,0.7994733747561158,-0.75260475537571447,-2.2218341921850433,0.27829054795920805,0.15518114950757228,0.94735373924908528,-1.7736654008343316,-0.60311100370922988,0.1125310582275162,0.35743454099970512,-1.1016605955556837,1.4639698493438726,-0.23189955191830589,-2.0786087833485007,-0.20926031307259063,2.0889118090180707,-0.012193996633704615,0.36339355884070179,0.38829638749760165,-0.67271362833706372,-0.22205970807280423,2.5744027821459383,-0.18377111313440847,1.2037533441183679,-0.92976265677102476,1.402982899763044,-0.98887710223571923,-1.2824868189453469,-0.67428425063500219,-0.063814206902876439,0.48316954387814459,-1.3516250391708919,0.22092292205987957,0.9974095270070733,-0.31242014518131173,-0.67299762819257913,1.0943490269138012,1.0796454440590026,-0.25249911075332154,0.90505306248350559,0.35728122392599465,-0.38158527975838646,-0.49605291600530405,0.52296786675740481,0.75049473000379208,1.1303178031718326,0.0095778738245752768,-0.76210832500758974,0.21582260574172257,0.23045106749372812,0.62708911875523099,0.37333236558251975,-2.5490832742636966,0.64194525032719363,-1.137911689791355,-0.32144896477018092,-1.0134544701645425,-0.35672599802118427,-0.18944323424032561,-0.66538375277545803,-0.13326817736178145,-0.28080970682597234,0.078616682258593987,1.7692625464002603,-1.9124565199225725,-1.2105363480502838,-0.075842505191705364,0.33603339434399182,0.044664380725113847,0.74501419793030244,0.26331914376320609,-0.99045750787768172,-0.57268709990910138,-0.80540122391849522,2.7764247642532589,-0.83312488464775791,1.4275984381665483,2.4619264939837189,0.40367409650268016,-0.58133281230860379,-1.0436777253102534,-0.59225504169253418,-0.76790084057445096,-0.18224306085203787,0.47275166490376219,1.4964112009263932,-1.4630570483335612,0.97678496247297997,0.35379437055630497,-0.44805372058022574,-0.14896097396226007,0.89113990774953056,-0.27814884096404985,-0.11891124638025279,-0.65900218113080211,0.61554653404760251
